svm_type c_svc
kernel_type rbf
gamma 0.5946
nr_class 2
total_sv 745
rho 0.0733192
label 1 -1
probA -3.69158
probB 0.00789752
nr_sv 366 379
SV
0.6252508210400185 1:-0.192587 2:-0.784482 3:-0.749014 4:-0.674779 5:-0.859494 6:-0.810054 7:-0.780357 8:0.101606 9:-0.211935 10:0.138287 11:-0.644161 12:-0.672129 13:-0.694533 14:-0.683435 15:-0.87181 16:-0.791123 17:-0.539211 18:-0.799707 19:-0.652927 20:-0.421567 21:-0.843101 22:-0.684274 23:-0.249417 24:-0.228567 25:-0.326802 26:-0.412511 27:-0.707243 28:-0.533246 29:-0.634721 30:-0.565258 31:-0.611886 
0.4785640471937516 1:-0.164354 2:0.348848 3:0.150162 4:0.0275935 5:0.19013 6:-0.125418 7:-0.325345 8:0.442944 9:-0.572504 10:-0.100741 11:-0.204261 12:0.0853503 13:-0.668228 14:0.255793 15:-0.133953 16:0.0238997 17:0.225025 18:-0.0445949 19:0.684337 20:0.422151 21:-0.319143 22:0.607496 23:-0.264564 24:0.0341288 25:-0.469367 26:-0.384359 27:-0.805717 28:-0.517564 29:0.124007 30:0.544271 31:0.376899 
0.7385877465836271 1:-0.168312 2:0.173528 3:-0.173024 4:0.2341 5:0.163179 6:-0.234493 7:-0.117996 8:0.482176 9:-0.809147 10:-0.172953 11:-0.0866555 12:0.522417 13:-0.414778 14:0.230141 15:-0.0476412 16:0.0992791 17:-0.015984 18:-0.20141 19:0.896379 20:0.0208608 21:-0.56642 22:-0.241191 23:0.77531 24:0.107252 25:-0.322933 26:0.114153 27:-0.907125 28:-0.738736 29:0.267464 30:-0.240701 31:0.226161 
0.841421958933819 1:-0.43244 2:-0.206541 3:-0.148782 4:-0.0756254 5:-0.396306 6:-0.234798 7:-0.285892 8:-0.173293 9:-0.653471 10:-0.087538 11:-0.862761 12:0.265667 13:-0.375516 14:-0.0811846 15:-0.476686 16:-0.218265 17:0.215784 18:0.0434783 19:0.731712 20:0.500256 21:-0.31908 22:1 23:0.102052 24:-0.0623732 25:-0.643936 26:-0.575296 27:-0.781693 28:-0.127352 29:0.156059 30:0.620913 31:0.568966 
0.7005176708487233 1:0.877635 2:-0.269882 3:-0.374821 4:-0.259963 5:-0.248493 6:-0.562612 7:-0.372079 8:-0.683296 9:0.431833 10:0.223946 11:0.136433 12:-0.490075 13:-0.0317881 14:-0.266475 15:-0.244771 16:-0.235529 17:-0.439477 18:0.498709 19:0.0592716 20:-0.448259 21:0.0494705 22:-0.0092372 23:0.0184195 24:0.119009 25:-0.135127 26:-0.895342 27:-0.929129 28:-0.954316 29:0.492887 30:-0.16687 31:0.239432 
1.34652587056211 1:-0.135134 2:0.399821 3:0.375427 4:0.528414 5:0.227978 6:-0.00487376 7:0.267664 8:0.153787 9:-0.498881 10:-0.567999 11:-0.527973 12:-0.371031 13:-0.0186401 14:0.525977 15:0.144131 16:0.387647 17:-0.640776 18:-0.18166 19:0.0781592 20:-0.494196 21:-0.630303 22:-0.655612 23:-0.673061 24:0.166131 25:-0.0236104 26:-0.0346552 27:-0.786838 28:-0.830101 29:-0.195383 30:-0.359318 31:-0.18013 
0.7882222379614868 1:-0.143554 2:0.392922 3:0.375078 4:0.414507 5:0.456352 6:0.0201568 7:0.0379429 8:0.461284 9:-0.299704 10:0.239481 11:0.029947 12:-0.407218 13:-0.569806 14:0.411481 15:-0.033089 16:0.34637 17:-0.12371 18:-0.268965 19:1 20:0.0724603 21:-0.563001 22:0.959357 23:0.185017 24:0.0551457 25:-0.554533 26:-0.659434 27:-0.910533 28:-0.364969 29:0.337569 30:0.0594959 31:0.281808 
0.7334533495443503 1:0.883784 2:-0.201746 3:-0.336466 4:-0.33296 5:-0.196597 6:-0.571701 7:-0.516359 8:-0.501625 9:0.330732 10:0.0477196 11:-0.109431 12:-0.702311 13:-0.125747 14:-0.258296 15:-0.353354 16:-0.300896 17:-0.0932401 18:-0.280899 19:0.601377 20:0.114714 21:-0.472079 22:0.831793 23:-0.113057 24:0.0580258 25:-0.497033 26:-0.4716 27:-0.87013 28:-0.451321 29:0.067881 30:0.182985 31:0.243404 
0.9044915326976641 1:-0.0567393 2:0.785228 3:0.25916 4:0.793419 5:0.897184 6:0.0703781 7:0.680251 8:0.568537 9:-0.530461 10:-0.688427 11:0.0494115 12:-0.148138 13:0.367689 14:0.792352 15:0.759505 16:0.916706 17:-0.0805028 18:-0.261009 19:0.700616 20:0.176649 21:-0.457701 22:0.958695 23:-0.0368403 24:-0.0946206 25:-0.590834 26:-0.327925 27:-0.836419 28:-0.334099 29:0.135021 30:0.571255 31:0.301897 
0.9972021965190928 1:0.942431 2:-0.429091 3:-0.573061 4:-0.334984 5:-0.442379 6:-0.750742 7:-0.350405 8:-0.675091 9:0.114812 10:0.38076 11:0.131725 12:-1 13:0.143178 14:-0.341884 15:-0.390231 16:-0.337423 17:-0.49001 18:-0.449578 19:-0.515496 20:-0.247037 21:-0.526587 22:-0.685828 23:0.71556 24:0.0898866 25:-0.0110344 26:0.159363 27:-0.68609 28:-0.70498 29:-0.466413 30:-0.239951 31:-0.328582 
0.3999213067794298 1:-0.0739146 2:-0.30551 3:-0.442161 4:0.0907993 5:-0.10343 6:-0.632993 7:-0.0755701 8:0.800144 9:-0.460325 10:-0.387316 11:0.529565 12:-0.393272 13:-0.152884 14:0.0861002 15:-0.117069 16:-0.0386311 17:-0.618631 18:-0.589294 19:-0.713033 20:-0.288921 21:-0.598935 22:-0.861847 23:0.975809 24:0.473726 25:-0.311662 26:0.759493 27:-0.0722678 28:-0.694382 29:-0.607752 30:-0.249133 31:-0.426059 
0.8960448698159001 1:-0.152598 2:-0.821496 3:-0.844764 4:-0.596742 5:-0.880706 6:-0.902071 7:-0.684624 8:0.216403 9:-0.055318 10:0.415205 11:-0.737564 12:-0.710084 13:-0.476723 14:-0.604995 15:-0.814678 16:-0.724346 17:-0.555694 18:-0.721055 19:-0.803611 20:-0.391957 21:-0.749361 22:-0.728042 23:-0.358563 24:0.241177 25:-0.435067 26:-0.00565333 27:-0.641641 28:-0.485623 29:-0.648699 30:-0.57444 31:-0.566615 
1.031075702247112 1:-0.0795437 2:-0.401368 3:-0.58572 4:-0.220521 5:0.104896 6:-0.594674 7:-0.173976 8:1 9:-0.823461 10:-0.724492 11:1 12:0.499098 13:0.412194 14:-0.226829 15:0.0888299 16:0.00504583 17:-0.539461 18:-0.624677 19:-0.69999 20:-0.399879 21:-0.64321 22:-0.621496 23:-0.341393 24:-0.138548 25:-0.358306 26:-0.369088 27:-0.380616 28:-0.677137 29:-0.634932 30:-0.409725 31:-0.474259 
1.132679061403718 1:-0.374162 2:-0.612563 3:-0.509294 4:-0.349795 5:-0.749108 6:-0.576905 7:-0.427442 8:0.0119795 9:-0.687735 10:-0.613007 11:-0.73017 12:0.251337 13:0.185815 14:-0.356771 15:-0.542471 16:-0.472533 17:-0.304029 18:-0.52481 19:-0.404466 20:-0.141514 21:-0.584995 22:-0.301525 23:-0.233434 24:-0.162134 25:-0.325959 26:-0.432135 27:-0.599427 28:-0.723202 29:-0.435278 30:-0.245011 31:-0.272524 
0.02611529884483989 1:-0.109502 2:-0.202651 3:-0.411091 4:0.0672796 5:0.00700948 6:-0.475522 7:-0.0126265 8:0.776728 9:-0.632979 10:-0.67456 11:0.408918 12:-0.0227978 13:0.311103 14:0.0624589 15:0.113802 16:0.0700039 17:-0.0948218 18:-0.212925 19:-0.401127 20:0.00954721 21:-0.389465 22:-0.266737 23:0.0729047 24:-0.0885341 25:-0.361811 26:-0.624314 27:-0.627067 28:-0.730432 29:-0.227011 30:-0.176801 31:-0.0551873 
0.8042266251219451 1:-0.0536262 2:-0.461876 3:-0.701538 4:-0.448556 5:-0.259883 6:-0.76877 7:-0.528635 8:0.910135 9:-0.34615 10:-0.33709 11:0.758987 12:-0.51982 13:-0.225197 14:-0.456043 15:-0.412845 16:-0.391773 17:-0.699301 18:-0.658594 19:-0.504226 20:-0.575191 21:-0.674557 22:-0.758023 23:0.856043 24:0.197317 25:-0.854222 26:0.497925 27:-0.388017 28:0.59598 29:-0.677857 30:-0.454324 31:-0.563563 
0.2431917215254864 1:-0.258343 2:-0.691009 3:-0.572288 4:-0.343861 5:-0.737511 6:-0.704767 7:-0.568472 8:-0.0145457 9:-0.471656 10:0.0720524 11:-0.731203 12:-0.213245 13:-0.756932 14:-0.350807 15:-0.753654 16:-0.576563 17:-0.411921 18:-0.591946 19:-0.685485 20:-0.185876 21:-0.645494 22:-0.833375 23:0.439271 24:0.104528 25:-0.756515 26:-0.462022 27:-0.650556 28:0.435254 29:-0.526775 30:-0.409163 31:-0.4058 
0.8709603259511541 1:-0.0611031 2:-0.0910593 3:-0.459366 4:-0.12843 5:0.114294 6:-0.536163 7:-0.285906 8:0.710879 9:-0.512673 10:-0.388709 11:0.364058 12:-0.355982 13:-0.191176 14:-0.134262 15:-0.12677 16:-0.0594294 17:-0.592741 18:-0.613232 19:-0.578003 20:-0.344724 21:-0.615034 22:-0.800762 23:0.493993 24:-0.338345 25:0.178823 26:0.0403198 27:-0.484809 28:-0.616115 29:-0.631967 30:-0.429963 31:-0.432824 
0.170810100686138 1:-0.808529 2:-0.433903 3:-0.533157 4:0.0514918 5:-0.517939 6:-0.599278 7:-0.211353 8:-0.154772 9:-0.50877 10:0.0331958 11:-0.70645 12:-0.376656 13:-0.600091 14:0.0465895 15:-0.50459 16:-0.261369 17:0.0994006 18:-0.462907 19:-0.597203 20:0.265678 21:-0.514825 22:-0.554715 23:0.0227787 24:-0.139433 25:-0.366377 26:-0.636861 27:-0.521129 28:-0.688476 29:-0.0931554 30:-0.268434 31:-0.0998656 
6.727 1:-0.656506 2:-0.901492 3:-0.770523 4:-0.458941 5:-0.911012 6:-0.79368 7:-0.627222 8:-0.46427 9:-0.440415 10:0.0840876 11:-0.59051 12:-0.0635419 13:-0.703667 14:-0.466481 15:-0.881068 16:-0.691056 17:-0.425408 18:-0.770256 19:-0.706772 20:-0.270252 21:-0.810842 22:-0.787367 23:0.212516 24:-0.0777648 25:0.239487 26:-0.47409 27:-0.678512 28:-0.828008 29:-0.538212 30:-0.581748 31:-0.522701 
1.748849871893422 1:-0.488303 2:-0.808042 3:-0.611521 4:-0.366441 5:-0.803655 6:-0.662886 7:-0.580295 8:0.0403999 9:-0.860814 10:0.240408 11:-0.474726 12:0.651145 13:-0.723139 14:-0.373503 15:-0.811932 16:-0.598199 17:-0.511988 18:-0.716519 19:-0.878535 20:-0.277828 21:-0.759269 22:-0.929309 23:0.642637 24:-0.00765721 25:0.102503 26:0.144019 27:-0.472935 28:-0.797605 29:-0.611635 30:-0.501171 31:-0.523978 
5.270217364281273 1:-0.932098 2:-0.838535 3:-0.880529 4:-0.701417 5:-0.869948 6:-0.900397 7:-0.797168 8:-0.286148 9:0.428597 10:-0.0683554 11:-0.842411 12:-0.473787 13:-0.696583 14:-0.71021 15:-0.919629 16:-0.824031 17:-0.720696 18:-0.797334 19:-0.842847 20:-0.630199 21:-0.822216 22:-0.805056 23:0.359493 24:0.224567 25:0.173698 26:-0.380184 27:-0.492968 28:-0.629122 29:-0.788626 30:-0.661201 31:-0.730232 
1.053734901641089 1:0.904145 2:-0.691613 3:-0.78135 4:-0.736535 5:-0.709729 6:-0.834471 7:-0.773282 8:-0.586123 9:0.32171 10:-0.441816 11:-0.189515 12:-0.799925 13:-0.442069 14:-0.715684 15:-0.80685 16:-0.720938 17:-0.21362 18:-0.741154 19:-0.193155 20:-0.0423932 21:-0.70651 22:-0.0273452 23:0.0915341 24:-0.881584 25:-0.379701 26:-0.558625 27:0.716358 28:-0.723867 29:-0.358608 30:-0.0589338 31:-0.201621 
2.30956435152149 1:-0.118621 2:-0.692141 3:-0.829259 4:-0.83338 5:-0.749875 6:-0.877562 7:-0.90668 8:0.160421 9:-0.292022 10:0.198233 11:-0.702022 12:-0.496529 13:-0.811031 14:-0.716177 15:-0.895616 16:-0.822338 17:-0.238012 18:-0.0869565 19:-0.586351 20:-0.465833 21:-0.540241 22:-0.715574 23:0.0541323 24:0.13714 25:-0.186841 26:-0.949407 27:-0.900525 28:-0.908482 29:-0.0995799 30:-0.260189 31:-0.0981769 
4.617225496472913 1:-0.0127004 2:-0.474684 3:-0.776679 4:-0.670294 5:-0.593147 6:-0.844033 7:-0.779596 8:-0.0444642 9:0.192263 10:0.251099 11:-0.806523 12:-0.86118 13:-0.704533 14:-0.513138 15:-0.821513 16:-0.689789 17:-0.574426 18:-0.37281 19:-0.572159 20:-0.600024 21:-0.630481 22:-0.832155 23:-0.214697 24:-0.0489289 25:-0.204884 26:-0.665708 27:-0.748561 28:-0.69788 29:-0.388754 30:-0.558325 31:-0.481319 
0.9549643021072908 1:-0.140432 2:-0.774899 3:-0.710523 4:-0.564459 5:-0.785752 6:-0.804434 7:-0.504704 8:0.354081 9:-0.113847 10:-0.875201 11:-0.328929 12:-0.775664 13:0.709935 14:-0.572545 15:-0.613232 16:-0.57915 17:-0.508075 18:-0.753856 19:-0.583742 20:-0.409957 21:-0.730447 22:-0.644959 23:-0.152975 24:-0.696094 25:-0.398325 26:-0.684398 27:0.327371 28:-0.645095 29:-0.608317 30:-0.502858 31:-0.539426 
0.8898202949167798 1:-0.0390873 2:-0.0116989 3:-0.607877 4:-0.288562 5:0.482658 6:-0.695784 7:-0.330966 8:0.956959 9:-0.486186 10:-0.586807 11:0.89087 12:-0.243573 13:0.156765 14:-0.0808495 15:0.110321 16:0.115618 17:-0.639111 18:-0.896783 19:-0.599082 20:-0.492057 21:-0.926744 22:-0.803002 23:0.576657 24:0.242362 25:0.0936304 26:-0.484402 27:-0.756793 28:-0.745696 29:-0.719439 30:-0.662138 31:-0.654687 
5.316054271432947 1:0.00346811 2:-0.685157 3:-0.833125 4:-0.731909 5:-0.727827 6:-0.901916 7:-0.858708 8:-0.0113304 9:0.275212 10:0.220832 11:-0.575026 12:-0.800499 13:-0.793107 14:-0.709656 15:-0.854383 16:-0.783832 17:-0.759324 18:-0.269244 19:-0.579568 20:-0.869676 21:-0.829182 22:-0.946795 23:0.405386 24:0.219077 25:0.118171 26:-0.669895 27:-0.634464 28:-0.798712 29:-0.283985 30:-0.62466 31:-0.485454 
1.335557642997542 1:-0.066098 2:-0.176869 3:-0.603195 4:-0.374597 5:-0.344824 6:-0.724587 7:-0.432851 8:-0.00078331 9:0.172787 10:-0.76239 11:-0.756176 12:-0.857653 13:0.415435 14:-0.235068 15:-0.508915 16:-0.371355 17:-0.51715 18:-0.469747 19:-0.707503 20:-0.723868 21:-0.846083 22:-0.771643 23:-0.0546279 24:-0.0276444 25:-0.296975 26:-0.886411 27:-0.854961 28:-0.775434 29:-0.486816 30:-0.605172 31:-0.521939 
1.061576571826158 1:-0.030578 2:-0.345937 3:-0.777567 4:-0.55401 5:-0.332576 6:-0.853979 7:-0.54069 8:0.527998 9:0.0360661 10:-0.838783 11:-0.173671 12:-0.682081 13:0.625338 14:-0.392927 15:-0.459586 16:-0.428264 17:-0.461122 18:-0.076558 19:-0.413858 20:-0.570889 21:-0.547316 22:-0.882794 23:0.327548 24:0.330883 25:0.0359818 26:-0.821722 27:-0.767812 28:-0.875781 29:-0.0890607 30:-0.290734 31:-0.154085 
0.6766304867972608 1:-0.0410196 2:-0.224182 3:-0.683212 4:-0.442385 5:-0.16162 6:-0.784761 7:-0.469961 8:0.681427 9:-0.196183 10:-0.698424 11:0.13612 12:-0.657237 13:0.350196 14:-0.279245 15:-0.327732 16:-0.302035 17:-0.447885 18:-0.459209 19:-0.394866 20:-0.392884 21:-0.54773 22:-0.476919 23:-0.0441881 24:0.198969 25:-0.117016 26:-0.778744 27:-0.79413 28:-0.872434 29:-0.476155 30:-0.357069 31:-0.347274 
0.02226722866012264 1:-0.0884079 2:-0.523295 3:-0.779876 4:-0.61476 5:-0.625614 6:-0.849597 7:-0.752922 8:0.0717634 9:-0.0823687 10:0.188867 11:-0.676133 12:-0.83544 13:-0.720398 14:-0.558526 15:-0.812211 16:-0.69822 17:-0.622128 18:-0.830484 19:-0.371178 20:-0.499454 21:-0.838816 22:-0.890754 23:0.566099 24:0.512627 25:0.440851 26:-0.504431 27:-0.489155 28:-0.379862 29:-0.590102 30:-0.552703 31:-0.589055 
2.661485805416644 1:0.906758 2:-0.773673 3:-0.798336 4:-0.761232 5:-0.786835 6:-0.922418 7:-0.837069 8:-0.591011 9:0.297032 10:0.0552349 11:0.00642976 12:-0.727325 13:-0.560834 14:-0.770334 15:-0.835503 16:-0.816269 17:-0.681901 18:-0.726289 19:-0.322237 20:-0.653429 21:-0.786381 22:-0.374728 23:0.422128 24:0.271456 25:-0.212382 26:-0.693875 27:-0.76755 28:-0.895444 29:-0.556991 30:-0.675255 31:-0.584413 
1.060311565501605 1:-0.0317951 2:0.0768998 3:-0.563508 4:-0.137979 5:-0.00477562 6:-0.723706 7:-0.20019 8:0.567347 9:-0.0212504 10:-0.707598 11:-0.0179693 12:-0.864546 13:0.349726 14:0.00187485 15:-0.121024 16:-0.0580153 17:-0.339244 18:-0.756368 19:-0.178545 20:-0.281004 21:-0.744845 22:-0.155038 23:0.0392299 24:-0.30354 25:-0.530921 26:-0.621815 27:-0.381707 28:-0.396665 29:-0.459776 30:-0.274056 31:-0.358268 
0.5253234541100281 1:-0.026055 2:0.0972469 3:-0.162906 4:0.185779 5:0.186963 6:-0.686704 7:0.163461 8:0.698411 9:-0.12333 10:-0.811554 11:0.351375 12:-0.467552 13:0.578176 14:0.181571 15:0.178185 16:0.248258 17:-0.17957 18:-0.549026 19:-0.275801 20:-0.175019 21:-0.586857 22:-0.22123 23:0.252152 24:-0.191264 25:-0.596638 26:-0.638372 27:-0.416978 28:-0.218019 29:-0.329733 30:-0.294669 31:-0.269331 
0.1638707681121848 1:0.982496 2:-0.592682 3:-0.862519 4:-0.421689 5:-0.563982 6:-0.916562 7:-0.598431 8:-0.627839 9:0.232 10:0.385085 11:-0.150196 12:-0.588792 13:-0.559744 14:-0.429037 15:-0.668297 16:-0.568005 17:-0.179987 18:-0.720916 19:-0.41991 20:-0.0868005 21:-0.712185 22:-0.325454 23:0.0146461 24:0.017386 25:-0.458235 26:-0.63169 27:-0.595241 28:-0.515521 29:-0.330086 30:-0.315282 31:-0.315921 
1.965495427903261 1:0.828383 2:-0.774941 3:-0.834881 4:-0.94972 5:-0.832499 6:-0.867421 7:-0.969338 8:-0.242821 9:0.338821 10:-0.660888 11:-0.798592 12:-0.642766 13:0.190319 14:-0.793487 15:-0.934622 16:-0.894982 17:-0.954462 18:-0.968386 19:-0.846395 20:-0.920812 21:-0.962067 22:-0.837603 23:0.633989 24:0.00899283 25:0.177971 26:0.0492046 27:-0.41284 28:-0.919336 29:-0.91161 30:-0.932915 31:-0.919169 
1.230884863952207 1:0.791817 2:-0.940225 3:-0.926587 4:-0.979206 5:-0.933843 6:-0.929806 7:-0.968888 8:-0.455338 9:0.487211 10:-0.727817 11:-0.132529 12:-0.0476438 13:0.366446 14:-0.947812 15:-0.941322 16:-0.962491 17:-0.938811 18:-0.934887 19:-0.958886 20:-0.910805 21:-0.940382 22:-0.943325 23:0.602543 24:0.175168 25:-0.0120892 26:-0.310286 27:-0.540054 28:-0.881755 29:-0.957358 30:-0.910616 31:-0.949082 
3.36857778329723 1:-0.031324 2:-0.603858 3:-0.758088 4:-0.610718 5:-0.604926 6:-0.833315 7:-0.634696 8:0.63449 9:0.235612 10:-0.798701 11:0.142914 12:-0.637886 13:0.504215 14:-0.619042 15:-0.633299 16:-0.617917 17:-0.857975 18:-0.811292 19:-0.776792 20:-0.816706 21:-0.829386 22:-0.74193 23:0.0740838 24:-0.193382 25:-0.222361 26:-0.478936 27:-0.539888 28:-0.819622 29:-0.832327 30:-0.770261 31:-0.791755 
0.5149411222495477 1:-0.72981 2:-0.801203 3:-0.690749 4:-0.787143 5:-0.850951 6:-0.765931 7:-0.842634 8:-0.219597 9:-0.262082 10:-0.0793337 11:-0.783276 12:-0.474926 13:-0.533036 14:-0.79638 15:-0.856655 16:-0.824863 17:-0.800533 18:-0.81513 19:-0.821872 20:-0.679614 21:-0.809759 22:-0.783364 23:-0.582399 24:-0.140102 25:-0.284393 26:0.326374 27:-0.297585 28:-0.736564 29:-0.83621 30:-0.634779 31:-0.743012 
2.378903707971346 1:0.816771 2:-0.888317 3:-0.838069 4:-0.947815 5:-0.922295 6:-0.89687 7:-0.972423 8:-0.33065 9:0.153752 10:-0.0467297 11:-0.612584 12:-0.873901 13:-0.911209 14:-0.899346 15:-0.978837 16:-0.944152 17:-0.812021 18:-0.842278 19:-0.8801 20:-0.700034 21:-0.833158 22:-0.884947 23:-0.441896 24:0.337094 25:-0.177974 26:-0.270076 27:-0.475828 28:-0.83293 29:-0.863673 30:-0.78113 31:-0.779352 
0.9494871943810874 1:-0.0508434 2:-0.585241 3:-0.74388 4:-0.454671 5:-0.646439 6:-0.825712 7:-0.629027 8:0.339982 9:0.295272 10:-0.261903 11:-0.469553 12:-0.711847 13:-0.496682 14:-0.46219 15:-0.724168 16:-0.631316 17:-0.83966 18:-0.860283 19:-0.845769 20:-0.735066 21:-0.884303 22:-0.860209 23:0.930762 24:0.642562 25:0.00812756 26:0.401234 27:0.00312771 28:-0.969563 29:-0.881888 30:-0.754521 31:-0.8206 
5.079692527073915 1:-0.122351 2:-0.743385 3:-0.815967 4:-0.639098 5:-0.78918 6:-0.871527 7:-0.738516 8:0.045148 9:-0.0177647 10:0.402988 11:-0.625392 12:-0.731446 13:-0.462311 14:-0.64757 15:-0.858525 16:-0.744637 17:-0.766151 18:-0.926792 19:-0.6187 20:-0.65121 21:-0.930043 22:-0.862344 23:0.737418 24:-0.417165 25:0.36522 26:-0.100369 27:-0.515913 28:-0.184523 29:-0.757563 30:-0.719854 31:-0.743204 
0.9794842915055491 1:-0.0446923 2:-0.598006 3:-0.724814 4:-0.321869 5:-0.477768 6:-0.821868 7:-0.457488 8:0.860513 9:0.0227946 10:-0.686968 11:0.667179 12:-0.817948 13:0.257248 14:-0.328701 15:-0.446997 16:-0.445378 17:-0.800117 18:-0.85142 19:-0.865178 20:-0.751675 21:-0.865086 22:-0.862545 23:0.463819 24:0.528317 25:-0.222485 26:-0.51418 27:-0.036035 28:-0.734374 29:-0.855978 30:-0.76033 31:-0.818408 
1.072991852436203 1:0.883893 2:-0.646338 3:-0.798021 4:-0.742955 5:-0.689762 6:-0.850041 7:-0.825086 8:-0.387842 9:0.409319 10:-0.30955 11:-0.63138 12:-0.572118 13:-0.36832 14:-0.673411 15:-0.833692 16:-0.754588 17:-0.649351 18:-0.840114 19:-0.527079 20:-0.59096 21:-0.880369 22:-0.800247 23:0.366603 24:0.503295 25:0.660855 26:-0.444787 27:-0.188874 28:0.163824 29:-0.695577 30:-0.665136 31:-0.656697 
1.110906163093105 1:-0.0856721 2:-0.535185 3:-0.692773 4:-0.449312 5:-0.19525 6:-0.68645 7:-0.421677 8:0.97502 9:-0.80763 10:-0.758545 11:0.939209 12:0.529695 13:0.443047 14:-0.456803 15:-0.210328 16:-0.287772 17:-0.728272 18:-0.852118 19:-0.810393 20:-0.598032 21:-0.78927 22:-0.699363 23:-0.239263 24:-0.953307 25:-0.65676 26:-0.409971 27:0.869856 28:-0.0759224 29:-0.795051 30:-0.492551 31:-0.67484 
1.457492502535898 1:-0.850813 2:-0.921807 3:-0.892876 4:-0.775583 5:-0.894782 6:-0.885843 7:-0.80514 8:-0.781686 9:-0.122675 10:0.173866 11:0.416943 12:-0.318138 13:-0.455802 14:-0.78476 15:-0.876609 16:-0.838347 17:-0.849817 18:-0.942843 19:-0.929458 20:-0.743707 21:-0.959732 22:-0.894835 23:-0.274577 24:-0.158452 25:-0.236474 26:0.0853945 27:-0.838295 28:-0.318892 29:-0.898126 30:-0.835473 31:-0.87006 
0.7406113888244074 1:0.989042 2:-0.8269 3:-0.941183 4:-0.850274 5:-0.821959 6:-0.932446 7:-0.862811 8:-0.785844 9:0.686947 10:-0.529956 11:0.442042 12:0.212119 13:-0.324169 14:-0.842001 15:-0.902085 16:-0.842576 17:-0.735348 18:-0.793426 19:-0.780549 20:-0.52342 21:-0.847405 22:-0.919261 23:0.810912 24:0.167965 25:-0.0878849 26:0.0236589 27:-0.707623 28:-0.903541 29:-0.801052 30:-0.691746 31:-0.67517 
0.6206250134070317 1:0.889546 2:-0.761177 3:-0.792247 4:-0.754524 5:-0.799377 6:-0.882164 7:-0.791847 8:-0.481419 9:0.21027 10:-0.392475 11:-0.113774 12:-0.882367 13:-0.152167 14:-0.763592 15:-0.839276 16:-0.782316 17:-0.243257 18:-0.525089 19:-0.533758 20:-0.0147728 21:-0.666456 22:-0.446645 23:0.0772153 24:-0.0618428 25:-0.447183 26:-0.549501 27:-0.936547 28:-0.579295 29:-0.383741 30:-0.365502 31:-0.289388 
0.8811255242282978 1:-0.100771 2:-0.752656 3:-0.878431 4:-0.646211 5:-0.676983 6:-0.842416 7:-0.589156 8:0.950139 9:-0.71786 10:-0.554007 11:0.88367 12:0.446493 13:0.279079 14:-0.654719 15:-0.578005 16:-0.604234 17:-0.848901 18:-0.866285 19:-0.936659 20:-0.792673 21:-0.851662 22:-0.930001 23:0.339672 24:-0.663707 25:-0.541201 26:-0.344826 27:0.27397 28:-0.168073 29:-0.887959 30:-0.779256 31:-0.833387 
1.347944984566467 1:-0.890817 2:-0.74355 3:-0.819667 4:-0.718614 5:-0.669814 6:-0.822551 7:-0.75953 8:-0.729299 9:-0.683459 10:0.325787 11:0.182966 12:0.294618 13:-0.253703 14:-0.727496 15:-0.806965 16:-0.70578 17:-0.679404 18:-0.74583 19:-0.902014 20:-0.54646 21:-0.773139 22:-0.968565 23:0.459248 24:-0.0360886 25:-0.0699731 26:-0.122631 27:-0.546732 28:-0.809307 29:-0.753609 30:-0.630844 31:-0.668773 
0.8409003255808587 1:-0.0671011 2:-0.401332 3:-0.780634 4:-0.15302 5:-0.205906 6:-0.758096 7:-0.163777 8:0.948923 9:-0.792955 10:-0.680714 11:0.879531 12:0.518044 13:0.315621 14:-0.158979 15:-0.0892174 16:-0.121349 17:-0.48618 18:-0.623002 19:-0.790567 20:-0.330981 21:-0.648188 22:-0.896139 23:0.354187 24:0.119995 25:-0.833044 26:-0.526331 27:-0.513849 28:0.589787 29:-0.589749 30:-0.4532 31:-0.483685 
1.165173110737405 1:-0.963274 2:-0.495913 3:-0.689436 4:-0.373486 5:-0.552309 6:-0.798432 7:-0.421482 8:-0.518111 9:-0.0177373 10:-0.0865413 11:-0.299644 12:-0.804697 13:-0.202129 14:-0.380584 15:-0.573133 16:-0.439526 17:-0.481518 18:-0.305255 19:-0.640092 20:-0.315827 21:-0.313613 22:-0.68287 23:-0.327933 24:-0.683156 25:-0.595361 26:-0.476833 27:0.281183 28:-0.208255 29:-0.320414 30:0.0761736 31:-0.182278 
0.1580771936441671 1:-0.914559 2:-0.642169 3:-0.762766 4:-0.27196 5:-0.593672 6:-0.804928 7:-0.329986 8:-0.815868 9:-0.454314 10:-0.0891883 11:0.501171 12:-0.14899 13:-0.320733 14:-0.278534 15:-0.486847 16:-0.387899 17:-0.448551 18:-0.675483 19:-0.699781 20:-0.297785 21:-0.709057 22:-0.6082 23:0.0375635 24:-0.364481 25:-0.575621 26:-0.476571 27:-0.345161 28:-0.113384 29:-0.557838 30:-0.329148 31:-0.477792 
0.7983868710473082 1:-0.0953936 2:-0.633949 3:-0.550808 4:0.251405 5:-0.643123 6:-0.713655 7:0.129867 8:0.392829 9:-0.178395 10:-0.498732 11:-0.21844 12:-0.78407 13:0.0474557 14:0.247536 15:-0.282668 16:-0.0450592 17:-0.000166472 18:-0.601158 19:-0.727538 20:0.250114 21:-0.532058 22:-0.687702 23:-0.222376 24:-0.868277 25:-0.273353 26:-0.564238 27:0.700465 28:-0.755894 29:-0.177592 30:-0.017146 31:-0.110711 
0.4603284630098453 1:-0.0567097 2:-0.323533 3:-0.616049 4:-0.159808 5:-0.0470846 6:-0.716076 7:-0.243525 8:0.829443 9:-0.403952 10:-0.455695 11:0.596363 12:-0.323028 13:-0.00848425 14:-0.165803 15:-0.141222 16:-0.124689 17:-0.467283 18:-0.606951 19:-0.781279 20:-0.357989 21:-0.657155 22:-0.770994 23:0.151875 24:-0.397954 25:-0.339946 26:-0.510397 27:-0.281572 28:-0.449999 29:-0.573723 30:-0.617914 31:-0.502451 
0.4427351158470809 1:-0.0659276 2:0.0128444 3:-0.471253 4:-0.197509 5:0.233652 6:-0.571317 7:-0.184785 8:0.9616 9:-0.710606 10:-0.717402 11:0.906138 12:0.36857 13:0.385976 14:-0.0579335 15:0.163956 16:0.104808 17:-0.722944 18:-0.66334 19:-0.79808 20:-0.631684 21:-0.698077 22:-0.859838 23:0.738678 24:0.329228 25:-0.423157 26:0.0938893 27:-0.355546 28:-0.32009 29:-0.682657 30:-0.564883 31:-0.641189 
1.277431341528533 1:-0.909466 2:-0.559404 3:-0.604841 4:-0.172797 5:-0.448587 6:-0.664647 7:-0.270694 8:-0.844716 9:-0.157568 10:-0.0585566 11:0.539435 12:-0.461359 13:-0.290388 14:-0.178858 15:-0.37893 16:-0.281702 17:-0.342574 18:-0.491521 19:-0.656162 20:-0.0835233 21:-0.566309 22:-0.627516 23:-0.126947 24:0.0988337 25:-0.348299 26:-0.491528 27:-0.654826 28:-0.555372 29:-0.467966 30:-0.235641 31:-0.298308 
0.1220853070418614 1:-0.589441 2:-0.857307 3:-0.632158 4:-0.324277 5:-0.877758 6:-0.675569 7:-0.424604 8:-0.0728496 9:-0.914431 10:0.350513 11:-0.643394 12:0.788482 13:-0.323618 14:-0.331121 15:-0.687406 16:-0.506675 17:-0.400516 18:-0.349361 19:-0.481999 20:-0.158576 21:-0.543285 22:-0.755801 23:0.589251 24:0.336922 25:-0.216659 26:-0.376465 27:-0.546007 28:-0.619138 29:-0.365032 30:-0.32184 31:-0.272054 
1.12667411261455 1:-0.0475381 2:-0.685224 3:-0.813145 4:-0.687688 5:-0.496476 6:-0.868508 7:-0.716638 8:0.94853 9:-0.390481 10:-0.780822 11:0.87572 12:-0.486913 13:0.52983 14:-0.696411 15:-0.595932 16:-0.615878 17:-0.824675 18:-0.890362 19:-0.59616 20:-0.789542 21:-0.919339 22:-0.924868 23:0.286432 24:0.126639 25:-0.117202 26:-0.567026 27:-0.684789 28:-0.917216 29:-0.742314 30:-0.859271 31:-0.796674 
0.5445563623224967 1:-0.140226 2:-0.435077 3:-0.538541 4:-0.565411 5:-0.460618 6:-0.659568 7:-0.700242 8:0.17417 9:-0.394832 10:0.0685299 11:-0.43173 12:-0.518465 13:-0.76337 14:-0.476157 15:-0.713319 16:-0.562608 17:-0.627872 18:-0.745411 19:-0.319524 20:-0.473778 21:-0.826714 22:-0.824857 23:0.595616 24:-0.00943015 25:-0.233241 26:0.0345575 27:-0.861566 28:-0.833709 29:-0.555155 30:-0.640963 31:-0.548024 
0.372880989049504 1:-0.0570093 2:0.25861 3:-0.19373 4:-0.223844 5:0.496856 6:-0.418119 7:-0.158554 8:0.787659 9:-0.353621 10:-0.772566 11:0.500159 12:-0.638796 13:0.504934 14:0.171537 15:0.269411 16:0.260256 17:-0.375624 18:-0.582595 19:0.0141918 20:-0.24829 21:-0.667624 22:0.170389 23:-0.022397 24:-0.391248 25:-0.387302 26:-0.591453 27:-0.419432 28:-0.712602 29:-0.32938 30:-0.267123 31:-0.18635 
0.1951873817753506 1:-0.0531475 2:-0.552107 3:-0.621943 4:-0.354875 5:-0.426157 6:-0.750906 7:-0.371214 8:0.722605 9:-0.0494719 10:-0.743277 11:0.358791 12:-0.799092 13:0.410138 14:-0.361877 15:-0.378145 16:-0.364671 17:-0.538961 18:-0.643381 19:-0.575707 20:-0.422938 21:-0.682975 22:-0.561916 23:0.352919 24:-0.346835 25:-0.372496 26:-0.573839 27:-0.328492 28:-0.746304 29:-0.634509 30:-0.607046 31:-0.508251 
1.05333784108758 1:-0.0586289 2:-0.212754 3:-0.363342 4:-0.395315 5:0.244916 6:-0.555899 7:-0.159525 8:0.924479 9:-0.255536 10:-0.940447 11:0.790332 12:-0.669493 13:0.867577 14:-0.268574 15:0.167249 16:0.0897947 17:-0.510406 18:-0.71296 19:-0.518105 20:-0.376645 21:-0.64483 22:-0.466992 23:-0.176882 24:-0.836803 25:-0.398664 26:-0.595972 27:0.609316 28:-0.650856 29:-0.610293 30:-0.374871 31:-0.446343 
2.264898798329106 1:-0.823312 2:-0.836796 3:-0.747187 4:-0.762681 5:-0.901814 6:-0.866503 7:-0.821558 8:-0.0720333 9:-0.457709 10:0.103797 11:-0.82481 12:-0.430955 13:-0.448055 14:-0.771792 15:-0.890943 16:-0.839207 17:-0.72669 18:-0.830414 19:-0.792341 20:-0.642524 21:-0.775903 22:-0.77389 23:-0.358134 24:-0.832121 25:-0.0807789 26:-0.13256 27:0.584685 28:-0.84224 29:-0.79371 30:-0.568069 31:-0.695612 
0.122974703778371 1:0.864601 2:-0.27293 3:-0.429507 4:-0.441645 5:-0.447728 6:-0.621368 7:-0.675682 8:-0.321064 9:0.262246 10:0.00113729 11:-0.77536 12:-0.874146 13:-0.852988 14:-0.32476 15:-0.705613 16:-0.527857 17:-0.00591075 18:0.0912834 19:-0.00897423 20:0.252827 21:-0.27466 22:-0.32628 23:0.513532 24:0.537301 25:-0.19322 26:-0.452005 27:-0.404794 28:-0.630212 29:0.08073 30:0.172491 31:0.165301 
0.526506278165854 1:0.945965 2:-0.265569 3:-0.640223 4:-0.142215 5:-0.277086 6:-0.775617 7:-0.322123 8:-0.585537 9:0.133053 10:-0.360994 11:-0.109694 12:-0.892205 13:-0.179102 14:-0.148119 15:-0.503568 16:-0.282386 17:0.00374627 18:-0.0896783 19:-0.379213 20:0.136546 21:-0.393248 22:-0.351686 23:0.424361 24:0.262289 25:0.406145 26:-0.554324 27:-0.681262 28:-0.542143 29:-0.102333 30:0.0564977 31:0.0229205 
0.9562280435891748 1:-0.120103 2:0.0568012 3:-0.244245 4:0.0048656 5:0.0592783 6:-0.441042 7:-0.388122 8:0.469151 9:-0.529313 10:0.101247 11:-0.00788822 12:-0.0724507 13:-0.841259 14:-0.000277665 15:-0.248193 16:-0.110487 17:-0.26024 18:-0.472957 19:-0.457059 20:-0.15261 21:-0.650372 22:-0.661354 23:0.178802 24:0.195981 25:0.315276 26:-0.543605 27:-0.857041 28:-0.602871 29:-0.398143 30:-0.281739 31:-0.335465 
0.6895207953557652 1:-0.0886945 2:0.289068 3:0.0140476 4:0.0297331 5:0.366564 6:-0.274437 7:-0.0763475 8:0.57878 9:-0.379943 10:-0.655874 11:-0.0932561 12:-0.624505 13:0.197064 14:0.199976 15:0.134696 16:0.201853 17:-0.408009 18:-0.344267 19:-0.249922 20:-0.219729 21:-0.533283 22:-0.649454 23:0.546084 24:0.578245 25:-0.230314 26:-0.130751 27:-0.0786244 28:-0.683317 29:-0.359879 30:-0.0701771 31:-0.244746 
0.8041231621887934 1:-0.14837 2:0.238942 3:0.292495 4:0.406161 5:0.097503 6:-0.0215094 7:0.402249 8:0.433042 9:-0.439353 10:-0.86025 11:-0.187822 12:-0.511835 13:0.672484 14:0.403092 15:0.415507 16:0.439479 17:-0.180902 18:-0.355224 19:0.593551 20:-0.0181475 21:-0.531086 22:0.458908 23:-0.0663752 24:0.288665 25:-0.519566 26:-0.610292 27:-0.673238 28:-0.434098 29:0.0625861 30:-0.0497517 31:0.0626698 
0.2748019344105579 1:-0.283948 2:0.0175484 3:0.0905935 4:-0.276946 5:-0.174754 6:-0.090978 7:-0.396819 8:0.148513 9:-0.829728 10:0.473238 11:-0.6367 12:0.581566 13:-0.356019 14:-0.0535414 15:-0.327341 16:-0.144911 17:-0.165168 18:-0.349361 19:0.273401 20:-0.0137852 21:-0.680815 22:0.380544 23:0.0249733 24:0.332055 25:-0.449867 26:-0.572165 27:-0.699137 28:-0.51611 29:-0.154012 30:-0.150942 31:-0.0150864 
0.09562917728458291 1:0.99605 2:-0.196003 3:-0.547522 4:-0.378593 5:-0.230796 6:-0.709333 7:-0.407786 8:-0.484716 9:0.296191 10:0.250368 11:-0.382262 12:-0.760789 13:-0.0528563 14:-0.252934 15:-0.460353 16:-0.295565 17:-0.354396 18:-0.45886 19:0.00886989 20:-0.124564 21:-0.682151 22:-0.45472 23:0.536316 24:0.336689 25:0.328015 26:-0.082536 27:-0.453379 28:-0.388688 29:-0.33298 30:-0.187108 31:-0.190667 
0.6430228434855396 1:0.943702 2:-0.943686 3:-0.96998 4:-0.8947 5:-0.926667 6:-0.963514 7:-0.953041 8:-0.774667 9:0.427708 10:-0.219656 11:0.398449 12:-0.427841 13:-0.85113 14:-0.904493 15:-0.963935 16:-0.954488 17:-0.785631 18:-0.863703 19:-0.757174 20:-0.741819 21:-0.905181 22:-0.838071 23:-0.195352 24:-0.282532 25:-0.344484 26:-0.579473 27:-0.695384 28:-0.533945 29:-0.843694 30:-0.774384 31:-0.800579 
1.257848426011126 1:-0.627277 2:-0.746747 3:-0.462025 4:-0.293364 5:-0.768188 6:-0.44774 7:-0.131958 8:-0.187728 9:-0.832889 10:-0.894993 11:-0.647534 12:0.594167 13:0.76648 14:-0.300049 15:-0.246753 16:-0.229058 17:-0.609058 18:-0.817224 19:-0.693102 20:-0.561883 21:-0.865695 22:-0.790022 23:-0.0859566 24:-0.0877602 25:-0.408301 26:-0.609604 27:-0.863642 28:-0.375441 29:-0.693953 30:-0.705238 31:-0.6997 
1.067286683419405 1:-0.32149 2:-0.253179 3:0.701832 4:1 5:-0.130468 6:0.909557 7:1 8:0.849959 9:-0.832141 10:-0.383852 11:0.618756 12:0.492476 13:0.0892612 14:1 15:1 16:1 17:-0.0397103 18:-0.649801 19:-0.437233 20:-0.0765206 21:-0.811448 22:-0.462153 23:0.0166495 24:0.139224 25:-0.0763897 26:-0.539924 27:-0.796438 28:-0.929957 29:-0.211126 30:-0.428277 31:-0.293038 
1.314350502708697 1:-0.115595 2:-0.231747 3:0.0988179 4:-0.127936 5:-0.238934 6:-0.24084 7:-0.372631 8:0.706755 9:-0.227384 10:-0.143122 11:0.279916 12:-0.648204 13:-0.482366 14:-0.133766 15:-0.334486 16:-0.216331 17:-0.121628 18:-0.535208 19:-0.230095 20:-0.214218 21:-0.671218 22:-0.292964 23:0.345414 24:-0.278848 25:-0.0467875 26:-0.583131 27:-0.259518 28:-0.977533 29:-0.280596 30:-0.365502 31:-0.280291 
0.7378271083945958 1:0.205534 2:-0.418386 3:-0.0136492 4:-0.317996 5:-0.555535 6:-0.448644 7:-0.437696 8:0.0738025 9:0.0805138 10:0.536127 11:-0.783337 12:-0.98663 13:-0.110571 14:-0.324808 15:-0.542573 16:-0.393899 17:-0.111722 18:-0.0501082 19:-0.490869 20:-0.178004 21:-0.359199 22:-0.631801 23:-0.098613 24:-0.151546 25:0.0933717 26:-0.915744 27:-0.937831 28:-0.950745 29:-0.0623036 30:-0.0756114 31:0.0999418 
1.028861286346478 1:-0.422052 2:-0.192115 3:1 4:0.412513 5:-0.378682 6:0.631122 7:0.462698 8:0.102693 9:-0.571875 10:0.284901 11:-0.759379 12:-0.114836 13:-0.00394405 14:0.409477 15:0.092212 16:0.508465 17:-0.222944 18:-0.325982 19:-0.718251 20:-0.72265 21:-0.659909 22:-0.720338 23:0.723579 24:0.251175 25:-0.0728856 26:-0.0888001 27:-0.724379 28:-0.952731 29:-0.341382 30:-0.327274 31:-0.308131 
0.9508210251523299 1:-0.40232 2:-0.483237 3:0.0933999 4:0.00270428 5:-0.587651 6:-0.192594 7:0.147321 8:0.25005 9:-0.323698 10:0.766127 11:-0.646448 12:-0.371504 13:0.483033 14:-0.00245016 15:-0.120562 16:0.0563803 17:-0.485681 18:-0.295903 19:-0.632265 20:-0.53015 21:-0.533157 22:-0.752627 23:-0.0650223 24:-0.113601 25:0.0566464 26:-0.919241 27:-0.875164 28:-0.824039 29:-0.310953 30:-0.336456 31:-0.307283 
0.5902476440420736 1:0.0123095 2:-0.423468 3:-0.358129 4:-0.484441 5:-0.461977 6:-0.59224 7:-0.643375 8:0.183829 9:0.243144 10:0.0113285 11:-0.431739 12:-0.902714 13:-0.45525 14:-0.465317 15:-0.696107 16:-0.51284 17:-0.237346 18:-0.602833 19:-0.265053 20:-0.046315 21:-0.832287 22:-0.34277 23:-0.526025 24:-0.0115501 25:-0.387806 26:0.0736658 27:-0.875362 28:-0.622852 29:-0.378729 30:-0.27949 31:-0.245689 
1.46773459881447 1:-0.463972 2:-0.603579 3:0.82758 4:0.151771 5:-0.644863 6:0.780062 7:0.072626 8:-0.336377 9:-0.764662 10:-0.736504 11:-0.513741 12:0.487654 13:0.321364 14:0.147387 15:0.215999 16:0.263276 17:-0.278139 18:-0.381813 19:-0.393301 20:-0.166254 21:-0.509666 22:-0.518016 23:0.404291 24:0.428862 25:-0.0891679 26:-0.218666 27:-0.428553 28:-0.800312 29:-0.397861 30:-0.20491 31:-0.252021 
0.4618123074097782 1:-0.105405 2:-0.369108 3:-0.23382 4:-0.28961 5:-0.231155 6:-0.478075 7:-0.40543 8:0.826729 9:-0.189666 10:0.302304 11:0.593035 12:-0.556081 13:-0.364318 14:-0.296275 15:-0.453747 16:-0.274519 17:-0.30636 18:-0.525438 19:-0.153918 20:-0.0671304 21:-0.66733 22:-0.144905 23:0.0459916 24:0.263083 25:-0.32973 26:-0.32376 27:-0.768587 28:-0.697312 29:-0.437255 30:-0.242013 31:-0.244563 
0.1345340425087533 1:0.365816 2:-0.473705 3:-0.357961 4:-0.147554 5:-0.586918 6:-0.485816 7:-0.353436 8:0.146837 9:0.194775 10:0.37364 11:-0.62386 12:-0.418511 13:-0.27135 14:-0.153485 15:-0.51096 16:-0.353328 17:-0.245837 18:-0.434713 19:-0.616926 20:-0.120524 21:-0.543328 22:-0.597265 23:-0.00279877 24:0.142059 25:-0.283854 26:-0.64282 27:-0.683282 28:-0.711277 29:-0.38593 30:-0.396608 31:-0.30409 
0.5749358579675301 1:0.414056 2:-0.738557 3:-0.644884 4:-0.50124 5:-0.771798 6:-0.623881 7:-0.523205 8:0.00519771 9:0.753268 10:0.73986 11:-0.545828 12:0.347897 13:0.385389 14:-0.508999 15:-0.578504 16:-0.537531 17:-0.581169 18:-0.649313 19:-0.746426 20:-0.472092 21:-0.696857 22:-0.72043 23:-0.171648 24:0.201952 25:-0.380937 26:-0.390703 27:-0.632843 28:-0.595623 29:-0.668467 30:-0.592429 31:-0.573112 
0.4818502893369284 1:-0.695566 2:-0.459974 3:-0.320916 4:-0.512194 5:-0.404613 6:-0.0560026 7:-0.489795 8:-0.490087 9:-0.971811 10:-0.891405 11:-0.0500931 12:0.931855 13:0.735626 14:-0.499403 15:-0.152949 16:-0.277231 17:-0.799534 18:-0.796566 19:-0.826985 20:-0.782688 21:-0.795108 22:-0.751509 23:0.205296 24:0.394047 25:-0.732769 26:-0.463603 27:-0.223814 28:0.293004 29:-0.817431 30:-0.604422 31:-0.750795 
2.058536168019761 1:-0.534329 2:-0.710006 3:-0.0193025 4:-0.0680387 5:-0.759826 6:0.374996 7:0.069043 8:0.023864 9:-0.999879 10:-0.809503 11:-0.807904 12:1 13:0.607217 14:-0.0735588 15:0.115747 16:0.115061 17:-0.642274 18:-0.758322 19:-0.754252 20:-0.591588 21:-0.75303 22:-0.705125 23:-0.560194 24:-0.528716 25:-0.296278 26:-0.111677 27:0.102244 28:-0.638127 29:-0.722122 30:-0.532652 31:-0.653033 
4.002307371726419 1:0.131744 2:-0.800567 3:-0.677434 4:-0.82772 5:-0.761479 6:-0.80391 7:-0.878403 8:0.587437 9:0.191877 10:-0.130175 11:0.0790356 12:-0.929712 13:-0.618134 14:-0.817414 15:-0.822911 16:-0.805203 17:-0.837912 18:-0.758113 19:-0.755922 20:-0.824156 21:-0.782409 22:-0.742082 23:0.0156166 24:-0.285029 25:-0.352021 26:-0.773683 27:-0.483069 28:-0.616758 29:-0.778531 30:-0.753771 31:-0.754349 
0.8803388147562911 1:0.474739 2:-0.792501 3:-0.594071 4:-0.556446 5:-0.780352 6:-0.672138 7:-0.466742 8:0.100717 9:0.603746 10:-0.934632 11:-0.22304 12:-0.0707879 13:0.842495 14:-0.56449 15:-0.601064 16:-0.530281 17:-0.752248 18:-0.813595 19:-0.797454 20:-0.642613 21:-0.855193 22:-0.780884 23:-0.718705 24:0.207349 25:-0.341232 26:0.314373 27:-0.694939 28:-0.678605 29:-0.815384 30:-0.744214 31:-0.747234 
1.35894135775949 1:0.128794 2:-0.790062 3:-0.81801 4:-0.739399 5:-0.783067 6:-0.865512 7:-0.80461 8:0.378743 9:0.31067 10:-0.175739 11:-0.375661 12:-0.777973 13:-0.131358 14:-0.748389 15:-0.818947 16:-0.790323 17:-0.513487 18:-0.727057 19:-0.762079 20:-0.326398 21:-0.756868 22:-0.815756 23:-0.497051 24:-0.356659 25:-0.268174 26:-0.104765 27:-0.563341 28:-0.820022 29:-0.612906 30:-0.582873 31:-0.543381 
0.6133326505216732 1:0.459576 2:-0.671857 3:-0.566887 4:-0.686666 5:-0.704015 6:-0.510493 7:-0.686071 8:0.152057 9:0.885483 10:0.83255 11:-0.491648 12:0.646969 13:0.507174 14:-0.695384 15:-0.633298 16:-0.600878 17:-0.685481 18:-0.68972 19:-0.72086 20:-0.56727 21:-0.723934 22:-0.644936 23:-0.564894 24:0.0554158 25:-0.322271 26:0.116785 27:-0.626727 28:-0.551521 29:-0.709344 30:-0.554764 31:-0.614121 
1.645935894134301 1:-0.583359 2:-0.588525 3:-0.328439 4:-0.487377 5:-0.676111 6:-0.464599 7:-0.396803 8:0.0985806 9:-0.536007 10:0.934577 11:-0.746502 12:0.124871 13:0.771507 14:-0.495064 15:-0.534099 16:-0.404975 17:-0.692807 18:-0.726778 19:-0.77961 20:-0.648819 21:-0.753476 22:-0.768768 23:-0.21239 24:-0.259316 25:-0.248331 26:-0.565445 27:-0.610009 28:-0.760677 29:-0.746832 30:-0.652769 31:-0.681376 
0.2941108208550419 1:-0.653819 2:-0.580375 3:-0.273625 4:-0.0700302 5:-0.625709 6:-0.208536 7:0.215956 8:-0.37551 9:-0.885684 10:-0.961032 11:-0.342279 12:0.725841 13:0.909978 14:-0.0755605 15:0.111717 16:0.103084 17:-0.565934 18:-0.635006 19:-0.741417 20:-0.426039 21:-0.670008 22:-0.740431 23:-0.504777 24:-0.111574 25:-0.20774 26:-0.0702743 27:-0.570661 28:-0.673823 29:-0.653994 30:-0.613604 31:-0.526815 
0.797173876604327 1:-0.834346 2:-0.556655 3:-0.657033 4:-0.674885 5:-0.608695 6:-0.71966 7:-0.738115 8:-0.102971 9:-0.0905781 10:-0.545369 11:-0.690453 12:-0.554935 13:0.0138952 14:-0.589674 15:-0.709759 16:-0.648476 17:-0.591492 18:-0.819946 19:-0.622665 20:-0.504996 21:-0.846864 22:-0.575537 23:-0.240478 24:0.111535 25:-0.375965 26:-0.436794 27:-0.678134 28:-0.553987 29:-0.679057 30:-0.659327 31:-0.63662 
0.4658433266471507 1:-0.63968 2:-0.637719 3:-0.279688 4:-0.0847248 5:-0.639961 6:-0.202187 7:0.123191 8:-0.0126094 9:-0.597839 10:-0.713934 11:-0.463298 12:0.315651 13:0.489604 14:-0.0903312 15:-0.0346996 16:0.0232755 17:-0.669664 18:-0.856794 19:-0.881248 20:-0.555588 21:-0.871815 22:-0.854894 23:-0.350338 24:0.0355879 25:-0.238444 26:-0.278004 27:-0.545777 28:-0.689335 29:-0.745349 30:-0.771011 31:-0.724421 
2.92830931955865 1:0.220477 2:-0.699504 3:-0.572088 4:-0.907786 5:-0.687043 6:-0.634806 7:-0.930916 8:0.965917 9:0.680834 10:-0.124971 11:0.91648 12:0.0998681 13:-0.635357 14:-0.723052 15:-0.736757 16:-0.746857 17:-0.653097 18:-0.819248 19:-0.572159 20:-0.568203 21:-0.816662 22:-0.397447 23:0.366464 24:-0.337165 25:0.324611 26:-0.68237 27:-0.192124 28:-0.358854 29:-0.726076 30:-0.536775 31:-0.564327 
0.9815084386380033 1:0.140056 2:-0.771349 3:-0.66235 4:-0.646141 5:-0.697947 6:-0.77525 7:-0.618676 8:0.784017 9:0.332597 10:0.937737 11:0.385947 12:-0.642578 13:0.752418 14:-0.654649 15:-0.566373 16:-0.604764 17:-0.584499 18:-0.759718 19:-0.76907 20:-0.502498 21:-0.815057 22:-0.728475 23:-0.0398334 24:0.0964452 25:-0.349759 26:-0.621896 27:-0.7185 28:-0.642958 29:-0.673126 30:-0.688185 31:-0.65097 
1.267113801827555 1:0.167549 2:-0.688632 3:-0.54315 4:-0.669068 5:-0.701231 6:-0.699209 7:-0.734735 8:0.487192 9:0.313266 10:0.405726 11:-0.0395128 12:-0.753865 13:-0.462299 14:-0.677694 15:-0.784206 16:-0.673307 17:-0.675907 18:-0.837811 19:-0.70479 20:-0.547521 21:-0.83945 22:-0.695731 23:0.484643 24:0.318727 25:-0.885173 26:-0.374549 27:-0.40764 28:0.597551 29:-0.750644 30:-0.586058 31:-0.668328 
2.100873655123424 1:0.862059 2:-0.842764 3:-0.938661 4:-0.935638 5:-0.858304 6:-0.934283 7:-0.964926 8:-0.330272 9:0.618351 10:-0.276557 11:-0.622049 12:0.0358026 13:-0.62754 14:-0.856813 15:-0.927414 16:-0.918066 17:-0.820679 18:-0.87473 19:-0.615569 20:-0.823076 21:-0.893458 22:-0.680142 23:-0.192623 24:0.212993 25:-0.100669 26:-0.358549 27:-0.768856 28:-0.97288 29:-0.755445 30:-0.86077 31:-0.78335 
1.02900124317737 1:-0.0193263 2:-0.791174 3:-0.696509 4:-0.782006 5:-0.819099 6:-0.80485 7:-0.854663 8:0.268533 9:0.246185 10:0.249348 11:-0.442049 12:-0.848256 13:-0.852135 14:-0.791216 15:-0.90605 16:-0.817945 17:-0.599983 18:-0.794054 19:-0.614839 20:-0.507849 21:-0.846724 22:-0.678575 23:-0.0744566 24:0.304176 25:-0.222799 26:-0.532598 27:-0.666378 28:-0.911541 29:-0.686258 30:-0.761267 31:-0.653605 
0.2947533827072019 1:0.692335 2:-0.814306 3:-0.833598 4:-0.834694 5:-0.886674 6:-0.849098 7:-0.859937 8:-0.294306 9:0.572326 10:0.680246 11:-0.7849 12:-0.127248 13:0.182281 14:-0.830242 15:-0.858197 16:-0.84567 17:-0.825758 18:-0.916882 19:-0.571116 20:-0.77873 21:-0.920727 22:-0.717045 23:-0.149641 24:0.418032 25:-0.261531 26:-0.273945 27:-0.58997 28:-0.837849 29:-0.72537 30:-0.881758 31:-0.777916 
2.818543148311795 1:-0.575558 2:-0.676397 3:-0.281277 4:-0.0909632 5:-0.742658 6:-0.334838 7:-0.12569 8:-0.217776 9:-0.591995 10:-0.810485 11:-0.799099 12:0.183956 13:0.562226 14:-0.0966018 15:-0.295572 16:-0.210301 17:-0.614136 18:-0.560751 19:-0.918084 20:-0.603393 21:-0.688361 22:-0.896164 23:0.306887 24:0.277023 25:0.195363 26:-0.889495 27:-0.867352 28:-0.951951 29:-0.578877 30:-0.587745 31:-0.509546 
2.522853137385851 1:-0.221048 2:-0.51057 3:-0.576349 4:-0.621072 5:-0.616602 6:-0.647003 7:-0.758928 8:0.0439786 9:-0.170355 10:0.288116 11:-0.829515 12:-0.389357 13:-0.794586 14:-0.546645 15:-0.755014 16:-0.655441 17:-0.58708 18:-0.776049 19:-0.441407 20:-0.536794 21:-0.819366 22:-0.485054 23:-0.068715 24:-0.29638 25:-0.30006 26:-0.715502 27:-0.545236 28:-0.781872 29:-0.637615 30:-0.657641 31:-0.603381 
1.670082181420143 1:0.700537 2:-1 3:-0.877424 4:-0.996818 5:-1 6:-0.999687 7:-0.994812 8:-0.17654 9:0.581593 10:0.150269 11:-0.832547 12:0.000620859 13:-0.90603 14:-0.950752 15:-1 16:-1 17:-0.785465 18:-0.983879 19:-0.475008 20:-0.961158 21:-0.985005 22:-0.969801 23:-0.225237 24:0.458422 25:-0.149677 26:-0.609136 27:-0.336032 28:-0.74424 29:-0.660348 30:-0.90237 31:-0.782648 
4.731117429305367 1:0.104852 2:-0.705805 3:-0.687236 4:-0.653169 5:-0.726479 6:-0.784064 7:-0.808839 8:0.307068 9:0.273366 10:0.175702 11:-0.421135 12:-0.841908 13:-0.865803 14:-0.661713 15:-0.829765 16:-0.733793 17:-0.560689 18:-0.751343 19:-0.644683 20:-0.541745 21:-0.787853 22:-0.684559 23:0.169985 24:0.112261 25:-0.284707 26:-0.636765 27:-0.623525 28:-0.815936 29:-0.652935 30:-0.716668 31:-0.626864 
6.273526255461025 1:0.328444 2:-0.743052 3:-0.695191 4:-0.685799 5:-0.778985 6:-0.690918 7:-0.803773 8:-0.124257 9:0.593876 10:0.0915746 11:-0.657863 12:-0.226177 13:-0.749423 14:-0.694512 15:-0.850688 16:-0.751358 17:-0.571262 18:-0.694396 19:-0.687885 20:-0.596032 21:-0.739841 22:-0.705117 23:0.43625 24:-0.453529 25:-0.292235 26:-0.554242 27:-0.274592 28:-0.778219 29:-0.661901 30:-0.690246 31:-0.634788 
1.873730183358069 1:0.251607 2:-0.522137 3:-0.564156 4:-0.661901 5:-0.613046 6:-0.605848 7:-0.777118 8:0.309157 9:0.563164 10:0.290914 11:-0.428464 12:-0.23938 13:-0.702486 14:-0.557445 15:-0.700157 16:-0.633817 17:-0.700216 18:-0.810245 19:-0.693937 20:-0.642104 21:-0.827021 22:-0.850872 23:0.699539 24:0.692028 25:-0.0639137 26:-0.188795 27:-0.120931 28:-0.849714 29:-0.771259 30:-0.667198 31:-0.692104 
6.727 1:0.206616 2:-0.893824 3:-0.846113 4:-0.838224 5:-0.898777 6:-0.887196 7:-0.927055 8:0.244273 9:0.308982 10:-0.0726828 11:-0.422771 12:-0.672367 13:-0.889181 14:-0.847725 15:-0.927995 16:-0.906908 17:-0.897186 18:-0.938447 19:-0.94532 20:-0.871063 21:-0.943651 22:-0.932536 23:-0.33524 24:0.267544 25:-0.0852704 26:-0.233806 27:-0.7093 28:-0.870667 29:-0.938296 30:-0.933664 31:-0.932818 
0.6579851158081285 1:0.0143953 2:-0.881279 3:-0.87299 4:-0.859262 5:-0.890633 6:-0.901664 7:-0.859355 8:0.231858 9:0.208789 10:-0.843944 11:-0.604462 12:-0.672927 13:0.597968 14:-0.868871 15:-0.895151 16:-0.87929 17:-0.887196 18:-0.941447 19:-0.950329 20:-0.812557 21:-0.941837 22:-0.927308 23:-0.733543 24:0.282943 25:-0.363134 26:0.430023 27:-0.55374 28:-0.616225 29:-0.929825 30:-0.872013 31:-0.904074 
0.9690230209437224 1:-0.672087 2:-0.935169 3:-0.851879 4:-0.751265 5:-0.949368 6:-0.885602 7:-0.79761 8:-0.203425 9:-0.357329 10:-0.382014 11:-0.930588 12:-0.346669 13:-0.117936 14:-0.760316 15:-0.879183 16:-0.847599 17:-0.940393 18:-0.934469 19:-0.944589 20:-0.929133 21:-0.940184 22:-0.955571 23:0.348528 24:0.353868 25:-0.370531 26:-0.612697 27:-0.545573 28:-0.64797 29:-0.956935 30:-0.945095 31:-0.956202 
1.045212758786222 1:0.327956 2:-0.863903 3:-0.672949 4:-0.808727 5:-0.849875 6:-0.660706 7:-0.875397 8:0.482736 9:0.730108 10:0.221297 11:0.0240638 12:0.416594 13:-0.611175 14:-0.818075 15:-0.782838 16:-0.804168 17:-0.889277 18:-0.916114 19:-0.955546 20:-0.830846 21:-0.916805 22:-0.951476 23:-0.586589 24:0.0587648 25:-0.00346003 26:0.140953 27:-0.592299 28:-0.943924 29:-0.93159 30:-0.855336 31:-0.899055 
1.188897888316454 1:-0.627277 2:-0.894124 3:-0.667238 4:-0.398195 5:-0.88973 6:-0.645244 7:-0.349297 8:-0.358911 9:-0.842884 10:-0.912055 11:-0.235105 12:0.596778 13:0.781865 14:-0.405422 15:-0.467905 16:-0.451022 17:-0.832334 18:-0.888478 19:-0.869769 20:-0.767732 21:-0.896028 22:-0.867124 23:-0.238762 24:0.177612 25:-0.321179 26:-0.409566 27:-0.631305 28:-0.814725 29:-0.8833 30:-0.850089 31:-0.84848 
0.4114866640674164 1:-0.670461 2:-0.863202 3:-0.683756 4:-0.410798 5:-0.830802 6:-0.616073 7:-0.269662 8:-0.528955 9:-0.907154 10:-0.94802 11:-0.0817065 12:0.777423 13:0.871351 14:-0.418089 15:-0.370591 16:-0.371804 17:-0.787379 18:-0.907251 19:-0.939894 20:-0.710754 21:-0.912551 22:-0.930935 23:-0.484324 24:0.202622 25:-0.0169237 26:-0.333569 27:-0.45364 28:-0.397327 29:-0.845176 30:-0.827415 31:-0.833496 
0.5895335106162869 1:0.133892 2:-0.866077 3:-0.83021 4:-0.680228 5:-0.837625 6:-0.884598 7:-0.755019 8:0.509172 9:0.103738 10:0.649162 11:0.0942111 12:-0.702377 13:0.0823225 14:-0.688913 15:-0.776087 16:-0.773927 17:-0.854729 18:-0.943192 19:-0.848169 20:-0.859944 21:-0.956857 22:-0.870498 23:0.285151 24:0.302767 25:-0.232073 26:-0.659289 27:-0.697979 28:-0.914429 29:-0.902291 30:-0.931603 31:-0.913956 
2.464621426930345 1:-0.41061 2:-0.972905 3:-0.852862 4:-0.696107 5:-0.977922 6:-0.903721 7:-0.768196 8:0.120451 9:-0.0563335 10:-0.582255 11:-0.813107 12:-0.837674 13:0.0553954 14:-0.704873 15:-0.880356 16:-0.833372 17:-0.844905 18:-0.943262 19:-0.928832 20:-0.785343 21:-0.949349 22:-0.911837 23:-0.384195 24:0.148449 25:-0.196409 26:-0.337606 27:-0.74819 28:-0.87401 29:-0.89396 30:-0.876323 31:-0.888862 
2.577953828955876 1:0.838889 2:-0.886668 3:-0.706281 4:-0.912647 5:-0.888928 6:-0.806102 7:-0.970679 8:-0.495888 9:0.235259 10:0.326018 11:-0.386939 12:-0.854944 13:-0.700791 14:-0.845857 15:-0.928471 16:-0.890368 17:-0.8002 18:-0.787773 19:-0.430972 20:-0.751654 21:-0.828963 22:-0.467207 23:-0.307514 24:0.471881 25:-0.160126 26:-0.287303 27:-0.497673 28:-0.955302 29:-0.630555 30:-0.759205 31:-0.682877 
1.064777906565432 1:0.844451 2:-0.914836 3:-0.819636 4:-0.932012 5:-0.885252 6:-0.863647 7:-0.958167 8:-0.711008 9:0.351046 10:0.169511 11:0.128677 12:-0.707119 13:-0.908069 14:-0.915333 15:-0.926805 16:-0.911867 17:-0.709374 18:-0.798939 19:-0.648962 20:-0.615265 21:-0.85326 22:-0.643656 23:-0.367821 24:0.238538 25:-0.551186 26:-0.233067 27:-0.690554 28:-0.289157 29:-0.778037 30:-0.692495 31:-0.699452 
0.8178102634177312 1:-0.585973 2:-0.958652 3:-0.861771 4:-0.670009 5:-0.972058 6:-0.873403 7:-0.618174 8:-0.11021 9:-0.473251 10:-0.906101 11:-0.982835 12:-0.0818221 13:0.777985 14:-0.67864 15:-0.746514 16:-0.705429 17:-0.886447 18:-0.973062 19:-0.968277 20:-0.843942 21:-0.970617 22:-0.956631 23:-0.452447 24:0.280806 25:-0.0847206 26:-0.356387 27:-0.370718 28:-0.894384 29:-0.929189 30:-0.950904 31:-0.935151 
2.476900440272189 1:-0.531165 2:-0.89697 3:-0.633791 4:-0.29437 5:-0.932664 6:-0.666693 7:-0.237384 8:0.00056486 9:-0.695736 10:-0.904531 11:-0.942792 12:0.290756 13:0.769351 14:-0.30106 15:-0.453313 16:-0.363218 17:-0.781052 18:-0.940331 19:-0.897423 20:-0.724581 21:-0.944576 22:-0.877777 23:-0.262137 24:0.520871 25:-0.186918 26:-0.456155 27:-0.383536 28:-0.836821 29:-0.839811 30:-0.89019 31:-0.849916 
0.01211886709911501 1:0.186086 2:-0.674071 3:-0.533658 4:-0.531342 5:-0.659247 6:-0.643575 7:-0.505119 8:0.618355 9:0.119636 10:0.90266 11:0.049128 12:-0.471707 13:0.660792 14:-0.539257 15:-0.482636 16:-0.503837 17:-0.534049 18:-0.768023 19:-0.71199 20:-0.442686 21:-0.807112 22:-0.701107 23:-0.290848 24:-0.170032 25:-0.193189 26:-0.346252 27:-0.669994 28:-0.838967 29:-0.630343 30:-0.613604 31:-0.618566 
6.727 1:0.201686 2:-0.837311 3:-0.811223 4:-0.790662 5:-0.852002 6:-0.839562 7:-0.888126 8:0.30726 9:0.37216 10:0.000229691 11:-0.431934 12:-0.51193 13:-0.957316 14:-0.799917 15:-0.89372 16:-0.865022 17:-0.811688 18:-0.859516 19:-0.875509 20:-0.8057 21:-0.884378 22:-0.865172 23:0.064783 24:-0.113804 25:-0.16653 26:-0.618581 27:-0.774671 28:-0.825612 29:-0.865791 30:-0.871826 31:-0.84499 
0.9828328937028282 1:0.118693 2:-0.851031 3:-0.855314 4:-0.903508 5:-0.833955 6:-0.888832 7:-0.939486 8:0.527236 9:0.0298768 10:-0.078802 11:0.0521693 12:-0.5794 13:-0.818739 14:-0.864532 15:-0.906993 16:-0.889806 17:-0.877872 18:-0.899784 19:-0.894605 20:-0.805924 21:-0.909115 22:-0.856322 23:-0.489183 24:0.147792 25:-0.359127 26:0.182472 27:-0.525154 28:-0.452458 29:-0.921847 30:-0.874824 31:-0.869036 
1.337663235235697 1:-0.568602 2:-0.414361 3:-0.114544 4:-0.230096 5:-0.488954 6:0.263042 7:-0.277969 8:-0.280593 9:-0.969788 10:-0.372411 11:-0.601659 12:0.932268 13:-0.047837 14:-0.236454 15:-0.139742 16:-0.0902137 17:-0.874043 18:-0.489078 19:-0.717103 20:-0.855945 21:-0.581709 22:-0.724752 23:0.359235 24:0.454942 25:0.0731527 26:-0.662118 27:-0.57994 28:-0.917949 29:-0.506372 30:-0.63759 31:-0.584061 
1.386288364919505 1:0.396518 2:-0.840937 3:-0.832631 4:-0.590265 5:-0.845843 6:-0.772808 7:-0.552932 8:-0.279122 9:0.924295 10:-0.761754 11:-0.79353 12:0.772036 13:0.482864 14:-0.598484 15:-0.66491 16:-0.624313 17:-0.825092 18:-0.793635 19:-0.905562 20:-0.698932 21:-0.788442 22:-0.885344 23:-0.794885 24:0.131472 25:-0.283145 26:0.502697 27:-0.426835 28:-0.316799 29:-0.814466 30:-0.796121 31:-0.744184 
0.6830654863211423 1:-0.715663 2:-0.546508 3:-0.393814 4:-0.0821572 5:-0.526525 6:-0.27705 7:-0.0960658 8:-0.412214 9:-0.957157 10:-0.624519 11:-0.0923163 12:0.894059 13:0.283983 14:-0.0877503 15:-0.0860683 16:-0.122922 17:-0.681485 18:-0.77877 19:-0.86236 20:-0.601945 21:-0.804961 22:-0.80949 23:0.220174 24:0.270892 25:-0.169477 26:-0.494974 27:-0.525543 28:-0.368741 29:-0.755374 30:-0.62466 31:-0.710848 
0.9571786663871287 1:0.0762493 2:-0.663058 3:-0.848578 4:-0.68309 5:-0.646116 6:-0.897269 7:-0.666495 8:0.478656 9:0.336654 10:-0.171915 11:-0.0711221 12:-0.604821 13:-0.0677802 14:-0.689022 15:-0.721957 16:-0.657269 17:-0.825175 18:-0.76565 19:-0.835542 20:-0.733441 21:-0.804056 22:-0.76741 23:0.831732 24:0.455556 25:-0.207441 26:0.509874 27:-0.43461 28:-0.502715 29:-0.786156 30:-0.632531 31:-0.755702 
0.7427769798971912 1:-0.599643 2:-0.418346 3:0.161748 4:0.0325321 5:-0.540262 6:0.412394 7:-0.0694993 8:0.00741644 9:-0.945691 10:-0.533506 11:-0.49027 12:0.871588 13:0.0896793 14:0.0275318 15:0.10774 16:0.0771746 17:-0.611888 18:-0.700119 19:-0.637692 20:-0.487291 21:-0.745166 22:-0.560146 23:0.406542 24:0.474595 25:-0.526555 26:-0.29193 27:-0.513561 28:-0.402849 29:-0.696354 30:-0.424904 31:-0.576644 
0.758546730724457 1:0.365091 2:-0.675942 3:-0.578948 4:-0.488476 5:-0.741161 6:-0.619052 7:-0.502123 8:-0.0415791 9:0.672737 10:0.720736 11:-0.73963 12:0.110763 13:0.280507 14:-0.496169 15:-0.559886 16:-0.52839 17:-0.743257 18:-0.812339 19:-0.793802 20:-0.637854 21:-0.818432 22:-0.736889 23:0.646016 24:0.388183 25:-0.446321 26:-0.0463902 27:-0.359592 28:-0.360453 29:-0.807759 30:-0.565258 31:-0.719056 
1.238420692522765 1:-0.848155 2:-0.539944 3:-0.599774 4:0.174799 5:-0.583965 6:-0.689402 7:0.0712827 8:0.0260091 9:-0.0358691 10:-0.233566 11:-0.632545 12:-0.612968 13:-0.061465 14:0.170534 15:-0.342231 16:-0.0754779 17:-0.249833 18:-0.741433 19:-0.663675 20:0.0355499 21:-0.76859 22:-0.60831 23:-0.347939 24:0.291255 25:-0.250823 26:-0.101411 27:-0.610049 28:-0.743421 29:-0.389318 30:-0.433336 31:-0.341354 
0.6111758010034318 1:0.259678 2:-0.542452 3:-0.56433 4:-0.202413 5:-0.622595 6:-0.617375 7:-0.169845 8:0.306668 9:0.659931 10:-0.85642 11:-0.663502 12:0.0201353 13:0.65955 14:-0.208627 15:-0.308663 16:-0.262134 17:-0.531385 18:-0.588736 19:-0.554732 20:-0.312865 21:-0.686051 22:-0.58639 23:-0.455416 24:0.160531 25:-0.30595 26:0.0961339 27:-0.781137 28:-0.777803 29:-0.607187 30:-0.488804 31:-0.469807 
0.3174541042410577 1:-0.631986 2:-0.422265 3:-0.310832 4:-0.293178 5:-0.502513 6:-0.304177 7:-0.262522 8:-0.144589 9:-0.595269 10:0.611572 11:-0.601623 12:0.213776 13:0.294171 14:-0.299862 15:-0.37576 16:-0.247703 17:-0.658009 18:-0.558727 19:-0.740269 20:-0.617028 21:-0.616789 22:-0.626713 23:0.363882 24:0.284342 25:-0.553904 26:-0.652496 27:-0.603519 28:-0.188335 29:-0.576829 30:-0.389113 31:-0.522344 
0.7226147491069276 1:0.402466 2:-0.556268 3:-0.166625 4:-0.628938 5:-0.576596 6:-0.162811 7:-0.709982 8:0.243194 9:0.793255 10:-0.401963 11:-0.64526 12:0.469777 13:-0.175094 14:-0.5151 15:-0.498362 16:-0.45701 17:-0.498418 18:-0.540722 19:-0.657936 20:-0.411013 21:-0.626578 22:-0.57666 23:-0.0834132 24:0.152363 25:-0.32587 26:-0.527083 27:-0.749042 28:-0.626413 29:-0.558615 30:-0.516162 31:-0.47563 
1.53213950946824 1:-0.0574297 2:-0.657961 3:-0.641257 4:-0.649195 5:-0.61986 6:-0.78023 7:-0.713301 8:0.598972 9:-0.184855 10:0.681266 11:0.164737 12:-0.653439 13:0.137949 14:-0.657719 15:-0.687384 16:-0.663408 17:-0.26332 18:-0.496685 19:-0.190546 20:-0.0782657 21:-0.753185 22:-0.642172 23:-0.357801 24:0.368393 25:-0.260032 26:-0.305204 27:-0.660429 28:-0.584598 29:-0.400755 30:-0.304413 31:-0.256617 
1.00611789514067 1:-0.1807 2:-0.80405 3:-0.721794 4:-0.717588 5:-0.784789 6:-0.803289 7:-0.821585 8:0.453809 9:-0.221807 10:0.377089 11:-0.060354 12:-0.244938 13:-0.280695 14:-0.726466 15:-0.766866 16:-0.77531 17:-0.49359 18:-0.67339 19:-0.835646 20:-0.285554 21:-0.685136 22:-0.814041 23:-0.378008 24:-0.0255578 25:-0.911772 26:-0.307834 27:-0.533671 28:0.774631 29:-0.596032 30:-0.557575 31:-0.485177 
1.978206144328896 1:-0.576841 2:-0.734998 3:-0.635895 4:-0.772574 5:-0.81118 6:-0.686037 7:-0.780314 8:0.188808 9:-0.646782 10:-0.527984 11:-0.848601 12:0.178353 13:0.14387 14:-0.756192 15:-0.790583 16:-0.755563 17:-0.800699 18:-0.782678 19:-0.625691 20:-0.783319 21:-0.840425 22:-0.657623 23:-0.18794 24:0.172542 25:-0.18759 26:-0.463294 27:-0.662484 28:-0.837325 29:-0.762293 30:-0.803991 31:-0.744765 
2.143620786882546 1:-0.190935 2:-0.843012 3:-0.732526 4:-0.905741 5:-0.872519 6:-0.815447 7:-0.914075 8:0.0895824 9:0.0784962 10:0.413885 11:-0.665712 12:-0.824253 13:-0.220569 14:-0.857045 15:-0.898642 16:-0.878201 17:-0.745005 18:-0.808919 19:-0.712303 20:-0.678247 21:-0.843727 22:-0.752903 23:-0.0455387 24:-0.103161 25:-0.315212 26:-0.565314 27:-0.694989 28:-0.717812 29:-0.809241 30:-0.773447 31:-0.738798 
0.5718313918411231 1:0.306463 2:-0.910675 3:-0.763065 4:-0.844429 5:-0.90087 6:-0.810611 7:-0.85801 8:0.424507 9:0.303632 10:0.891443 11:-0.565022 12:-0.388653 13:0.643429 14:-0.853962 15:-0.832603 16:-0.845469 17:-0.83375 18:-0.855538 19:-0.782845 20:-0.756751 21:-0.880435 22:-0.856768 23:-0.486275 24:0.327703 25:-0.459756 26:-0.105348 27:-0.568452 28:-0.38743 29:-0.868615 30:-0.779069 31:-0.815816 
1.391530276699092 1:-0.374616 2:-0.808142 3:-0.625575 4:-0.80537 5:-0.813313 6:-0.723369 7:-0.894187 8:0.0677335 9:-0.376928 10:-0.197205 11:-0.394607 12:-0.340939 13:-0.614229 14:-0.796392 15:-0.905765 16:-0.815731 17:-0.669497 18:-0.769768 19:-0.71846 20:-0.603714 21:-0.826893 22:-0.734876 23:-0.0589828 24:0.276903 25:-0.261253 26:-0.588075 27:-0.597211 28:-0.843866 29:-0.745208 30:-0.753396 31:-0.705504 
0.6092617350282225 1:-0.67089 2:-0.682863 3:-0.30325 4:-0.223603 5:-0.684947 6:-0.338032 7:-0.000660783 8:-0.460531 9:-0.812042 10:-0.950553 11:-0.199924 12:0.536342 13:0.882454 14:-0.229927 15:-0.0707913 16:-0.0958256 17:-0.622794 18:-0.745132 19:-0.624961 20:-0.560297 21:-0.818942 22:-0.708603 23:-0.0764809 24:0.397669 25:-0.201673 26:-0.43802 27:-0.544523 28:-0.903513 29:-0.705602 30:-0.720041 31:-0.658114 
2.59072985828483 1:-0.612961 2:-0.684156 3:0.0899141 4:-0.183707 5:-0.690974 6:0.161173 7:0.0885433 8:-0.595373 9:-0.899216 10:-0.978754 11:0.0384738 12:0.75362 13:0.946612 14:-0.189824 15:0.173799 16:0.0864093 17:-0.621129 18:-0.745691 19:-0.586664 20:-0.52888 21:-0.792536 22:-0.630758 23:-0.317251 24:0.23152 25:-0.172606 26:-0.298462 27:-0.720216 28:-0.964174 29:-0.70419 30:-0.718917 31:-0.635051 
0.822995315566836 1:-0.686479 2:-0.813703 3:-0.609199 4:-0.531988 5:-0.818878 6:-0.662889 7:-0.323511 8:-0.380589 9:-0.686419 10:-0.981789 11:-0.545539 12:0.267311 13:0.956321 14:-0.539906 15:-0.429658 16:-0.418737 17:-0.684232 18:-0.841929 19:-0.754878 20:-0.546388 21:-0.87262 22:-0.798124 23:-0.55592 24:0.273693 25:-0.268431 26:0.141584 27:-0.679688 28:-0.83993 29:-0.757704 30:-0.703364 31:-0.713126 
0.908709392123437 1:-0.257607 2:-0.52832 3:-0.32673 4:-0.0505495 5:-0.647856 6:-0.617919 7:-0.348643 8:0.0571534 9:-0.296374 10:-0.00942037 11:-0.899054 12:-0.459895 13:-0.674397 14:-0.0559791 15:-0.682184 16:-0.388015 17:-0.0281385 18:-0.480634 19:-0.61223 20:0.188278 21:-0.649526 22:-0.67821 23:0.583641 24:0.554967 25:-0.0785972 26:-0.21754 27:-0.10147 28:-0.800102 29:-0.201313 30:-0.194041 31:-0.184633 
0.7161341423571391 1:-0.204183 2:-0.539731 3:-0.279864 4:0.0376024 5:-0.665404 6:-0.577486 7:-0.1799 8:0.205612 9:0.0548724 10:0.657557 11:-0.676888 12:-0.872044 13:0.224056 14:0.0326283 15:-0.371318 16:-0.238283 17:0.0249751 18:-0.486635 19:-0.502244 20:0.156432 21:-0.630025 22:-0.536032 23:-0.112275 24:-0.108557 25:-0.147886 26:-0.666473 27:-0.847854 28:-0.884454 29:-0.156271 30:-0.223274 31:-0.186869 
0.5808263977891003 1:-0.539518 2:-0.541181 3:0.0635318 4:-0.216082 5:-0.668326 6:-0.041683 7:-0.616809 8:0.389729 9:-0.371355 10:0.12154 11:-0.379282 12:-0.0592117 13:-0.503086 14:-0.222367 15:-0.642246 16:-0.366048 17:-0.361555 18:-0.301696 19:-0.464364 20:-0.224361 21:-0.57078 22:-0.696396 23:0.14075 24:0.401859 25:-0.201724 26:-0.540664 27:-0.492196 28:-0.853578 29:-0.316813 30:-0.498548 31:-0.286426 
0.9069350279684587 1:0.550668 2:-0.651131 3:-0.292282 4:-0.119646 5:-0.730513 6:-0.482477 7:-0.262589 8:0.473862 9:0.583647 10:-0.551687 11:-0.351057 12:-0.108871 13:0.02304 14:-0.125433 15:-0.454242 16:-0.319042 17:0.0502831 18:-0.288506 19:-0.54941 20:0.135316 21:-0.588872 22:-0.520247 23:-0.118926 24:-0.0638918 25:-0.272133 26:-0.105636 27:-0.491417 28:-0.766644 29:-0.134809 30:0.00477839 31:-0.05622 
0.9961924450151389 1:-0.21762 2:-0.271278 3:0.150454 4:-0.0743822 5:-0.224814 6:-0.0667184 7:-0.0811779 8:0.844109 9:-0.710403 10:0.743929 11:0.596325 12:0.344779 13:0.320974 14:-0.079935 15:0.104969 16:0.0251405 17:-0.552364 18:-0.420406 19:-0.262131 20:-0.682826 21:-0.695273 22:-0.735567 23:-0.151093 24:0.18352 25:-0.499281 26:-0.628995 27:-0.888448 28:-0.258901 29:-0.436902 30:-0.660077 31:-0.426682 
2.075697183985395 1:-0.430611 2:-0.608034 3:0.362243 4:0.0872141 5:-0.650744 6:0.743112 7:0.147092 8:0.374943 9:-0.957855 10:-0.548362 11:-0.451077 12:0.876545 13:0.253792 14:0.0824965 15:0.317874 16:0.294909 17:-0.32376 18:-0.63047 19:-0.803715 20:-0.373422 21:-0.812463 22:-0.840604 23:-0.0136966 24:-0.00201293 25:0.0744198 26:-0.977468 27:-0.87884 28:-0.948057 29:-0.45201 30:-0.601049 31:-0.487967 
2.543038114270338 1:-0.0249012 2:-0.539633 3:-0.549777 4:-0.48935 5:-0.444827 6:-0.679672 7:-0.645576 8:0.877294 9:0.317329 10:0.175932 11:0.688698 12:-0.742564 13:-0.457147 14:-0.497047 15:-0.600992 16:-0.517229 17:-0.38295 18:-0.672622 19:-0.435667 20:-0.351446 21:-0.805809 22:-0.553224 23:0.0337086 24:0.00435393 25:-0.334038 26:-0.463145 27:-0.890873 28:-0.645163 29:-0.502206 30:-0.50267 31:-0.46464 
6.727 1:0.147018 2:-0.673547 3:-0.709599 4:-0.822003 5:-0.745018 6:-0.771054 7:-0.887557 8:-0.00594194 9:0.500039 10:0.0908857 11:-0.750396 12:-0.324598 13:-0.78744 14:-0.698816 15:-0.905546 16:-0.792684 17:-0.700133 18:-0.642473 19:-0.409997 20:-0.695318 21:-0.724102 22:-0.391103 23:-0.0696531 24:0.227738 25:-0.173617 26:-0.825672 27:-0.773751 28:-0.82125 29:-0.616365 30:-0.685187 31:-0.574173 
0.8962514152844453 1:-0.979978 2:0.913504 3:-0.708295 4:-0.281143 5:0.802586 6:-0.810049 7:-0.496068 8:-0.461434 9:-0.0497906 10:0.290114 11:-0.254754 12:-0.785304 13:-0.443478 14:0.783011 15:-0.283614 16:0.206485 17:0.135698 18:-0.614628 19:-0.722112 20:-0.389895 21:-0.753167 22:-0.556023 23:0.041654 24:-0.520985 25:-0.655155 26:-0.91772 27:-0.185607 28:0.306907 29:-0.0623742 30:-0.171554 31:-0.217627 
0.4815683066358634 1:-0.105626 2:-0.450338 3:-0.513181 4:-0.747843 5:-0.509105 6:-0.872843 7:-0.831805 8:0.256682 9:-0.263032 10:-0.398953 11:-0.533607 12:-0.340803 13:-0.360263 14:-0.490406 15:-0.768053 16:-0.626246 17:-0.211289 18:-0.124782 19:-0.909945 20:-0.157223 21:-0.337611 22:-0.90274 23:-0.189671 24:-0.148508 25:0.0318702 26:-0.848016 27:-0.898317 28:-0.943069 29:-0.137845 30:-0.238827 31:-0.0986057 
1.626771701902925 1:-0.026361 2:-0.217076 3:-0.747766 4:-0.61431 5:-0.259975 6:-0.849932 7:-0.734607 8:0.498794 9:-0.177399 10:-0.268537 11:-0.295855 12:-0.845983 13:-0.810553 14:-0.27261 15:-0.636502 16:-0.47562 17:0.022644 18:-0.457045 19:-0.815924 20:-0.598516 21:-0.724085 22:-0.822831 23:0.0304027 24:0.056766 25:-0.115128 26:-0.871467 27:-0.64987 28:-0.921644 29:-0.158248 30:-0.45751 31:-0.315047 
2.079841405714326 1:0.228504 2:-0.205131 3:-0.221554 4:-0.543562 5:-0.15864 6:-0.110474 7:-0.716374 8:0.653808 9:0.927585 10:-0.163464 11:-0.0127799 12:0.810769 13:-0.9105 14:-0.261456 15:-0.309371 16:-0.282047 17:-0.232018 18:-0.357248 19:-0.680893 20:-0.388588 21:-0.622455 22:-0.767278 23:0.105125 24:0.0412941 25:-0.0769097 26:-1 27:-0.992791 28:-0.987377 29:-0.37301 30:-0.517287 31:-0.278902 
1.095087502635008 1:-0.9758 2:0.276336 3:-0.388508 4:0.182804 5:0.407425 6:-0.629751 7:0.0139026 8:-0.293357 9:-0.273597 10:0.217439 11:-0.46718 12:-0.78672 13:-0.276213 14:0.188088 15:-0.203709 16:0.23858 17:0.0155678 18:-0.348943 19:-0.707712 20:-0.556103 21:-0.69758 22:-0.794057 23:-0.0087063 24:-0.0796693 25:0.228422 26:-0.775534 27:-0.867271 28:-0.738105 29:-0.164249 30:-0.520285 31:-0.230177 
1.123593274465108 1:0.57493 2:-0.127703 3:-0.462947 4:-0.401151 5:-0.377935 6:-0.386091 7:-0.295541 8:-0.0250041 9:0.95422 10:-0.927032 11:-0.88724 12:0.849438 13:0.815723 14:-0.189162 15:-0.342287 16:-0.232888 17:-0.523726 18:-0.761602 19:-0.125326 20:-0.363107 21:-0.787642 22:0.130011 23:-0.518982 24:0.566645 25:0.290522 26:0.0937305 27:-0.219701 28:-0.539111 29:-0.423771 30:-0.0892907 31:-0.313212 
1.350226551528709 1:-0.0897149 2:-0.164793 3:-0.507179 4:-0.623684 5:-0.112369 6:-0.68471 7:-0.620497 8:0.358632 9:0.0135028 10:-0.741562 11:-0.530598 12:-0.591543 13:0.296215 14:-0.223793 15:-0.680295 16:-0.332024 17:-0.217283 18:-0.67981 19:-0.844829 20:-0.480222 21:-0.814301 22:-0.768324 23:-0.148166 24:-0.0652799 25:0.419731 26:-0.825478 27:-0.858406 28:-0.507961 29:-0.361714 30:-0.504732 31:-0.439145 
1.335609517460626 1:0.0409588 2:-0.235516 3:-0.638398 4:-0.522148 5:-0.234312 6:-0.723122 7:-0.65133 8:0.17631 9:-0.306758 10:-0.0264534 11:-0.625211 12:-0.410406 13:-0.554449 14:-0.289827 15:-0.657206 16:-0.433573 17:-0.304779 18:-0.628865 19:-0.82375 20:-0.734077 21:-0.849796 22:-0.836704 23:-0.553241 24:0.166293 25:0.673899 26:-0.28278 27:-0.882485 28:0.139896 29:-0.435914 30:-0.620538 31:-0.532513 
0.813849575916018 1:0.322122 2:-0.397876 3:-0.393019 4:-0.585419 5:-0.50597 6:-0.441198 7:-0.673403 8:0.191323 9:0.702081 10:-0.467267 11:-0.862873 12:0.33794 13:-0.490504 14:-0.441422 15:-0.593972 16:-0.513803 17:-0.893273 18:-0.469607 19:-0.576959 20:-0.873007 21:-0.461396 22:-0.424428 23:-0.0151955 24:-0.275957 25:0.0747965 26:-0.691081 27:-0.472028 28:-0.445347 29:-0.486674 30:-0.381055 31:-0.416457 
0.5037813369380705 1:0.210838 2:-0.368859 3:-0.324388 4:-0.633323 5:-0.41337 6:-0.4723 7:-0.72949 8:0.285452 9:0.544122 10:0.0743185 11:-0.566075 12:-0.128866 13:-0.571275 14:-0.414329 15:-0.685306 16:-0.51358 17:-0.822178 18:-0.27734 19:-0.631326 20:-0.803355 21:-0.342734 22:-0.524784 23:-0.128113 24:-0.00627885 25:-0.101256 26:-0.843235 27:-0.618313 28:-0.537663 29:-0.292174 30:-0.479059 31:-0.32371 
0.2875643750224511 1:0.876821 2:-0.111998 3:-0.396322 4:-0.370036 5:-0.298947 6:-0.576035 7:-0.530189 8:-0.111495 9:-0.0324298 10:0.00213921 11:-0.815152 12:-0.688539 13:-0.648092 14:-0.174498 15:-0.597756 16:-0.390068 17:-0.621545 18:-0.157164 19:-0.154753 20:-0.536026 21:-0.241519 22:0.0725348 23:0.402081 24:-0.473592 25:0.132114 26:-0.518665 27:-0.477413 28:-0.512435 29:-0.170603 30:0.135576 31:-0.0511034 
0.6681882456075666 1:0.880896 2:-0.584637 3:-0.773996 4:-0.540719 5:-0.577282 6:-0.801426 7:-0.565026 8:-0.477402 9:0.538311 10:-0.262051 11:-0.36018 12:-0.271363 13:-0.172384 14:-0.548682 15:-0.596305 16:-0.555068 17:-0.904512 18:-0.67981 19:-0.796097 20:-0.888821 21:-0.680492 22:-0.738476 23:0.328032 24:-0.714024 25:0.168009 26:-0.837443 27:0.394916 28:-0.483943 29:-0.699319 30:-0.631781 31:-0.677714 
0.2803259532164765 1:0.682472 2:-0.477631 3:-0.570912 4:-0.581671 5:-0.577863 6:-0.637695 7:-0.646279 8:0.0590549 9:0.369 10:0.379568 11:-0.846677 12:-0.214864 13:-0.278458 14:-0.515889 15:-0.693378 16:-0.581241 17:-0.874043 18:-0.483914 19:-0.491704 20:-0.840732 21:-0.503144 22:-0.324112 23:0.428045 24:-0.355606 25:0.288882 26:-0.50973 27:-0.558431 28:-0.470505 29:-0.501147 30:-0.308348 31:-0.40714 
0.4638772802645857 1:-0.991402 2:0.252064 3:-0.47685 4:-0.326076 5:0.345859 6:-0.561624 7:-0.563963 8:-0.658604 9:0.338477 10:-0.0201589 11:0.214103 12:-0.225184 13:-0.803188 14:0.165425 15:-0.359495 16:-0.0561347 17:-0.690643 18:-0.337637 19:-0.317646 20:-0.627481 21:-0.38256 22:-0.112496 23:0.210132 24:-0.308388 25:-0.0195554 26:-0.559666 27:-0.512346 28:-0.574566 29:-0.353172 30:-0.161435 31:-0.239421 
1.565037839209755 1:0.383122 2:-0.52486 3:-0.557444 4:-0.578368 5:-0.601581 6:-0.517993 7:-0.623661 8:0.213552 9:0.83333 10:0.423804 11:-0.738178 12:0.550715 13:-0.447091 14:-0.559987 15:-0.631866 16:-0.546223 17:-0.841242 18:-0.470165 19:-0.657623 20:-0.814109 21:-0.483894 22:-0.565808 23:0.288691 24:-0.246656 25:-0.0556123 26:-0.651821 27:-0.598383 28:-0.479809 29:-0.487239 30:-0.447391 31:-0.455463 
0.5392132624227929 1:0.621392 2:-0.166419 3:-0.235501 4:-0.027769 5:-0.353345 6:-0.40454 7:-0.306807 8:0.177102 9:0.365983 10:0.201849 11:-0.851896 12:-0.26234 13:-0.551215 14:-0.0330809 15:-0.519008 16:-0.25387 17:-0.618548 18:0.218648 19:-0.297715 20:-0.595689 21:0.0813231 22:-0.137845 23:-0.0251182 24:0.00868961 25:0.109351 26:-0.694497 27:-0.653498 28:-0.431704 29:0.209573 30:0.0104001 31:0.167201 
1.153054576671572 1:0.22621 2:-0.108946 3:-0.474301 4:-0.474204 5:-0.342414 6:-0.523254 7:-0.633334 8:0.254608 9:0.637871 10:-0.297233 11:-0.790263 12:0.207571 13:-0.527137 14:-0.171649 15:-0.637379 16:-0.4497 17:-0.897602 18:-0.613371 19:-0.598351 20:-0.870131 21:-0.591956 22:-0.49149 23:-0.162996 24:0.654329 25:-0.198532 26:-0.713585 27:-0.155953 28:-0.540822 29:-0.632108 30:-0.388176 31:-0.497113 
0.6282100787385279 1:0.234059 2:-0.294831 3:-0.573025 4:-0.647421 5:-0.464354 6:-0.638054 7:-0.70673 8:0.1906 9:0.625093 10:-0.320978 11:-0.894739 12:0.147556 13:-0.547462 14:-0.345209 15:-0.74304 16:-0.553248 17:-0.903513 18:-0.55112 19:-0.712825 20:-0.886414 21:-0.46999 22:-0.553824 23:-0.0417909 24:0.615842 25:-0.472508 26:-0.615501 27:-0.250321 28:-0.398262 29:-0.569134 30:-0.382367 31:-0.437274 
1.369842666716343 1:-0.946594 2:-0.299441 3:-0.579523 4:-0.540637 5:-0.394188 6:-0.550737 7:-0.692865 8:-0.209534 9:0.852766 10:0.0768995 11:-0.490665 12:0.633643 13:-0.450574 14:-0.349514 15:-0.610277 16:-0.494442 17:-0.772394 18:-0.730546 19:-0.652301 20:-0.706994 21:-0.748235 22:-0.571192 23:0.364485 24:0.00927093 25:-0.191785 26:-0.400328 27:-0.627982 28:-0.666902 29:-0.750644 30:-0.696055 31:-0.657198 
3.543346892593796 1:-0.960391 2:-0.566456 3:-0.861836 4:-0.719986 5:-0.54691 6:-0.869105 7:-0.741414 8:-0.544591 9:0.346319 10:-0.635245 11:-0.0202574 12:-0.243805 13:0.198346 14:-0.598825 15:-0.676228 16:-0.654432 17:-0.885115 18:-0.817573 19:-0.680893 20:-0.858972 21:-0.824676 22:-0.570876 23:0.177456 24:0.0512957 25:-0.0900622 26:-0.57794 27:-0.657765 28:-0.589102 29:-0.79964 30:-0.737468 31:-0.742114 
0.2106105529951934 1:-0.132794 2:-0.696384 3:-0.770221 4:-0.795064 5:-0.681718 6:-0.826071 7:-0.827779 8:0.278033 9:-0.523783 10:-0.30794 11:-0.23804 12:-0.000538858 13:-0.540841 14:-0.720138 15:-0.798492 16:-0.757642 17:-0.930486 18:-0.834601 19:-0.786601 20:-0.894605 21:-0.790755 22:-0.693146 23:-0.676007 24:0.760295 25:-0.739809 26:0.228693 27:0.130426 28:0.343012 29:-0.855907 30:-0.587932 31:-0.761957 
0.6614272341624033 1:-0.963118 2:-0.272557 3:-0.732731 4:-0.586188 5:-0.0411376 6:-0.787667 7:-0.609753 8:-0.837816 9:-0.0380255 10:-0.698927 11:0.600003 12:-0.438559 13:0.304359 14:-0.324412 15:-0.320252 16:-0.306184 17:-0.845072 18:-0.743527 19:-0.724095 20:-0.821686 21:-0.75656 22:-0.631723 23:0.222625 24:0.00477283 25:-0.220552 26:-0.660607 27:-0.558149 28:-0.524916 29:-0.763776 30:-0.723976 31:-0.710002 
1.987706986355231 1:-0.108242 2:-0.77081 3:-0.86021 4:-0.803457 5:-0.759306 6:-0.892434 7:-0.827813 8:0.410411 9:-0.39785 10:-0.520706 11:-0.167781 12:-0.314779 13:-0.364112 14:-0.78963 15:-0.834382 16:-0.803811 17:-0.845821 18:-0.607091 19:-0.630387 20:-0.815924 21:-0.600827 22:-0.536773 23:0.346928 24:0.0401042 25:-0.174991 26:-0.680164 27:-0.530773 28:-0.654359 29:-0.625755 30:-0.577064 31:-0.559656 
1.350250598526973 1:0.976985 2:-0.687977 3:-0.819046 4:-0.858554 5:-0.668698 6:-0.887314 7:-0.916326 8:-0.717995 9:0.297688 10:0.151308 11:0.311941 12:-0.574375 13:-0.69886 14:-0.712289 15:-0.854029 16:-0.78958 17:-0.725191 18:-0.857282 19:-0.6355 20:-0.729676 21:-0.899917 22:-0.604434 23:0.185152 24:0.308799 25:-0.946623 26:-0.863892 27:-0.588101 28:0.863374 29:-0.768929 30:-0.700928 31:-0.744967 
0.3817829704944796 1:-0.112793 2:-0.562304 3:-0.810098 4:-0.851551 5:-0.621197 6:-0.855981 7:-0.892338 8:-0.12197 9:-0.461862 10:0.291231 11:-0.484501 12:-0.141743 13:-0.344298 14:-0.594949 15:-0.817629 16:-0.749879 17:-0.812937 18:-0.893293 19:-0.918397 20:-0.81171 21:-0.922005 22:-0.930308 23:0.71231 24:0.681782 25:0.100566 26:-0.123255 27:0.147411 28:-0.885848 29:-0.86685 30:-0.835098 31:-0.878177 
1.606834149188199 1:0.988306 2:-0.228571 3:-0.703796 4:-0.610935 5:0.242995 6:-0.731676 7:-0.61666 8:-0.966041 9:0.702856 10:0.745331 11:0.898729 12:0.233238 13:0.40545 14:-0.283342 15:-0.196985 16:-0.133336 17:-0.723277 18:-0.662084 19:-0.648023 20:-0.816689 21:-0.708481 22:-0.588468 23:0.0973248 24:-0.0866443 25:-0.224797 26:-0.767905 27:-0.667338 28:-0.793211 29:-0.681387 30:-0.705238 31:-0.633163 
0.2748109344045014 1:0.981216 2:0.0643854 3:-0.817047 4:-0.65661 5:0.310574 6:-0.819035 7:-0.712927 8:-0.958851 9:0.641199 10:0.71364 11:0.875215 12:-0.0714645 13:0.244624 14:-0.0098098 15:-0.237974 16:-0.145549 17:-0.652098 18:-0.796706 19:-0.549202 20:-0.641134 21:-0.844076 22:-0.501565 23:0.458104 24:0.306888 25:0.100529 26:-0.509421 27:-0.659992 28:-0.742429 29:-0.710544 30:-0.666823 31:-0.651574 
1.362007672812958 1:-0.963747 2:-0.603866 3:-0.681359 4:-0.70326 5:-0.626304 6:-0.773736 7:-0.816628 8:-0.386452 9:0.61881 10:0.201196 11:-0.397088 12:0.154069 13:-0.581565 14:-0.633755 15:-0.778335 16:-0.701163 17:-0.811022 18:-0.75909 19:-0.567046 20:-0.860792 21:-0.796684 22:-0.615713 23:-0.081805 24:0.532398 25:-0.673308 26:-0.875609 27:-0.387288 28:0.0124606 29:-0.722616 30:-0.649208 31:-0.709983 
0.2756789056556437 1:0.793134 2:-0.474049 3:-0.585455 4:-0.585523 5:-0.480998 6:-0.682247 7:-0.711992 8:-0.49037 9:0.681051 10:-0.531333 11:-0.45808 12:0.227643 13:-0.145673 14:-0.512545 15:-0.62394 16:-0.573487 17:-0.813104 18:-0.865866 19:-0.684024 20:-0.846379 21:-0.83711 22:-0.837565 23:0.353921 24:0.266257 25:0.0846438 26:-0.614027 27:-0.148942 28:-0.708791 29:-0.801758 30:-0.846529 31:-0.775523 
1.769583572350406 1:0.881739 2:-0.316901 3:-0.570618 4:-0.498058 5:-0.227342 6:-0.62015 7:-0.628025 8:-0.716921 9:0.72384 10:-0.176684 11:0.358912 12:0.310707 13:-0.503156 14:-0.365817 15:-0.468913 16:-0.40688 17:-0.705378 18:-0.78882 19:-0.721799 20:-0.653704 21:-0.769985 22:-0.618019 23:0.316128 24:-0.496047 25:0.825756 26:-0.550114 27:0.0643911 28:0.594168 29:-0.775636 30:-0.548955 31:-0.653276 
1.090242774535351 1:0.948617 2:-0.204972 3:-0.705868 4:-0.663819 5:-0.05339 6:-0.79332 7:-0.723133 8:-0.741787 9:0.473429 10:-0.578699 11:0.224654 12:-0.263773 13:-0.0831259 14:-0.261308 15:-0.398657 16:-0.340996 17:-0.8002 18:-0.898667 19:-0.701346 20:-0.853209 21:-0.983336 22:-0.877744 23:-0.42017 24:-0.0615752 25:-0.201051 26:-0.451074 27:-0.89215 28:-0.785694 29:-0.813477 30:-0.872576 31:-0.820808 
4.536490951594724 1:-0.0779196 2:-0.683166 3:-0.81478 4:-0.705755 5:-0.699641 6:-0.858248 7:-0.752124 8:0.57031 9:-0.207632 10:-0.440637 11:-0.0822019 12:-0.715423 13:-0.438694 14:-0.707797 15:-0.837082 16:-0.724249 17:-0.666001 18:-0.86133 19:-0.803924 20:-0.782941 21:-0.905193 22:-0.856484 23:-0.318752 24:-0.157302 25:-0.0368549 26:-0.591509 27:-0.849105 28:-0.925423 29:-0.742243 30:-0.767451 31:-0.758121 
2.560202738099542 1:-0.0699026 2:-0.769778 3:-0.913704 4:-0.856254 5:-0.808917 6:-0.91977 7:-0.865475 8:0.285926 9:0.103652 10:-0.702915 11:-0.726844 12:-0.738026 13:0.311139 14:-0.788666 15:-0.932207 16:-0.847129 17:-0.794872 18:-0.896364 19:-0.781592 20:-0.754454 21:-0.896975 22:-0.722249 23:0.158755 24:-0.583684 25:0.5584 26:-0.709493 27:-0.0994278 28:-0.0269125 29:-0.85153 30:-0.753584 31:-0.798121 
0.3997868390583076 1:0.962428 2:-0.322502 3:-0.609709 4:-0.63835 5:-0.345527 6:-0.750514 7:-0.781458 8:-0.514152 9:0.325716 10:-0.268236 11:-0.238643 12:-0.515628 13:-0.662941 14:-0.371046 15:-0.714312 16:-0.535629 17:-0.786464 18:-0.847303 19:-0.703329 20:-0.74325 21:-0.861207 22:-0.587536 23:-0.103592 24:-0.192326 25:0.67403 26:-0.616295 27:-0.349589 28:0.216017 29:-0.814819 30:-0.68069 31:-0.738343 
1.368365075005447 1:0.840504 2:-0.194839 3:-0.581997 4:-0.754116 5:-0.340959 6:-0.610698 7:-0.788443 8:-0.258105 9:0.777062 10:0.68143 11:-0.462853 12:0.422875 13:0.0881443 14:-0.251847 15:-0.542845 16:-0.523635 17:-0.767566 18:-0.915765 19:-0.640196 20:-0.790368 21:-0.949155 22:-0.658057 23:0.602069 24:0.185963 25:-0.164511 26:-0.242067 27:-0.859448 28:-0.84487 29:-0.772106 30:-0.807552 31:-0.798185 
5.247841342513627 1:-0.99517 2:-0.254687 3:-0.661846 4:-0.724498 5:-0.298421 6:-0.793287 7:-0.815137 8:-0.409124 9:0.0637176 10:-0.0131556 11:-0.210496 12:-0.913265 13:-0.811095 14:-0.307727 15:-0.759602 16:-0.538782 17:-0.716617 18:-0.837183 19:-0.726495 20:-0.630951 21:-0.852933 22:-0.695979 23:0.0552231 24:0.367121 25:-0.365266 26:-0.634685 27:-0.693148 28:-0.530197 29:-0.785167 30:-0.761454 31:-0.728033 
0.6087505701543836 1:0.962379 2:-0.0961481 3:-0.5366 4:-0.632255 5:-0.220642 6:-0.736567 7:-0.756688 8:-0.189229 9:-0.0674033 10:0.0360123 11:-0.68333 12:-0.910723 13:-0.77087 14:-0.1597 15:-0.70404 16:-0.464273 17:-0.757243 18:-0.885268 19:-0.634039 20:-0.688704 21:-0.91418 22:-0.648898 23:0.137173 24:0.332388 25:-0.0942919 26:-0.482373 27:-0.586386 28:-0.900392 29:-0.767941 30:-0.75958 31:-0.75083 
0.1428281543338628 1:0.990928 2:0.0878553 3:-0.59613 4:-0.654778 5:0.223651 6:-0.715671 7:-0.750419 8:-0.636683 9:0.279162 10:-0.10548 11:0.159778 12:-0.357334 13:-0.602201 14:0.012104 15:-0.411458 16:-0.194691 17:-0.813853 18:-0.96371 19:-0.499009 20:-0.764174 21:-0.968329 22:-0.403347 23:0.493653 24:-0.440938 25:0.352962 26:-0.494668 27:-0.261121 28:-0.268522 29:-0.676586 30:-0.62185 31:-0.702693 
0.5441186036822596 1:0.875966 2:-0.257747 3:-0.515733 4:-0.489458 5:-0.22461 6:-0.61936 7:-0.67297 8:-0.212432 9:0.461159 10:0.0143826 11:-0.307668 12:-0.268443 13:-0.680727 14:-0.310584 15:-0.528415 16:-0.426352 17:-0.772977 18:-0.985554 19:-0.848169 20:-0.737988 21:-0.990284 22:-0.829265 23:-0.439245 24:0.238198 25:-0.100621 26:-0.410539 27:-0.564383 28:-0.882441 29:-0.832963 30:-0.861145 31:-0.833208 
3.38297134743472 1:-0.0648035 2:-0.331315 3:-0.7075 4:-0.712962 5:-0.427573 6:-0.803597 7:-0.839184 8:0.331666 9:-0.168575 10:-0.16595 11:-0.821493 12:-0.874044 13:-0.8278 14:-0.379274 15:-0.810508 16:-0.60351 17:-0.680653 18:-0.866076 19:-0.356778 20:-0.632065 21:-0.903185 22:-0.302579 23:0.248792 24:0.473874 25:0.383591 26:-0.693319 27:-0.363807 28:-0.332535 29:-0.580359 30:-0.596739 31:-0.596681 
0.8224156218597589 1:0.350427 2:-0.957275 3:-0.863697 4:-0.946001 5:-0.950139 6:-0.815004 7:-0.98525 8:0.574842 9:0.860347 10:-0.120065 11:-0.130952 12:0.657379 13:-0.944247 14:-0.942338 15:-0.92321 16:-0.930402 17:-0.979271 18:-0.97041 19:-0.94052 20:-0.960176 21:-0.980597 22:-0.893952 23:-0.671456 24:-0.101353 25:0.76118 26:0.0768739 27:-0.400061 28:0.236391 29:-0.97529 30:-0.899747 31:-0.962775 
0.3742345367812509 1:0.924986 2:-0.644815 3:-0.776562 4:-0.754059 5:-0.481111 6:-0.790388 7:-0.721082 8:-0.972588 9:0.385472 10:-0.96512 11:0.916752 12:-0.25305 13:0.907629 14:-0.671988 15:-0.556953 16:-0.604792 17:-0.955045 18:-0.943262 19:-0.948033 20:-0.938831 21:-0.931065 22:-0.887565 23:-0.441132 24:0.660278 25:0.62959 26:-0.407369 27:0.0011516 28:-0.0395449 29:-0.96583 30:-0.857397 31:-0.937609 
0.342795481425668 1:0.944 2:-0.677192 3:-0.792417 4:-0.629884 5:-0.447819 6:-0.811364 7:-0.583965 8:-0.970113 9:-0.17427 10:-0.918117 11:0.911516 12:-0.152737 13:0.799418 14:-0.638308 15:-0.469272 16:-0.514991 17:-0.93673 18:-0.905646 19:-0.928519 20:-0.918966 21:-0.896672 22:-0.918626 23:-0.390808 24:0.853891 25:0.58603 26:-0.459754 27:0.491361 28:-0.114738 29:-0.927777 30:-0.812424 31:-0.90533 
0.7307719562627635 1:0.818616 2:-0.705728 3:-0.65915 4:-0.824832 5:-0.562701 6:-0.639129 7:-0.772509 8:-0.933198 9:0.896952 10:-0.917415 11:0.819642 12:0.715033 13:0.800233 14:-0.728863 15:-0.537553 16:-0.629679 17:-0.970363 18:-0.955684 19:-0.919649 20:-0.945749 21:-0.934444 22:-0.81405 23:-0.541453 24:0.818532 25:1 26:0.24477 27:0.350321 28:1 29:-0.961171 30:-0.791436 31:-0.911324 
1.74302355495451 1:-0.15974 2:-0.804809 3:-0.833849 4:-0.83751 5:-0.84076 6:-0.877377 7:-0.872421 8:0.363879 9:-0.4685 10:0.614383 11:-0.562226 12:-0.213172 13:0.0242514 14:-0.821375 15:-0.848424 16:-0.857206 17:-0.965784 18:-0.907321 19:-0.939581 20:-0.963292 21:-0.887151 22:-0.931125 23:0.106885 24:-0.510628 25:0.0312153 26:-0.805504 27:-0.134965 28:-0.874165 29:-0.929472 30:-0.881008 31:-0.914178 
0.6735528502475472 1:0.461456 2:-0.950439 3:-0.819788 4:-0.772751 5:-0.953103 6:-0.800864 7:-0.830909 8:0.468228 9:0.5677 10:0.489305 11:-0.328898 12:0.141639 13:-0.0955934 14:-0.781914 15:-0.860591 16:-0.848924 17:-0.931652 18:-0.921558 19:-0.982156 20:-0.90795 21:-0.947915 22:-0.940559 23:-0.420764 24:0.317302 25:0.882956 26:-0.0929909 27:-0.604211 28:0.67 29:-0.943874 30:-0.907055 31:-0.946217 
1.287115184181181 1:0.619015 2:-0.892004 3:-0.605914 4:-0.881701 5:-0.881081 6:-0.565107 7:-0.895492 8:-0.385626 9:0.636668 10:-0.705859 11:-0.0915119 12:0.27035 13:0.345782 14:-0.784342 15:-0.77836 16:-0.78696 17:-0.925491 18:-0.930281 19:-0.847229 20:-0.871609 21:-0.924573 22:-0.827843 23:-0.50845 24:0.356011 25:0.921837 26:-0.288232 27:-0.590197 28:0.798022 29:-0.912175 30:-0.788438 31:-0.874257 
0.1701583294028835 1:0.851901 2:-0.589403 3:-0.691286 4:-0.724344 5:-0.511305 6:-0.64936 7:-0.687665 8:-0.965289 9:0.716425 10:-0.94086 11:0.901603 12:0.475061 13:0.848017 14:-0.620251 15:-0.50261 16:-0.580248 17:-0.924326 18:-0.943471 19:-0.883126 20:-0.899058 21:-0.907641 22:-0.85755 23:-0.383305 24:1 25:0.771786 26:-0.45425 27:0.861096 28:0.477672 29:-0.936461 30:-0.768388 31:-0.888672 
0.9114561450110052 1:0.952429 2:-0.478457 3:-0.876934 4:-0.762911 5:-0.219989 6:-0.851198 7:-0.666826 8:-0.965596 9:0.778578 10:-0.993341 11:0.897338 12:0.460609 13:0.982 14:-0.516661 15:-0.404882 16:-0.444694 17:-0.945638 18:-0.948845 19:-0.878013 20:-0.935606 21:-0.932244 22:-0.831575 23:-0.107878 24:0.586539 25:0.51153 26:-0.474496 27:0.138865 28:-0.164061 29:-0.933002 30:-0.826291 31:-0.914773 
0.7177196820361201 1:0.206845 2:-0.843808 3:-0.854854 4:-0.837889 5:-0.872247 6:-0.868104 7:-0.897456 8:0.388944 9:0.49447 10:0.106223 11:-0.41508 12:-0.16479 13:-0.705351 14:-0.847388 15:-0.877681 16:-0.88193 17:-0.949301 18:-0.96699 19:-0.870082 20:-0.943462 21:-0.963037 22:-0.902783 23:-0.117792 24:-0.412216 25:0.0521311 26:-0.483046 27:-0.0599843 28:-0.859318 29:-0.927636 30:-0.905181 31:-0.943739 
0.5071764347079418 1:0.660095 2:-0.669418 3:-0.778656 4:-0.704055 5:-0.729302 6:-0.745355 7:-0.798694 8:-0.126506 9:0.857575 10:-0.13472 11:-0.835229 12:0.635611 13:-0.659337 14:-0.69496 15:-0.827605 16:-0.749926 17:-0.824093 18:-0.826994 19:-0.77314 20:-0.758024 21:-0.841096 22:-0.792326 23:-0.534693 24:0.727659 25:-0.665272 26:-0.284623 27:0.0673177 28:0.3212 29:-0.848212 30:-0.660264 31:-0.776248 
0.6604770639840073 1:0.990806 2:-0.463912 3:-0.872922 4:-0.678423 5:-0.315048 6:-0.927292 7:-0.789541 8:-0.8102 9:0.080992 10:0.0741458 11:0.529184 12:-0.887391 13:-0.670136 14:-0.50308 15:-0.632639 16:-0.548285 17:-0.893773 18:-0.898109 19:-0.770114 20:-0.87887 21:-0.852589 22:-0.736993 23:-0.476325 24:0.957797 25:-0.504386 26:-0.336661 27:0.733955 28:0.0785897 29:-0.860002 30:-0.662325 31:-0.799558 
5.231466274886825 1:0.473399 2:-0.746321 3:-0.756964 4:-0.690731 5:-0.784096 6:-0.800033 7:-0.780642 8:0.170826 9:0.617048 10:0.360662 11:-0.687005 12:0.0401502 13:-0.385078 14:-0.69947 15:-0.839273 16:-0.762475 17:-0.711122 18:-0.792937 19:-0.510696 20:-0.723164 21:-0.821399 22:-0.501444 23:0.205158 24:0.419013 25:-0.104182 26:-0.825639 27:-0.566397 28:-0.838129 29:-0.684493 30:-0.781879 31:-0.677775 
2.191889681191528 1:-0.983348 2:-0.792795 3:-0.903336 4:-0.790696 5:-0.820589 6:-0.928806 7:-0.82992 8:-0.431002 9:0.064354 10:-0.45532 11:-0.37963 12:-0.836403 13:-0.11163 14:-0.799951 15:-0.864046 16:-0.837149 17:-0.937562 18:-0.960221 19:-0.887405 20:-0.927061 21:-0.9595 22:-0.902627 23:-0.194853 24:0.0169382 25:-0.140548 26:-0.495014 27:-0.408867 28:-0.917398 29:-0.939355 30:-0.927293 31:-0.951245 
0.6480503921542319 1:-0.129612 2:-0.920347 3:-0.958769 4:-0.961533 5:-0.947107 6:-0.958992 7:-0.973093 8:-0.0478674 9:0.104711 10:-0.128747 11:-0.920108 12:-0.752521 13:-0.843075 14:-0.929252 15:-0.990912 16:-0.976406 17:-0.952214 18:-0.989253 19:-0.927163 20:-0.933886 21:-0.98398 22:-0.931629 23:-0.51364 24:0.0351371 25:0.105553 26:-0.125998 27:-0.396497 28:-0.627323 29:-0.966254 30:-0.929167 31:-0.973326 
1.186878488791631 1:0.973271 2:-0.430153 3:-0.735457 4:-0.701489 5:-0.31022 6:-0.807761 7:-0.712258 8:-0.770345 9:-0.10826 10:-0.754023 11:0.461432 12:-0.741347 13:0.433714 14:-0.471559 15:-0.529616 16:-0.50842 17:-0.955961 18:-0.827343 19:-0.82709 20:-0.944329 21:-0.839824 22:-0.769507 23:0.430231 24:0.117138 25:-0.305633 26:-0.490534 27:-0.545509 28:-0.574386 29:-0.848565 30:-0.840157 31:-0.830875 
0.3983713828666449 1:0.930968 2:-0.494838 3:-0.745781 4:-0.781413 5:-0.421844 6:-0.792831 7:-0.765499 8:-0.729997 9:0.33136 10:-0.825792 11:0.351543 12:-0.504379 13:0.531693 14:-0.531955 15:-0.582756 16:-0.591353 17:-0.968365 18:-0.905646 19:-0.969425 20:-0.951801 21:-0.858106 22:-0.930297 23:0.77059 24:0.881458 25:0.53895 26:0.293882 27:0.663431 28:-0.0213825 29:-0.927777 30:-0.83135 31:-0.889713 
0.9641572060788015 1:-0.935122 2:-0.63762 3:-0.722128 4:-0.751716 5:-0.516401 6:-0.803926 7:-0.774488 8:-0.935179 9:-0.234245 10:0.521819 11:0.817411 12:-0.358218 13:-0.277652 14:-0.66527 15:-0.68849 16:-0.645146 17:-0.941642 18:-0.806476 19:-0.980486 20:-0.917421 21:-0.789877 22:-0.936826 23:0.214153 24:0.568255 25:0.889268 26:-0.367577 27:-0.241395 28:0.739468 29:-0.827456 30:-0.783566 31:-0.811367 
5.557537242458372 1:0.184459 2:-0.670352 3:-0.706177 4:-0.86198 5:-0.677032 6:-0.711555 7:-0.90421 8:0.499776 9:0.34651 10:0.165391 11:-0.293533 12:-0.0177616 13:-0.395005 14:-0.695833 15:-0.763114 16:-0.756736 17:-0.911921 18:-0.814572 19:-0.816341 20:-0.899331 21:-0.829685 22:-0.723348 23:0.143684 24:-0.222395 25:-0.0946477 26:-0.691347 27:-0.551439 28:-0.255282 29:-0.835645 30:-0.784878 31:-0.806312 
0.8426171891206179 1:0.253963 2:-0.747473 3:-0.687431 4:-0.908751 5:-0.734887 6:-0.741464 7:-0.924035 8:0.430873 9:0.838283 10:-0.384646 11:-0.498508 12:0.553095 13:-0.491509 14:-0.767841 15:-0.814816 16:-0.786161 17:-0.976523 18:-0.906553 19:-0.961703 20:-0.966432 21:-0.881132 22:-0.927136 23:-0.320454 24:0.645747 25:0.544904 26:-0.269058 27:-0.0920524 28:-0.00990855 29:-0.928695 30:-0.893938 31:-0.907842 
1.051319938103694 1:-0.0400203 2:-0.777319 3:-0.881292 4:-0.904546 5:-0.731502 6:-0.903895 7:-0.909831 8:0.71361 9:0.0819562 10:-0.643106 11:0.178804 12:-0.602482 13:0.101281 14:-0.795707 15:-0.86988 16:-0.816276 17:-0.973859 18:-0.868309 19:-0.939894 20:-0.966291 21:-0.827432 22:-0.850799 23:0.0999547 24:0.716342 25:-0.529411 26:-0.688336 27:-0.0490017 28:0.210092 29:-0.890007 30:-0.774384 31:-0.840831 
0.4953679895764359 1:-0.988394 2:-0.0315205 3:-0.64563 4:-0.675549 5:0.279397 6:-0.716304 7:-0.719771 8:-0.836956 9:-0.107911 10:0.296543 11:0.617356 12:-0.367641 13:-0.243954 14:-0.0993569 15:-0.289022 16:-0.144599 17:-0.913253 18:-0.746319 19:-0.83669 20:-0.885039 21:-0.763836 22:-0.778352 23:0.577643 24:-0.075243 25:-0.535375 26:-0.0833199 27:-0.428226 28:-0.0637783 29:-0.7666 30:-0.774197 31:-0.76586 
0.02188029873736699 1:0.202633 2:-0.459745 3:-0.633894 4:-0.845874 5:-0.475872 6:-0.582865 7:-0.857954 8:0.604436 9:0.922711 10:0.514405 11:-0.150407 12:0.783763 13:0.0522184 14:-0.499189 15:-0.645577 16:-0.613761 17:-0.878205 18:-0.696699 19:-0.828446 20:-0.863046 21:-0.702586 22:-0.760717 23:0.32374 24:-0.471112 25:0.430102 26:-0.734607 27:-0.217037 28:-0.251518 29:-0.716404 30:-0.658765 31:-0.704875 
1.892117762107657 1:0.197238 2:-0.645992 3:-0.67584 4:-0.826246 5:-0.595111 6:-0.630728 7:-0.859141 8:0.823162 9:0.836213 10:0.467491 11:0.524093 12:0.624216 13:-0.372313 14:-0.673087 15:-0.674996 16:-0.684806 17:-0.891692 18:-0.769 19:-0.857143 20:-0.884028 21:-0.786493 22:-0.812699 23:0.146896 24:-0.179979 25:0.193225 26:-0.813823 27:-0.381031 28:-0.448252 29:-0.789544 30:-0.796121 31:-0.790769 
0.7648603613850357 1:0.525815 2:-0.69605 3:-0.51872 4:-0.757913 5:-0.724718 6:-0.467802 7:-0.779935 8:0.138362 9:0.755442 10:-0.352189 11:-0.535303 12:0.503241 13:-0.0139237 14:-0.719826 15:-0.732495 16:-0.66075 17:-0.892857 18:-0.654617 19:-0.813002 20:-0.868312 21:-0.682585 22:-0.766617 23:-0.0912932 24:-0.165838 25:-0.191541 26:-0.669778 27:-0.57893 28:-0.434473 29:-0.673832 30:-0.764452 31:-0.68466 
1.064610119134065 1:-0.989087 2:-0.481197 3:-0.680933 4:-0.762463 5:-0.390463 6:-0.778781 7:-0.816247 8:-0.582485 9:0.0508356 10:0.49414 11:0.197109 12:-0.619265 13:-0.437849 14:-0.519219 15:-0.664693 16:-0.583254 17:-0.951465 18:-0.781911 19:-0.891892 20:-0.940159 21:-0.782192 22:-0.846785 23:0.0149948 24:-0.288069 25:0.590895 26:-0.690196 27:-0.457443 28:0.049041 29:-0.802605 30:-0.782629 31:-0.800391 
0.8289472316241788 1:-0.982765 2:-0.0622932 3:-0.829741 4:-0.720277 5:0.333446 6:-0.879504 7:-0.717988 8:-0.870306 9:-0.424398 10:0.59736 11:0.64185 12:-0.312888 13:0.161012 14:-0.128089 15:-0.327818 16:-0.128627 17:-0.892191 18:-0.635843 19:-0.790149 20:-0.882039 21:-0.648953 22:-0.7528 23:0.146148 24:-0.165467 25:-0.126428 26:-0.759149 27:-0.506547 28:-0.639308 29:-0.654841 30:-0.659515 31:-0.650303 
3.69369688072061 1:-0.00318391 2:-0.683049 3:-0.731651 4:-0.92165 5:-0.662381 6:-0.921333 7:-0.959739 8:0.768513 9:0.0804276 10:0.0844492 11:0.483642 12:-0.808465 13:-0.765973 14:-0.707687 15:-0.872197 16:-0.789971 17:-0.954878 18:-0.81841 19:-0.68538 20:-0.957823 21:-0.803385 22:-0.796242 23:0.0202054 24:-0.682226 25:-0.0923571 26:-0.930375 27:0.306669 28:-0.567965 29:-0.802676 30:-0.790874 31:-0.778515 
1.16149041167522 1:0.985086 2:-0.106478 3:-0.735358 4:-0.554312 5:0.258069 6:-0.756434 7:-0.664137 8:-0.916602 9:0.601666 10:0.518159 11:0.765172 12:0.0566505 13:-0.139178 14:-0.169344 15:-0.224055 16:-0.126966 17:-0.811522 18:-0.80543 19:-0.774183 20:-0.768712 21:-0.804692 22:-0.69229 23:-0.307585 24:0.697653 25:-0.677003 26:-0.658216 27:0.0801025 28:0.167384 29:-0.826397 30:-0.598426 31:-0.74057 
0.3487592188800088 1:0.939158 2:-0.76247 3:-0.87501 4:-0.867108 5:-0.748556 6:-0.916283 7:-0.935881 8:-0.662087 9:0.254157 10:-0.366393 11:-0.068347 12:-0.746027 13:-0.597667 14:-0.781843 15:-0.880544 16:-0.848207 17:-0.8171 18:-0.8778 19:-0.64197 20:-0.847615 21:-0.906153 22:-0.757278 23:-0.298765 24:-0.634652 25:0.0910279 26:-0.562013 27:-0.0836572 28:-0.762752 29:-0.773307 30:-0.709735 31:-0.770539 
1.087930120347085 1:0.606114 2:-0.49171 3:-0.67451 4:-0.711464 5:-0.585874 6:-0.703235 7:-0.78379 8:0.00845244 9:0.528592 10:0.296103 11:-0.817333 12:0.0150841 13:-0.336735 14:-0.529035 15:-0.795052 16:-0.667646 17:-0.858059 18:-0.807244 19:-0.698529 20:-0.843137 21:-0.82185 22:-0.695529 23:-0.134065 24:0.392786 25:-0.720509 26:-0.717202 27:-0.301177 28:0.429754 29:-0.811571 30:-0.706737 31:-0.76632 
0.1976198795498008 1:-0.11723 2:-0.808484 3:-0.850939 4:-0.717543 5:-0.778965 6:-0.8917 7:-0.782694 8:0.0821776 9:-0.226208 10:-0.576984 11:-0.303734 12:-0.58788 13:-0.0577764 14:-0.72642 15:-0.8877 16:-0.785934 17:-0.793956 18:-0.718752 19:-0.578733 20:-0.830811 21:-0.715424 22:-0.639484 23:-0.104942 24:0.603586 25:-0.833423 26:-0.859463 27:-0.16594 28:0.403739 29:-0.730523 30:-0.554202 31:-0.653321 
3.660240258005279 1:0.157035 2:-0.603936 3:-0.783178 4:-0.795888 5:-0.684098 6:-0.866994 7:-0.884114 8:0.0189032 9:0.0448343 10:0.0407253 11:-0.90954 12:-0.738064 13:-0.908763 14:-0.63382 15:-0.907695 16:-0.787144 17:-0.889527 18:-0.889385 19:-0.706355 20:-0.863235 21:-0.89767 22:-0.894586 23:-0.305553 24:-0.46276 25:-0.0975364 26:-0.564508 27:-0.411432 28:-0.903842 29:-0.816866 30:-0.807739 31:-0.828913 
1.773222277337865 1:0.817528 2:-0.63925 3:-0.800445 4:-0.768132 5:-0.699359 6:-0.853013 7:-0.867848 8:-0.0702366 9:0.0970884 10:-0.18365 11:-0.869558 12:-0.516353 13:-0.911456 14:-0.666793 15:-0.904075 16:-0.790114 17:-0.863553 18:-0.787424 19:-0.596264 20:-0.858421 21:-0.798308 22:-0.572999 23:-0.280239 24:0.338346 25:-0.573272 26:-0.627232 27:-0.467927 28:-0.244935 29:-0.742384 30:-0.697555 31:-0.714892 
0.4352800262873063 1:0.966992 2:-0.2405 3:-0.784929 4:-0.816351 5:-0.287571 6:-0.823653 7:-0.855932 8:-0.616785 9:-0.284904 10:-0.487816 11:0.0586569 12:-0.540375 13:-0.300199 14:-0.29448 15:-0.720004 16:-0.54719 17:-0.916667 18:-0.763417 19:-0.661275 20:-0.939582 21:-0.746682 22:-0.623449 23:0.12208 24:0.861254 25:-0.905773 26:-0.866612 27:0.539512 28:0.79824 29:-0.783896 30:-0.568444 31:-0.708417 
0.6160691854903181 1:0.868658 2:-0.130302 3:-0.538213 4:-0.216833 5:-0.135122 6:-0.618876 7:-0.390951 8:-0.184369 9:0.536011 10:0.704464 11:-0.510418 12:-0.130065 13:0.220928 14:-0.191589 15:-0.284788 16:-0.233927 17:-0.0809191 18:-0.142369 19:-0.953459 20:-0.611611 21:-0.852629 22:-0.951321 23:-0.13343 24:-0.441022 25:-0.0344931 26:-0.665803 27:-0.206789 28:-0.834945 29:-0.155636 30:-0.421531 31:-0.253254 
1.51871670906775 1:0.92161 2:-0.720952 3:-0.698223 4:-0.829194 5:-0.694281 6:-0.847046 7:-0.915733 8:-0.676438 9:0.507243 10:0.0412222 11:0.0666897 12:-0.0640754 13:-0.936031 14:-0.743078 15:-0.8079 16:-0.773367 17:-0.557026 18:-0.420616 19:-0.779401 20:-0.843291 21:-0.896595 22:-0.81487 23:0.14435 24:-0.210039 25:0.328192 26:-0.897489 27:-0.71047 28:-0.6472 29:-0.437114 30:-0.686499 31:-0.555103 
0.3074303657268201 1:0.983327 2:-0.600998 3:-0.729706 4:-0.567679 5:-0.572414 6:-0.78914 7:-0.715881 8:-0.335903 9:0.311911 10:0.435432 11:-0.167582 12:-0.553298 13:-0.300801 14:-0.575781 15:-0.739395 16:-0.643756 17:-0.405095 18:-0.575965 19:-0.676928 20:-0.41296 21:-0.865854 22:-0.966885 23:-0.105513 24:-0.177753 25:-0.1981 26:-0.924613 27:-0.892365 28:-0.69908 29:-0.520986 30:-0.609482 31:-0.488619 
0.8282985624813691 1:0.427184 2:-0.405223 3:-0.210489 4:-0.55362 5:-0.51032 6:-0.22817 7:-0.646051 8:-0.0960581 9:0.864217 10:0.594238 11:-0.789292 12:0.634888 13:0.0346386 14:-0.448282 15:-0.66427 16:-0.448659 17:0.193973 18:-0.618675 19:-0.699781 20:-0.651414 21:-0.847331 22:-0.836358 23:0.236264 24:-0.525384 25:0.10016 26:-0.767721 27:0.037602 28:-0.792066 29:-0.0129549 30:-0.529279 31:-0.291143 
0.6722133613194141 1:-0.97765 2:0.960019 3:-0.417309 4:-0.239829 5:0.773411 6:-0.567929 7:-0.496034 8:-0.537115 9:-0.220904 10:0.411489 11:-0.069202 12:-0.506608 13:-0.439236 14:0.826441 15:-0.0973792 16:0.201109 17:-0.23618 18:-0.777375 19:-0.745174 20:-0.511523 21:-0.82855 22:-0.736324 23:-0.245756 24:-0.235698 25:0.209886 26:-0.640853 27:-0.699691 28:-0.772734 29:-0.37774 30:-0.524782 31:-0.474248 
0.9108291055607228 1:-0.928989 2:0.190975 3:-0.533498 4:-0.488804 5:0.289501 6:-0.595994 7:-0.519213 8:-0.636161 9:-0.424341 10:0.72835 11:-0.0673639 12:-0.0836776 13:0.118213 14:0.108386 15:-0.263563 16:-0.0578721 17:-0.155178 18:-0.564171 19:-0.355943 20:-0.245227 21:-0.670412 22:-0.31535 23:-0.14868 24:0.101494 25:0.124106 26:-0.924177 27:-0.907304 28:-0.823128 29:-0.309047 30:-0.557013 31:-0.35025 
0.7440619572930358 1:0.946 2:0.276139 3:-0.400101 4:-0.0782723 5:-0.011697 6:-0.5907 7:-0.361018 8:-0.0419462 9:0.353219 10:0.561783 11:-0.847009 12:-0.4716 13:-0.0796803 14:0.187904 15:-0.546915 16:-0.170876 17:0.34299 18:-0.558587 19:-0.117395 20:0.225446 21:-0.703338 22:0.175241 23:0.530613 24:-0.040812 25:0.0907086 26:-0.221089 27:-0.777116 28:-0.384873 29:0.113417 30:0.0328867 31:0.0505733 
0.9056131772876542 1:0.26333 2:0.340053 3:-0.197694 4:-0.0622654 5:0.0250468 6:0.0130509 7:-0.196834 8:0.0941625 9:0.991563 10:0.609378 11:-0.721091 12:0.950829 13:-0.105162 14:0.24758 15:0.0671067 16:0.0791852 17:0.0312188 18:-0.436109 19:-0.501617 20:-0.468074 21:-0.72867 22:-0.580468 23:0.0384284 24:0.0136975 25:-0.0642079 26:-0.915615 27:-0.615398 28:-0.570544 29:-0.150976 30:-0.38143 31:-0.227263 
0.9552936537831507 1:-0.883438 2:0.680129 3:0.0222498 4:-0.0450545 5:0.656971 6:-0.159773 7:-0.191941 8:-0.436175 9:-0.576098 10:0.744465 11:-0.182905 12:-0.0192026 13:0.253845 14:0.565109 15:0.272867 16:0.309837 17:0.177822 18:-0.368553 19:-0.726182 20:-0.576206 21:-0.898424 22:-0.588583 23:-0.127996 24:-0.00925677 25:-0.86442 26:-0.456863 27:-0.583177 28:0.705523 29:-0.0266511 30:-0.264312 31:-0.209771 
1.155010556202658 1:-0.910293 2:-0.774447 3:-0.747877 4:-0.837738 5:-0.598464 6:-0.815192 7:-0.906 8:-0.963419 9:-0.695426 10:0.0284201 11:0.891079 12:0.206672 13:-0.912571 14:-0.793025 15:-0.740473 16:-0.73585 17:-0.612388 18:-0.726429 19:-0.877909 20:-0.621951 21:-0.775877 22:-0.916897 23:-0.079468 24:-0.241889 25:-0.355932 26:-0.931659 27:-0.636608 28:-0.494023 29:-0.696777 30:-0.812424 31:-0.688893 
1.44787369067032 1:0.743794 2:-0.78837 3:-0.726667 4:-0.730437 5:-0.78688 6:-0.735465 7:-0.840183 8:-0.322706 9:0.713426 10:0.111044 11:-0.392636 12:0.249931 13:-0.761208 14:-0.73938 15:-0.843903 16:-0.789509 17:-0.747835 18:-0.715751 19:-0.852343 20:-0.739882 21:-0.752378 22:-0.916151 23:0.265569 24:-0.113578 25:-0.415945 26:-0.603604 27:-0.556859 28:-0.399381 29:-0.735677 30:-0.764078 31:-0.722325 
1.293959812502087 1:0.846168 2:-0.821826 3:-0.789059 4:-0.881383 5:-0.793528 6:-0.83995 7:-0.933932 8:-0.59373 9:0.391116 10:-0.210071 11:0.110695 12:-0.397984 13:-0.61304 14:-0.837263 15:-0.870412 16:-0.855473 17:-0.738595 18:-0.593831 19:-0.804967 20:-0.76009 21:-0.69181 22:-0.828658 23:-0.0863502 24:0.140884 25:-0.581556 26:-0.836306 27:-0.857993 28:0.0241269 29:-0.612341 30:-0.787876 31:-0.663542 
0.07126553971630818 1:-0.0462304 2:-0.38753 3:-0.6984 4:-0.589404 5:-0.393653 6:-0.851296 7:-0.785956 8:0.212697 9:-0.177929 10:0.111784 11:-0.518134 12:-0.885457 13:-0.959815 14:-0.431762 15:-0.743061 16:-0.577053 17:-0.224858 18:-0.890432 19:-0.869978 20:-0.342786 21:-0.944661 22:-0.955769 23:-0.0998243 24:0.0952327 25:-0.0684682 26:-0.859282 27:-0.874631 28:-0.845151 29:-0.368139 30:-0.656329 31:-0.478207 
0.4120212559694094 1:-0.588729 2:-0.560388 3:-0.385818 4:-0.670156 5:-0.646272 6:-0.25403 7:-0.822518 8:0.0460693 9:-0.665034 10:0.0170798 11:-0.888454 12:0.394242 13:-0.928942 14:-0.593159 15:-0.706406 16:-0.56442 17:-0.0658508 18:-0.159746 19:-0.826881 20:-0.0753075 21:-0.414464 22:-0.847537 23:-0.100708 24:-0.0795515 25:0.0543044 26:-0.929424 27:-0.986817 28:-0.850916 29:-0.173215 30:-0.388363 31:-0.11989 
0.7061677751445068 1:-0.0825397 2:-0.44777 3:-0.691214 4:-0.624134 5:-0.409195 6:-0.808787 7:-0.763383 8:0.524257 9:-0.249497 10:-0.142921 11:-0.448451 12:-0.712512 13:-0.80018 14:-0.488008 15:-0.721146 16:-0.561506 17:0.191475 18:-0.243771 19:-0.450172 20:0.23067 21:-0.453416 22:-0.339288 23:0.205312 24:0.292652 25:0.206083 26:-0.828855 27:-0.789869 28:-0.587597 29:-0.0150729 30:-0.402605 31:-0.0475606 
0.5681923762220229 1:0.831463 2:-0.5715 3:-0.638664 4:-0.666905 5:-0.550862 6:-0.655544 7:-0.77705 8:-0.263611 9:0.57808 10:-0.0135771 11:-0.303087 12:-0.319208 13:-0.571886 14:-0.603534 15:-0.694206 16:-0.640586 17:-0.349151 18:-0.67332 19:-0.811228 20:-0.585365 21:-0.824068 22:-0.938888 23:0.154185 24:0.0547061 25:0.180753 26:-0.975411 27:-0.94206 28:-0.787233 29:-0.473543 30:-0.681439 31:-0.528361 
1.041505376279303 1:-0.91133 2:-0.123164 3:-0.4702 4:-0.676328 5:-0.159903 6:-0.564457 7:-0.752313 8:-0.54346 9:0.056992 10:-0.503317 11:-0.211657 12:-0.400563 13:-0.3111 14:-0.184924 15:-0.476953 16:-0.397188 17:-0.359724 18:-0.480983 19:-0.366378 20:-0.364537 21:-0.575469 22:-0.360653 23:0.226748 24:0.569529 25:-0.0380369 26:-0.843925 27:-0.218663 28:-0.8286 29:-0.482509 30:-0.441582 31:-0.373595 
1.724549948808786 1:0.778844 2:-0.519484 3:-0.556155 4:-0.684814 5:-0.565015 6:-0.58026 7:-0.805897 8:-0.320936 9:0.786874 10:-0.0924183 11:-0.343803 12:0.441033 13:-0.846536 14:-0.554967 15:-0.703756 16:-0.631586 17:-0.424575 18:-0.694675 19:-0.690494 20:-0.654119 21:-0.808511 22:-0.860024 23:-0.274452 24:-0.094666 25:-0.454717 26:-0.67106 27:-0.842897 28:-0.103315 29:-0.537506 30:-0.64977 31:-0.562708 
0.2468833286726162 1:-0.812121 2:-0.167154 3:-0.440929 4:-0.640418 5:-0.101952 6:-0.292534 7:-0.797163 8:-0.545166 9:-0.812552 10:-0.107649 11:0.0654326 12:0.645805 13:-0.873054 14:-0.225998 15:-0.385565 16:-0.324387 17:-0.121712 18:-0.412032 19:-0.492121 20:-0.175789 21:-0.618901 22:-0.445252 23:0.309293 24:0.574196 25:-0.106802 26:-0.714325 27:-0.323998 28:-0.573388 29:-0.280666 30:-0.282301 31:-0.28741 
1.108483325046198 1:-0.996147 2:-0.358499 3:-0.817454 4:-0.768 5:-0.118451 6:-0.864176 7:-0.870023 8:-0.859221 9:0.333954 10:-0.219155 11:0.629579 12:-0.731399 13:-0.649826 14:-0.404656 15:-0.610164 16:-0.43579 17:-0.14627 18:-0.483146 19:-0.721382 20:-0.0809081 21:-0.494596 22:-0.679735 23:0.393871 24:0.608749 25:-0.21809 26:-0.749993 27:-0.275951 28:-0.708206 29:-0.301493 30:-0.292795 31:-0.26113 
0.09064585795449538 1:0.850832 2:-0.415222 3:-0.587672 4:-0.794718 5:-0.435155 6:-0.623176 7:-0.854273 8:-0.415892 9:0.412816 10:0.377649 11:-0.177188 12:-0.0984837 13:-0.299299 14:-0.457618 15:-0.634851 16:-0.600681 17:-0.689893 18:-0.362482 19:-0.651257 20:-0.643369 21:-0.423273 22:-0.527514 23:0.283718 24:-0.0365782 25:0.24976 26:-0.63944 27:-0.561797 28:-0.453877 29:-0.378305 30:-0.339829 31:-0.372848 
2.478782563303159 1:0.837788 2:-0.183859 3:-0.611966 4:-0.849197 5:-0.191439 6:-0.48891 7:-0.881334 8:-0.55288 9:0.933947 10:-0.0204846 11:-0.0326646 12:0.84477 13:-0.511465 14:-0.241595 15:-0.486152 16:-0.443141 17:-0.72028 18:-0.581897 19:-0.560993 20:-0.733909 21:-0.651875 22:-0.585899 23:0.164441 24:0.37069 25:0.377794 26:-0.772219 27:-0.318821 28:-0.458242 29:-0.600268 30:-0.580811 31:-0.54011 
