svm_type c_svc
kernel_type rbf
gamma 0.001953
nr_class 5
total_sv 308
rho -17.2577 -15.1986 -5.75182 11.0809 -22.8074 9.80455 5.64052 4.30302 -9.60202 -39.4073
label 1 2 3 4 5
probA -1.2841 -1.11235 -1.63511 -1.29 -1.45525 -1.12651 -0.946356 -1.03632 -1.28968 -0.98869
probB -0.0130904 0.0639326 -0.00521345 -0.0233556 -0.0785237 0.111724 0.108836 -0.036018 0.1773 0.0121735
nr_sv 58 47 56 85 62
SV
3649.037 0 0 0 1:-0.780085 2:-0.763143 3:-0.674779 4:-0.85188 5:-0.801352 6:-0.780357 7:0.100562 8:-0.20867 9:0.172017 10:-0.644161 11:-0.672129 12:-0.691759 13:-0.704619 14:-0.87181 15:-0.791123 16:-0.539211 17:-0.742123 18:-0.658118 19:-0.232764 20:-0.727198 21:-0.690355 22:-0.321881 23:-0.257935 24:-0.326802 25:-0.332207 26:-0.693746 27:-0.542984 28:-0.562693 29:-0.474322 30:-0.506372 
3649.037 0 0 0 1:-0.831293 2:-0.84032 3:-0.88681 4:-0.872577 5:-0.797029 6:-0.905696 7:-0.383446 8:0.686121 9:0.451616 10:-0.591364 11:0.00864683 12:-0.309545 13:-0.872523 14:-0.865364 15:-0.877987 16:-0.50716 17:-0.625076 18:-0.689208 19:-0.090495 20:-0.510411 21:-0.719957 22:-0.455884 23:-0.564663 24:-0.378125 25:-0.36255 26:-0.260428 27:-0.625992 28:-0.530153 29:-0.332246 30:-0.37803 
0 476.9729167150579 502.9536735793508 0 1:-0.254989 2:-0.385926 3:-0.259963 4:-0.207766 5:-0.542149 6:-0.372079 7:-0.685251 8:0.437865 9:0.260733 10:0.136433 11:-0.490075 12:-0.0229951 13:-0.282412 14:-0.244771 15:-0.235529 16:-0.439477 17:1 18:0.0563174 19:-0.26846 20:0.910135 21:-0.012881 22:-0.0329436 23:0.0979496 24:-0.135127 25:-0.881036 26:-0.931722 27:-0.966728 28:0.787263 29:0.0208455 30:0.579624 
860.2981086680086 0 0 0 1:0.428375 2:0.370382 3:0.528414 4:0.294527 5:0.0421019 6:0.267664 7:0.152804 8:-0.496849 9:-0.559477 10:-0.527973 11:-0.371031 12:-0.00972769 13:0.520012 14:0.144131 15:0.387647 16:-0.640776 17:0.0871295 18:0.0752643 19:-0.329892 20:-0.336841 21:-0.66159 22:-0.778899 23:0.146198 24:-0.0236104 25:0.0972986 26:-0.779113 27:-0.841725 28:-0.036724 29:-0.218353 30:0.0444039 
3649.037 0 0 0 1:-0.817855 2:-0.859666 3:-0.596742 4:-0.874241 5:-0.897744 6:-0.684624 7:0.215492 8:-0.0513798 9:0.458818 10:-0.737564 11:-0.710084 12:-0.471971 13:-0.625192 14:-0.814678 15:-0.724346 16:-0.555694 17:-0.636593 18:-0.809275 19:-0.193167 20:-0.555242 21:-0.734282 22:-0.439625 23:0.223037 24:-0.435067 25:0.130265 26:-0.623388 27:-0.495059 28:-0.579428 29:-0.485734 30:-0.448622 
237.355318658801 0 0 0 1:-0.265386 2:-0.343441 3:-0.0735561 4:0.0736703 5:-0.425043 6:-0.118849 7:0.860927 8:-0.505114 9:-0.748942 10:0.645292 11:-0.386041 12:0.440778 13:-0.0926839 14:0.0712754 15:0.0111416 16:-0.142441 17:-0.491081 18:-0.558359 19:0.414307 20:-0.387905 21:-0.394613 22:-0.212956 23:-0.0247694 24:-0.42383 25:-0.490078 26:-0.63773 27:-0.644615 28:-0.15987 29:-0.0352859 30:-0.0328226 
1383.650260705517 0 0 0 1:-0.684706 2:-0.584989 3:-0.343861 4:-0.723285 5:-0.691061 6:-0.568472 7:-0.0157242 8:-0.469507 9:0.103418 10:-0.731203 11:-0.213245 12:-0.754725 13:-0.367805 14:-0.753654 15:-0.576563 16:-0.411921 17:-0.463364 18:-0.690778 19:0.0824272 20:-0.364708 21:-0.839994 22:0.421063 23:0.0831219 24:-0.756515 25:-0.388485 26:-0.632949 27:0.431667 28:-0.433461 29:-0.280307 30:-0.243476 
3649.037 0 0 0 1:-0.763597 2:-0.66735 3:-0.636937 4:-0.721532 5:-0.669666 6:-0.715092 7:-0.139521 8:-0.642977 9:0.259944 10:-0.292978 11:0.186291 12:-0.626972 13:-0.666103 14:-0.766217 15:-0.692554 16:-0.45313 17:-0.603071 18:-0.717262 19:-0.0353654 20:-0.561418 21:-0.659627 22:-0.225149 23:0.00546522 24:-0.44796 25:-0.439658 26:-0.695595 27:-0.576753 28:-0.475299 29:-0.397927 30:-0.367044 
3649.037 0 0 0 1:-0.882345 2:-0.863609 3:-0.519799 4:-0.906324 5:-0.89344 6:-0.662125 7:-0.0173462 8:0.226536 9:0.205193 10:-0.617941 11:-0.899646 12:-0.651811 13:-0.546878 14:-0.846447 15:-0.713178 16:-0.444222 17:-0.787537 18:-0.846854 19:-0.0828138 20:-0.742428 21:-0.796584 22:-0.00103477 23:0.0486085 24:-0.443387 25:-0.470005 26:-0.592519 27:-0.575318 28:-0.466255 29:-0.526028 30:-0.469308 
3649.037 0 0 0 1:-0.835241 2:-0.895719 3:-0.701417 4:-0.8629 5:-0.895991 6:-0.797168 7:-0.287642 8:0.434615 9:-0.042001 10:-0.842411 11:-0.473787 12:-0.693828 13:-0.731731 14:-0.919629 15:-0.824031 16:-0.720696 17:-0.738939 18:-0.848634 19:-0.51177 20:-0.688886 21:-0.811573 22:0.335 23:0.206031 24:0.173698 25:-0.295461 26:-0.463934 27:-0.639469 28:-0.746947 29:-0.593572 30:-0.657343 
0 3405.642534737035 3610.268849682872 3649.037 1:-0.685861 2:-0.844036 3:-0.83338 4:-0.736319 5:-0.87207 6:-0.90668 7:0.159446 8:-0.289101 9:0.234102 10:-0.702022 11:-0.496529 12:-0.809315 13:-0.737773 14:-0.895616 15:-0.822338 16:-0.238012 17:0.214195 18:-0.591333 19:-0.291962 20:-0.171632 21:-0.721768 22:0.00558269 23:0.116514 24:-0.186841 25:-0.942492 26:-0.901044 27:-0.920604 28:0.0779699 29:-0.0951438 30:0.148948 
0 0 0 3332.651649989347 1:-0.784578 2:-0.822501 3:-0.838806 4:-0.828619 5:-0.879248 6:-0.892998 7:-0.258817 8:0.114054 9:0.39981 10:-0.728647 11:-0.866708 12:-0.484541 13:-0.829238 14:-0.880295 15:-0.867609 16:-0.733433 17:-0.58219 18:-0.486863 19:-0.546251 20:-0.540779 21:-0.543833 22:-0.355964 23:-0.385918 24:-0.290937 25:-0.568223 26:-0.366795 27:-0.801684 28:-0.599206 29:-0.402119 30:-0.482109 
0 3649.037 3649.037 3303.006942831501 1:-0.463968 2:-0.79103 3:-0.670294 4:-0.571098 5:-0.836947 6:-0.779596 7:-0.0456774 8:0.197265 9:0.288855 10:-0.806523 11:-0.86118 12:-0.70185 13:-0.532179 14:-0.821513 15:-0.689789 16:-0.574426 17:-0.169343 18:-0.577096 19:-0.471417 20:-0.337168 21:-0.83877 22:-0.284425 23:-0.074003 24:-0.204884 25:-0.620014 26:-0.73806 27:-0.708664 28:-0.268225 29:-0.465704 30:-0.339813 
0 378.3212628832019 329.8162707565365 0 1:0.00846089 2:-0.620865 3:-0.288562 4:0.56301 5:-0.681651 6:-0.330966 7:0.956909 8:-0.4841 9:-0.578957 10:0.89087 11:-0.243573 12:0.16727 13:-0.0944507 14:0.110321 15:0.115618 16:-0.639111 17:-0.872372 18:-0.604103 19:-0.327031 20:-0.880633 21:-0.809511 22:0.569273 23:0.224251 24:0.0936304 25:-0.413925 26:-0.746889 27:-0.756783 28:-0.664117 29:-0.594736 30:-0.560973 
0 0 0 681.5005519380057 1:-0.678735 2:-0.847932 3:-0.731909 4:-0.713076 5:-0.897581 6:-0.858708 7:-0.0125051 8:0.280571 9:0.257508 10:-0.575026 11:-0.800499 12:-0.791228 13:-0.73117 14:-0.854383 15:-0.783832 16:-0.759324 17:-0.0303853 18:-0.584528 19:-0.832025 20:-0.701665 21:-0.953823 22:0.384509 23:0.20041 24:0.118171 25:-0.624773 26:-0.61569 27:-0.810137 28:-0.142797 29:-0.548154 30:-0.345088 
3649.037 0 0 2613.893975813164 1:-0.714466 2:-0.851146 3:-0.785864 4:-0.730313 5:-0.854261 6:-0.87568 7:-0.403483 8:0.433812 9:-0.457402 10:-0.554341 11:-0.536624 12:-0.450912 13:-0.764276 14:-0.872582 15:-0.814498 16:-0.768815 17:-0.540709 18:-0.302837 19:-0.694276 20:-0.581311 21:-0.592739 22:0.427108 23:0.445414 24:-0.430003 25:-0.663825 26:-0.572931 27:-0.477183 28:-0.450619 29:-0.712356 30:-0.497946 
822.5869581138754 3649.037 0 0 1:-0.160078 2:-0.616146 3:-0.374597 4:-0.309318 5:-0.711823 6:-0.432851 7:-0.00194577 8:0.177705 9:-0.760806 10:-0.756176 11:-0.857653 12:0.428289 13:-0.25061 14:-0.508915 15:-0.371355 16:-0.51715 17:-0.299405 18:-0.712865 19:-0.637035 20:-0.732669 21:-0.77804 22:-0.111746 23:-0.0522097 24:-0.296975 25:-0.870884 26:-0.852176 27:-0.78671 28:-0.385623 29:-0.523932 30:-0.391631 
0 0 0 1396.78379156761 1:-0.513571 2:-0.794253 3:-0.61476 4:-0.605325 5:-0.842775 6:-0.752922 7:0.0706853 8:-0.0785468 9:0.224402 10:-0.676133 11:-0.83544 12:-0.717859 13:-0.578138 14:-0.812211 15:-0.69822 16:-0.622128 17:-0.783417 18:-0.375484 19:-0.336924 20:-0.719338 21:-0.897581 22:0.557882 23:0.500976 24:0.440851 25:-0.436691 26:-0.459844 27:-0.388626 28:-0.509276 29:-0.458717 30:-0.477248 
0 0 0 2126.243301096194 1:-0.769056 2:-0.812863 3:-0.761232 4:-0.775283 5:-0.919058 6:-0.837069 7:-0.592859 8:0.302485 9:0.0860002 10:0.00642976 11:-0.727325 12:-0.556846 13:-0.792612 14:-0.835503 15:-0.816269 16:-0.681901 17:-0.643616 18:-0.32639 19:-0.542836 20:-0.62315 21:-0.379692 22:0.40257 23:0.25404 24:-0.212382 25:-0.65203 26:-0.758426 27:-0.907483 28:-0.469636 29:-0.61104 30:-0.471326 
0 3649.037 0 0 1:-0.218417 2:-0.721244 3:-0.539406 4:-0.357709 5:-0.781511 6:-0.674413 7:-0.0251851 8:-0.214928 9:0.0945414 10:-0.745364 11:-0.683642 12:-0.717906 13:-0.304663 14:-0.72817 15:-0.531207 16:-0.446304 17:-0.743808 18:-0.346069 19:-0.106755 20:-0.660744 21:-0.251201 22:-0.282114 23:0.414581 24:-0.436618 25:-0.433853 26:-0.575282 27:-0.597588 28:-0.468368 29:-0.307092 30:-0.272535 
0 23.64254555464062 127.6446600214512 2791.931886514506 1:-0.77035 2:-0.849703 3:-0.94972 4:-0.823422 5:-0.861447 6:-0.969338 7:-0.244265 8:0.344453 9:-0.655682 10:-0.798592 11:-0.642766 12:0.201129 13:-0.816055 14:-0.934622 15:-0.894982 16:-0.954462 17:-0.968444 18:-0.852193 19:-0.90041 20:-0.945429 21:-0.844237 22:0.631121 23:-0.0146967 24:0.177971 25:0.192621 26:-0.377995 27:-0.931527 28:-0.894181 29:-0.931291 30:-0.898363 
2911.337368446069 0 2915.500460102197 3649.037 1:-0.879083 2:-0.898168 3:-0.983058 4:-0.88389 5:-0.890133 6:-0.994027 7:-0.345103 8:0.382159 9:0.0829995 10:-0.497986 11:-0.402592 12:-0.951463 13:-0.916802 14:-0.951981 15:-0.937564 16:-0.947969 17:-0.923966 18:-0.926829 19:-0.890071 20:-0.884644 21:-0.900658 22:0.775402 23:0.297419 24:0.0282312 25:0.248652 26:-0.244574 27:-0.794818 28:-0.949372 29:-0.860254 30:-0.909007 
3649.037 3047.280220380028 2902.677750362001 3649.037 1:-0.939005 2:-0.94215 3:-0.979206 4:-0.930257 5:-0.926797 6:-0.968888 7:-0.457029 8:0.493481 9:-0.724999 10:-0.132529 11:-0.0476438 12:0.378856 13:-0.972323 14:-0.941322 15:-0.962491 16:-0.938811 17:-0.923498 18:-0.965037 19:-0.887028 20:-0.90565 21:-0.950341 22:0.597198 23:0.155451 24:-0.0120892 25:-0.216008 26:-0.514434 27:-0.893707 28:-0.94895 29:-0.903575 30:-0.936523 
0 0 0 3550.227615638648 1:-0.951466 2:-0.924871 3:-0.950328 4:-0.947037 5:-0.927079 6:-0.967844 7:-0.270002 8:0.099751 9:-0.320974 10:-0.445955 11:-0.676877 12:-0.551631 13:-0.983868 14:-0.965595 15:-0.968215 16:-0.93698 17:-0.93024 18:-0.946928 19:-0.860184 20:-0.855334 21:-0.938619 22:0.832205 23:0.728572 24:0.143663 25:0.418459 26:0.519785 27:-0.959526 28:-0.955035 29:-0.823454 30:-0.896591 
3649.037 0 308.2602125279427 3649.037 1:-0.702045 2:-0.806729 3:-0.749505 4:-0.770695 5:-0.855506 6:-0.823194 7:0.0257301 8:0.17035 9:0.286157 10:-0.838879 11:-0.887447 12:-0.369452 13:-0.752768 14:-0.86363 15:-0.801981 16:-0.854312 17:-0.842034 18:-0.817544 19:-0.716957 20:-0.762556 21:-0.795478 22:0.555348 23:0.287741 24:-0.216397 25:-0.310707 26:-0.376199 27:-0.642221 28:-0.866205 29:-0.707232 30:-0.757804 
3649.037 3364.132484935194 136.2440717763984 0 1:-0.595777 2:-0.772289 3:-0.610718 4:-0.583516 5:-0.82572 6:-0.634696 7:0.634066 8:0.2408 9:-0.798413 10:0.142914 11:-0.637886 12:0.517876 13:-0.639416 14:-0.633299 15:-0.617917 16:-0.857975 17:-0.757667 18:-0.782372 19:-0.761188 20:-0.702039 21:-0.748219 22:0.027106 23:-0.221909 24:-0.222361 25:-0.407711 26:-0.514256 27:-0.83118 28:-0.799265 29:-0.729125 30:-0.735825 
3649.037 407.2870928723971 0 0 1:-0.840215 2:-0.824402 3:-0.962195 4:-0.882055 5:-0.858157 6:-0.97011 7:-0.236933 8:0.337102 9:-0.0402375 10:-0.839592 11:-0.63671 12:-0.786832 13:-0.880789 14:-0.947325 15:-0.918991 16:-0.831002 17:-0.788661 18:-0.862975 19:-0.629565 20:-0.719394 21:-0.8413 22:-0.366505 23:0.233505 24:-0.092915 25:0.133296 26:-0.534068 27:-0.842377 28:-0.827241 29:-0.727495 30:-0.726996 
2403.590080225152 0 0 0 1:-0.797148 2:-0.704406 3:-0.787143 4:-0.842874 5:-0.755133 6:-0.842634 7:-0.221013 8:-0.259033 9:-0.0533712 10:-0.783276 11:-0.474926 12:-0.528795 13:-0.818985 14:-0.856655 15:-0.824863 16:-0.800533 17:-0.762817 18:-0.827593 19:-0.577854 20:-0.666035 21:-0.789803 22:-0.681095 23:-0.167356 24:-0.284393 25:0.507678 26:-0.254383 27:-0.747593 28:-0.803913 29:-0.560731 30:-0.673645 
1591.14142251673 0 0 0 1:-0.829622 2:-0.802574 3:-0.827021 4:-0.878374 5:-0.853877 6:-0.862709 7:-0.00400253 8:0.102302 9:0.558599 10:-0.913005 11:-0.883125 12:-0.186549 13:-0.859573 14:-0.935719 15:-0.864011 16:-0.892774 17:-0.838195 18:-0.929132 19:-0.761865 20:-0.745055 21:-0.932334 22:1 23:0.666951 24:0.178672 25:0.829018 26:0.25253 27:-0.868658 28:-0.871952 29:-0.698148 30:-0.792353 
3649.037 3649.037 3649.037 3649.037 1:-0.880311 2:-0.871917 3:-0.903295 4:-0.90793 5:-0.87308 6:-0.936377 7:-0.136462 8:0.353437 9:-0.132429 10:-0.802698 11:-0.477506 12:-0.757482 13:-0.917939 14:-0.939074 15:-0.926347 16:-0.87654 17:-0.819654 18:-0.893123 19:-0.780453 20:-0.726918 21:-0.886157 22:0.26488 23:0.288634 24:0.0419627 25:-0.462477 26:-0.379928 27:-0.929117 28:-0.855217 29:-0.766158 30:-0.793801 
3649.037 637.99110643305 3442.911937539325 2380.844690222867 1:-0.886039 2:-0.852917 3:-0.947815 4:-0.918083 5:-0.892296 6:-0.972423 7:-0.332196 8:0.158588 9:-0.0196035 10:-0.612584 11:-0.873901 12:-0.910402 13:-0.923247 14:-0.978837 15:-0.944152 16:-0.812021 17:-0.799242 18:-0.886004 19:-0.605162 20:-0.708959 21:-0.891752 22:-0.529524 23:0.321247 24:-0.177974 25:-0.170302 26:-0.445551 27:-0.844572 28:-0.836792 29:-0.742634 30:-0.720004 
3649.037 3649.037 3649.037 3649.037 1:-0.914775 2:-0.922251 3:-0.906885 4:-0.937872 5:-0.926278 6:-0.944789 7:0.148671 8:0.132274 9:-0.0145204 10:-0.633899 11:-0.796905 12:-0.630053 13:-0.94086 14:-0.98418 15:-0.950147 16:-0.971029 17:-0.962358 18:-0.947451 19:-0.963534 20:-0.949363 21:-0.939958 22:0.145884 23:0.36909 24:-0.617393 25:-0.539282 26:-0.263746 27:0.0992332 28:-0.971094 29:-0.958076 30:-0.974013 
67.27603762566238 0 0 0 1:-0.57678 2:-0.757967 3:-0.454671 4:-0.627278 5:-0.817755 6:-0.629027 7:0.339216 8:0.300717 9:-0.242456 10:-0.469553 11:-0.711847 12:-0.492111 13:-0.480589 14:-0.724168 15:-0.631316 16:-0.83966 17:-0.8234 18:-0.851565 19:-0.652011 20:-0.802779 21:-0.866926 22:0.951274 23:0.634018 24:0.00812756 25:0.59277 26:0.0681349 27:-0.982073 28:-0.858598 29:-0.709561 30:-0.772622 
0 0 2632.508737568779 3649.037 1:-0.763854 2:-0.737578 3:-0.722511 4:-0.84218 5:-0.782141 6:-0.851532 7:-0.189831 8:-0.182449 9:-0.0476372 10:-0.908679 11:-0.52308 12:-0.894581 13:-0.753202 14:-0.919792 15:-0.833148 16:-0.84299 17:-0.859638 18:-0.874176 19:-0.696467 20:-0.779546 21:-0.888089 22:0.636621 23:0.737098 24:-0.0611645 25:-0.16248 26:0.117137 27:-0.971196 28:-0.871107 29:-0.72866 30:-0.783704 
3649.037 0 0 3649.037 1:-0.803932 2:-0.82078 3:-0.904097 4:-0.846025 5:-0.848607 6:-0.938335 7:-0.340221 8:0.334364 9:-0.0477183 10:-0.692162 11:-0.738449 12:-0.844805 13:-0.847171 14:-0.94564 15:-0.895775 16:-0.93981 17:-0.882204 18:-0.930598 19:-0.854365 20:-0.853792 21:-0.876203 22:0.773392 23:0.52159 24:-0.505119 25:-0.0484369 26:-0.367444 27:-0.47517 28:-0.911676 29:-0.770118 30:-0.852967 
3649.037 0 0 0 1:-0.784517 2:-0.686867 3:-0.760459 4:-0.833427 5:-0.766769 6:-0.834936 7:-0.155737 8:-0.114972 9:0.355544 10:-0.602856 11:-0.659718 12:-0.437209 13:-0.791825 14:-0.888616 15:-0.812121 16:-0.640526 17:-0.753734 18:-0.483932 19:-0.378761 20:-0.768251 21:-0.581908 22:-0.088833 23:0.434037 24:-0.365737 25:-0.252669 26:-0.369497 27:-0.739634 28:-0.596839 29:-0.602189 30:-0.541546 
0 0 0 1454.163607504274 1:-0.73815 2:-0.830636 3:-0.639098 4:-0.777755 5:-0.865748 6:-0.738516 7:0.0440389 8:-0.0136651 9:0.446165 10:-0.625392 11:-0.731446 12:-0.457428 13:-0.668303 14:-0.858525 15:-0.744637 16:-0.766151 17:-0.912636 18:-0.623783 19:-0.539868 20:-0.886684 21:-0.869068 22:0.742698 23:-0.451041 24:0.36522 25:0.0226025 26:-0.488543 27:-0.192046 28:-0.709758 29:-0.666473 30:-0.67389 
3649.037 0 0 0 1:-0.589806 2:-0.738747 3:-0.321869 4:-0.449466 5:-0.813728 6:-0.457488 7:0.860351 8:0.0270685 9:-0.682692 10:0.667179 11:-0.817948 12:0.268666 13:-0.345421 14:-0.446997 15:-0.445378 16:-0.800117 17:-0.811508 18:-0.871035 19:-0.674221 20:-0.767526 21:-0.86927 22:0.447545 23:0.517042 24:-0.222485 25:-0.447773 26:0.0261324 27:-0.74539 28:-0.827579 29:-0.716781 30:-0.769827 
3649.037 2597.554984400691 3649.037 3649.037 1:-0.920684 2:-0.879005 3:-0.901465 4:-0.916468 5:-0.902015 6:-0.930482 7:-0.570337 8:0.280051 9:0.102346 10:-0.0592908 11:-0.678896 12:-0.837666 13:-0.935344 14:-0.966596 15:-0.931765 16:-0.784466 17:-0.883515 18:-0.861195 19:-0.633786 20:-0.819076 21:-0.863954 22:-0.23134 23:0.618574 24:-0.279756 25:-0.400137 26:0.0255465 27:-0.807492 28:-0.811689 29:-0.793409 30:-0.776824 
0 3649.037 739.2494882876005 3649.037 1:-0.639124 2:-0.812545 3:-0.742955 4:-0.672949 5:-0.843241 6:-0.825086 7:-0.389454 8:0.415254 9:-0.291804 10:-0.63138 11:-0.572118 12:-0.362583 13:-0.694469 14:-0.833692 15:-0.754588 16:-0.649351 17:-0.796339 18:-0.531875 19:-0.459296 20:-0.795563 21:-0.806746 22:0.34267 23:0.491421 24:0.660855 25:-0.368894 26:-0.137789 27:0.158513 28:-0.635549 29:-0.598463 30:-0.563537 
0 1174.16176162526 688.8014300235444 0 1:-0.525704 2:-0.706447 3:-0.449312 4:-0.151637 5:-0.671873 6:-0.421677 7:0.974991 8:-0.806925 9:-0.756824 10:0.939209 11:0.529695 12:0.456152 13:-0.475135 14:-0.210328 15:-0.287772 16:-0.728272 17:-0.812444 18:-0.816079 19:-0.468753 20:-0.62845 21:-0.705498 22:-0.310927 23:-1 24:-0.65676 25:-0.32932 26:0.997711 27:-0.0827561 28:-0.754638 29:-0.383952 30:-0.586681 
1116.726206996021 1983.983170001422 0 0 1:-0.920212 2:-0.908166 3:-0.775583 4:-0.88908 5:-0.880744 6:-0.80514 7:-0.783756 8:-0.119027 9:0.208865 10:0.416943 11:-0.318138 12:-0.45086 13:-0.807219 14:-0.876609 15:-0.838347 16:-0.849817 17:-0.934173 18:-0.935518 19:-0.663567 20:-0.941145 21:-0.901676 22:-0.349023 23:-0.186144 24:-0.236474 25:0.233758 26:-0.834301 27:-0.327269 28:-0.878037 29:-0.810178 30:-0.835717 
747.9618008262424 0 0 0 1:-0.824659 2:-0.752976 3:-0.608595 4:-0.803376 5:-0.702064 6:-0.540843 7:0.650162 8:-0.558335 9:-0.842523 10:0.132884 11:0.145479 12:0.639936 13:-0.637256 14:-0.578299 15:-0.594222 16:-0.485514 17:-0.397818 18:-0.887784 19:-0.0872262 20:-0.272529 21:-0.8174 22:-0.275634 23:-0.126963 24:-0.564802 25:-0.383879 26:-0.594529 27:-0.288649 28:-0.474454 29:-0.3397 30:-0.294462 
0 0 1918.635863853845 1897.598057755478 1:-0.74761 2:-0.893604 3:-0.646211 4:-0.659477 5:-0.835253 6:-0.589156 7:0.950081 8:-0.716769 9:-0.544986 10:0.88367 11:0.446493 12:0.290696 13:-0.675542 14:-0.578005 15:-0.604234 16:-0.848901 17:-0.831453 18:-0.94274 19:-0.729049 20:-0.742903 21:-0.936969 22:0.313617 23:-0.703477 24:-0.541201 25:-0.25527 26:0.358617 27:-0.175492 28:-0.865867 29:-0.740305 30:-0.788934 
0 0 0 300.9815326238971 1:-0.738319 2:-0.834366 3:-0.718614 4:-0.65192 5:-0.814444 6:-0.75953 7:-0.731307 8:-0.68222 9:0.366209 10:0.182966 11:0.294618 12:-0.246925 13:-0.749235 14:-0.806965 15:-0.70578 16:-0.679404 17:-0.669835 18:-0.907987 19:-0.399785 20:-0.598859 21:-0.975673 22:0.442613 23:-0.0608557 24:-0.0699731 25:-0.00270206 26:-0.521597 27:-0.820799 28:-0.705025 29:-0.55584 30:-0.578941 
602.652003005969 0 0 0 1:-0.826864 2:-0.748511 3:-0.341122 4:-0.823052 5:-0.791539 6:-0.472773 7:-0.271362 8:-0.401453 9:-0.0415315 10:-0.489936 11:-0.275035 12:-0.375205 13:-0.365017 14:-0.695561 15:-0.560537 16:-0.38678 17:-0.487991 18:-0.759761 19:0.0348478 20:-0.505605 21:-0.761695 22:-0.402073 23:-0.118402 24:-0.359098 25:-0.416007 26:-0.703225 27:-0.792897 28:-0.407936 29:-0.269594 30:-0.299875 
210.5016490508418 0 0 0 1:-0.399178 2:-0.538982 3:-0.23677 4:0.112619 5:-0.578263 6:-0.217549 7:0.990289 8:-0.672288 9:-0.525212 10:0.974132 11:0.142785 12:0.18495 13:-0.258806 14:0.0123111 15:-0.0436257 16:-0.508908 17:-0.431621 18:-0.771171 19:-0.0275246 20:-0.376676 21:-0.744423 22:-0.157347 23:0.255639 24:-0.472239 25:-0.0590404 26:-0.614046 27:-0.404537 28:-0.504966 29:-0.299639 30:-0.29951 
0 0 581.0875150664247 0 1:-0.678803 2:-0.827791 3:-0.687688 4:-0.469188 5:-0.862586 6:-0.716638 7:0.94847 8:-0.387983 9:-0.779896 10:0.87572 11:-0.486913 12:0.543724 13:-0.717758 14:-0.595932 15:-0.615878 16:-0.824675 17:-0.863758 18:-0.601172 19:-0.724861 20:-0.867049 21:-0.931818 22:0.256183 23:0.105762 24:-0.117202 25:-0.507843 26:-0.669665 27:-0.929393 28:-0.691501 29:-0.839758 30:-0.742101 
0 0 0 3001.947321623498 1:-0.667671 2:-0.68471 3:-0.803344 4:-0.681193 5:-0.797701 6:-0.851288 7:-0.531442 8:0.156351 9:-0.203301 10:-0.245782 11:-0.90745 12:-0.704201 13:-0.720919 14:-0.816406 15:-0.765487 16:-0.472028 17:-0.636968 18:-0.0940019 19:-0.15484 20:-0.673962 21:-0.15994 22:0.295007 23:-0.500482 24:-0.371395 25:-0.633886 26:-0.0615515 27:-0.702794 28:-0.282001 29:-0.390241 30:-0.235818 
0 0 62.04327256248628 0 1:0.284284 2:-0.203373 3:-0.223844 4:0.577977 5:-0.390787 6:-0.158554 7:0.787412 8:-0.350965 9:-0.771345 10:0.500159 11:-0.638796 12:0.518601 13:0.161112 14:0.269411 15:0.260256 16:-0.375624 17:-0.450817 18:0.011096 19:-0.00103943 20:-0.405303 21:0.167394 22:-0.0769757 23:-0.424505 24:-0.387302 25:-0.535608 26:-0.385065 27:-0.723479 28:-0.197143 29:-0.103762 30:0.0364694 
3649.037 0 0 476.3579291292382 1:-0.850979 2:-0.788343 3:-0.739865 4:-0.850108 5:-0.813357 6:-0.804599 7:0.187217 8:-0.311361 9:0.246454 10:-0.409086 11:-0.348827 12:-0.533601 13:-0.770865 14:-0.91228 15:-0.812876 16:-0.789794 17:-0.83267 18:-0.785722 19:-0.565216 20:-0.81281 21:-0.91337 22:0.835672 23:0.0164727 24:-0.575688 25:0.652453 26:-0.707176 27:-0.0291977 28:-0.817098 29:-0.701875 30:-0.728487 
3649.037 0 0 0 1:-0.80215 2:-0.8292 3:-0.859134 4:-0.808888 5:-0.857694 6:-0.902336 7:-0.65438 8:0.351007 9:-0.345166 10:0.0532289 11:-0.741329 12:-0.581234 13:-0.84552 14:-0.890434 15:-0.864964 16:-0.654262 17:-0.776769 18:-0.468544 19:-0.429428 20:-0.777268 21:-0.522722 22:-0.032202 23:-0.109697 24:-0.355855 25:-0.53481 26:-0.877136 27:-0.744367 28:-0.584414 29:-0.722837 30:-0.547786 
582.9111502935576 0 0 0 1:-0.54297 2:-0.635044 3:-0.354875 4:-0.395058 5:-0.739393 6:-0.371214 7:0.722282 8:-0.0455086 9:-0.741011 10:0.358791 11:-0.799092 12:0.422944 13:-0.379015 14:-0.378145 15:-0.364671 16:-0.538961 17:-0.532375 18:-0.580655 19:-0.234598 20:-0.433462 21:-0.567556 22:0.327908 23:-0.379031 24:-0.372496 25:-0.515587 26:-0.287531 27:-0.757395 28:-0.562439 29:-0.526261 30:-0.374169 
0 2591.503446352022 1530.303509196365 54.43208698984835 1:-0.833467 2:-0.7613 3:-0.762681 4:-0.896493 5:-0.860486 6:-0.821558 7:-0.0732785 8:-0.4555 9:0.136296 10:-0.82481 11:-0.430955 12:-0.443043 13:-0.794088 14:-0.890943 15:-0.839207 16:-0.72669 17:-0.783323 18:-0.797969 19:-0.528253 20:-0.603929 21:-0.780295 22:-0.439162 23:-0.875917 24:-0.0807789 25:-0.0139891 26:0.691863 27:-0.853941 28:-0.753032 29:-0.477815 30:-0.61318 
0 1553.495952183418 1249.867968465281 1356.737318063015 1:0.0783583 2:-0.254295 3:0.0048656 4:0.116685 5:-0.4148 6:-0.388122 7:0.468535 8:-0.527412 9:0.133654 10:-0.00788822 11:-0.0724507 12:-0.839818 13:-0.0128649 14:-0.248193 15:-0.110487 16:-0.26024 17:-0.303713 18:-0.461635 19:0.126914 20:-0.373656 21:-0.667352 22:0.140074 23:0.176762 24:0.315276 25:-0.48122 26:-0.854407 27:-0.613052 28:-0.279466 29:-0.121929 30:-0.153752 
0 0 0 1287.684272292973 1:-0.0104774 2:-0.294406 3:-0.182934 4:0.0494068 5:-0.392571 6:-0.470918 7:0.385608 8:-0.640245 9:0.202177 10:-0.0877696 11:0.195167 12:-0.630377 13:-0.111998 14:-0.320632 15:-0.184272 16:-0.339244 17:-0.262887 18:-0.0915943 19:0.124917 20:-0.377551 21:-0.532618 22:0.283704 23:0.0648001 24:0.109745 25:-0.526321 26:-0.890425 27:-0.399903 28:-0.280057 29:-0.273087 30:-0.0189988 
168.2804700232346 0 0 0 1:0.264215 2:0.28678 3:0.406161 4:0.156981 5:0.0246756 6:0.402249 7:0.432384 8:-0.437065 9:-0.862159 10:-0.187822 11:-0.511835 12:0.687673 13:0.39558 14:0.415507 15:0.439479 16:-0.180902 17:-0.145747 18:0.592275 19:0.306733 20:-0.154837 21:0.456955 22:-0.124418 23:0.271661 24:-0.519566 25:-0.557023 26:-0.657276 27:-0.443207 28:0.272113 29:0.166414 30:0.354135 
3649.037 0 342.0292051045023 448.4613121488985 1:0.0383048 2:0.0832475 3:-0.276946 4:-0.13003 5:-0.0480953 6:-0.396819 7:0.147524 8:-0.829117 9:0.518922 10:-0.6367 11:0.581566 12:-0.35017 13:-0.0667989 14:-0.327341 15:-0.144911 16:-0.165168 17:-0.137881 18:0.271119 19:0.312567 20:-0.429501 21:0.378307 22:-0.0258734 23:0.316088 24:-0.449867 25:-0.513683 26:-0.685053 27:-0.52574 28:0.0128048 29:0.0406428 30:0.254944 
-3649.037 0 1372.382799497723 3649.037 1:-0.942537 2:-0.985893 3:-0.8947 4:-0.922693 5:-0.962108 6:-0.953041 7:-0.776729 8:0.433722 9:-0.198702 10:0.398449 11:-0.427841 12:-0.849778 13:-0.928459 14:-0.963935 15:-0.954488 16:-0.785631 17:-0.827988 18:-0.762692 19:-0.661041 20:-0.841077 21:-0.844707 22:-0.263556 23:-0.313191 24:-0.344484 25:-0.521991 26:-0.681027 27:-0.543688 28:-0.812872 29:-0.734249 30:-0.747083 
-3649.037 0 0 0 1:-0.859057 2:-0.785818 3:-0.907509 4:-0.859966 5:-0.84853 6:-0.942925 7:-0.492047 8:0.300487 9:0.288909 10:-0.185475 11:-0.834522 12:-0.752983 13:-0.898247 14:-0.921117 15:-0.902532 16:-0.578172 17:-0.55953 18:-0.501413 19:-0.331369 20:-0.750468 21:-0.59685 22:-0.334494 23:0.406513 24:-0.262082 25:-0.333158 26:-0.586205 27:-0.749973 28:-0.602248 29:-0.549552 30:-0.46005 
-1349.639318729176 465.2791119476011 2278.890273942818 1454.44766728154 1:-0.406522 2:-0.0218372 3:-0.317996 4:-0.531447 5:-0.422763 6:-0.437696 7:0.0727266 8:0.0850358 9:0.584056 10:-0.783337 11:-0.98663 12:-0.102494 13:-0.341479 14:-0.542573 15:-0.393899 16:-0.111722 17:0.263636 18:-0.495551 19:0.0929553 20:0.160472 21:-0.637693 22:-0.159196 23:-0.179073 24:0.0933717 25:-0.904227 26:-0.941055 27:-0.963135 28:0.122596 29:0.134273 30:0.401682 
-0 0 687.0613938972286 3110.238935470029 1:-0.748382 2:-0.509933 3:-0.953026 4:-0.778001 5:-0.581908 6:-0.967097 7:-0.355803 8:0.465282 9:-0.114799 10:-0.74402 11:-0.507405 12:-0.770797 13:-0.739719 14:-0.831615 15:-0.781025 16:-0.286464 17:-0.13348 18:-0.356956 19:-0.198045 20:-0.454226 21:-0.499799 22:0.204001 23:0.145278 24:-0.217362 25:-0.178312 26:-0.730138 27:-0.87029 28:-0.235853 29:-0.439385 30:-0.132718 
-0 211.0799271559899 0 0 1:-0.472696 2:0.0860766 3:0.00270428 4:-0.565304 5:-0.154542 6:0.147321 7:0.249179 8:-0.320913 9:0.822264 10:-0.646448 11:-0.371504 12:0.496501 13:-0.0150648 14:-0.120562 15:0.0563803 16:-0.485681 17:-0.0661548 18:-0.637391 19:-0.377973 20:-0.158636 21:-0.758954 22:-0.122959 23:-0.140221 24:0.0566464 25:-0.908202 26:-0.873843 27:-0.835624 28:-0.175083 29:-0.189938 30:-0.117801 
-86.12374521048949 0 0 0 1:-0.411708 2:-0.3691 3:-0.484441 4:-0.432819 5:-0.573184 6:-0.643375 7:0.182881 8:0.248364 9:0.0405268 10:-0.431739 11:-0.902714 12:-0.450303 13:-0.483757 14:-0.696107 15:-0.51284 16:-0.237346 17:-0.477972 18:-0.269025 19:0.269064 20:-0.70736 21:-0.347618 22:-0.62028 23:-0.0357306 24:-0.387806 25:0.220426 26:-0.874056 27:-0.633159 28:-0.256223 29:-0.119134 30:-0.0392274 
-1587.226677109954 0 0 0 1:-0.356239 2:-0.243786 3:-0.28961 4:-0.189488 5:-0.453593 6:-0.40543 7:0.826528 8:-0.186305 9:0.341887 10:0.593035 11:-0.556081 12:-0.358545 13:-0.312587 14:-0.453747 15:-0.274519 16:-0.30636 17:-0.374128 18:-0.157542 19:0.241228 20:-0.404763 21:-0.149039 22:-0.00319934 23:0.245467 24:-0.32973 25:-0.231324 26:-0.759538 27:-0.708092 28:-0.32629 29:-0.0725515 30:-0.0377916 
-2119.539875391849 3649.037 2309.320582877694 0 1:-0.796498 2:-0.690984 3:-0.82772 4:-0.748552 5:-0.794917 6:-0.878403 7:0.586958 8:0.196877 9:-0.106027 10:0.0790356 11:-0.929712 12:-0.614666 13:-0.840283 14:-0.822911 15:-0.805203 16:-0.837912 17:-0.686315 18:-0.761436 19:-0.771151 20:-0.615864 21:-0.748372 22:-0.0359673 23:-0.315747 24:-0.352021 25:-0.742748 26:-0.453317 27:-0.627027 28:-0.73486 29:-0.708629 30:-0.688108 
-3649.037 3649.037 3649.037 3649.037 1:-0.716222 2:-0.768259 3:-0.856935 4:-0.714255 5:-0.849822 6:-0.888635 7:-0.0346053 8:0.234132 9:0.614328 10:-0.628156 11:-0.871182 12:-0.0920958 13:-0.765904 14:-0.897916 15:-0.806687 16:-0.85989 17:-0.800459 18:-0.839213 19:-0.770561 20:-0.732162 21:-0.866607 22:0.258951 23:0.357561 24:-0.0313554 25:-0.368503 26:-0.124616 27:-0.607008 28:-0.83789 29:-0.716315 30:-0.769322 
-3649.037 0 0 0 1:-0.78578 2:-0.832696 3:-0.739399 4:-0.771311 5:-0.859447 6:-0.80461 7:0.378022 8:0.316181 9:-0.153217 10:-0.375661 11:-0.777973 12:-0.12347 13:-0.77039 14:-0.818947 15:-0.790323 16:-0.513487 17:-0.644646 18:-0.767612 19:-0.105494 20:-0.569012 21:-0.822312 22:-0.589024 23:-0.38909 24:-0.268174 25:0.0176059 26:-0.53941 27:-0.831581 28:-0.536576 29:-0.496215 30:-0.418984 
-3649.037 0 0 3649.037 1:-0.721554 2:-0.733259 3:-0.80528 4:-0.681782 5:-0.817179 6:-0.853126 7:0.261492 8:0.22103 9:0.378866 10:-0.265442 11:-0.896382 12:-0.476137 13:-0.770844 14:-0.884704 15:-0.771286 16:-0.748335 17:-0.749801 18:-0.797132 19:-0.552318 20:-0.688128 21:-0.76352 22:0.463644 23:0.188109 24:-0.716688 25:-0.189332 26:-0.399288 27:0.25326 28:-0.775007 29:-0.492489 30:-0.647797 
-3649.037 0 0 0 1:-0.547612 2:-0.670418 3:-0.674885 4:-0.587488 5:-0.706662 6:-0.738115 7:-0.104252 8:-0.0867914 9:-0.53604 10:-0.690453 11:-0.554935 12:0.023103 13:-0.609678 14:-0.709759 15:-0.648476 16:-0.591492 17:-0.769278 18:-0.627761 19:-0.344335 20:-0.734101 21:-0.581225 22:-0.312237 23:0.0902971 24:-0.375965 25:-0.359808 26:-0.662527 27:-0.563857 28:-0.615771 29:-0.591243 30:-0.537925 
-0 1965.956250789811 379.6404211133857 3271.105762877974 1:-0.693374 2:-0.584787 3:-0.907786 4:-0.670083 5:-0.617774 6:-0.930916 7:0.965877 8:0.687936 9:-0.100638 10:0.91648 11:0.0998681 12:-0.632046 13:-0.744734 14:-0.736757 15:-0.746857 16:-0.653097 17:-0.768341 18:-0.577096 19:-0.428862 20:-0.678698 21:-0.402493 22:0.34252 23:-0.369129 24:0.324611 25:-0.638953 26:-0.141275 27:-0.367485 28:-0.672062 29:-0.438919 30:-0.445703 
-3649.037 0 0 3649.037 1:-0.8833 2:-0.964033 3:-0.960249 4:-0.922728 5:-0.96102 6:-0.988007 7:-0.166131 8:0.311222 9:-0.0629158 10:-0.706457 11:-0.570061 12:-0.803952 13:-0.920709 14:-0.963101 15:-0.961048 16:-0.806693 17:-0.729201 18:-0.688894 19:-0.729702 20:-0.702358 21:-0.698154 22:0.575758 23:0.279647 24:0.0582384 25:0.248401 26:-0.587687 27:-0.984471 28:-0.762329 29:-0.734948 30:-0.701815 
-0 1552.696395042081 0 0 1:-0.78874 2:-0.856823 3:-0.664465 4:-0.797099 5:-0.870107 6:-0.731197 7:0.417777 8:0.234859 9:0.80168 10:-0.244819 11:-0.858194 12:0.301225 13:-0.694121 14:-0.764142 15:-0.736079 16:-0.841076 17:-0.86947 18:-0.752224 19:-0.732546 20:-0.829646 21:-0.779689 22:0.207558 23:-0.10448 24:-0.153332 25:-0.529907 26:-0.529936 27:-0.979566 28:-0.813464 29:-0.835798 30:-0.793172 
-3145.448022877559 3649.037 2371.886093515913 3649.037 1:-0.839557 2:-0.954322 3:-0.935638 4:-0.850624 5:-0.931487 6:-0.964926 7:-0.331818 8:0.625184 9:-0.257634 10:-0.622049 11:0.0358026 12:-0.624157 13:-0.880179 14:-0.927414 15:-0.918066 16:-0.820679 17:-0.842783 18:-0.620643 19:-0.769706 20:-0.819572 21:-0.686208 22:-0.260612 23:0.19418 24:-0.100669 25:-0.270868 26:-0.759827 27:-0.98541 28:-0.707222 29:-0.841621 30:-0.725104 
-3649.037 1728.737550770075 1807.143973440397 3649.037 1:-0.777447 2:-0.839983 3:-0.815823 4:-0.795817 5:-0.835576 6:-0.853304 7:-0.266838 8:-0.424178 9:-0.474241 10:-0.784276 11:-0.152927 12:0.00639329 13:-0.822631 14:-0.855671 15:-0.831961 16:-0.858059 17:-0.857671 18:-0.754946 19:-0.779199 20:-0.835646 21:-0.849389 22:0.229249 23:0.360898 24:-0.868919 25:-0.499447 26:-0.296376 27:0.647788 28:-0.815662 29:-0.779201 30:-0.811058 
-2017.778530865884 0 0 0 1:-0.759641 2:-0.807471 3:-0.849851 4:-0.793549 5:-0.775476 6:-0.906921 7:-0.270738 8:0.614448 9:0.257723 10:-0.797223 11:-0.236747 12:-0.45802 13:-0.806133 14:-0.845264 15:-0.82732 16:-0.589411 17:-0.494265 18:-0.460902 19:-0.251145 20:-0.390359 21:-0.530278 22:-0.316315 23:0.446706 24:-0.393763 25:-0.236438 26:-0.532239 27:-0.680937 28:-0.56151 29:-0.400023 30:-0.342537 
-3649.037 3649.037 0 3649.037 1:-0.500587 2:-0.589083 3:-0.621072 4:-0.595825 5:-0.630551 6:-0.758928 7:0.0428681 8:-0.166911 9:0.327193 10:-0.829515 11:-0.389357 12:-0.792721 13:-0.566107 14:-0.755014 15:-0.655441 16:-0.58708 17:-0.71038 18:-0.445933 19:-0.386858 20:-0.683658 21:-0.490416 22:-0.126943 23:-0.327369 24:-0.30006 25:-0.676614 26:-0.519992 27:-0.79319 28:-0.566158 29:-0.589146 30:-0.495524 
-0 2508.206385550977 1886.86270645555 3649.037 1:-1 2:-0.89259 3:-0.996818 4:-1 5:-1 6:-0.994812 7:-0.177906 8:0.588268 9:0.184426 10:-0.832547 11:0.000620859 12:-0.905177 13:-0.975299 14:-1 15:-1 16:-0.785465 17:-0.989232 18:-0.47964 19:-0.954366 20:-0.987506 21:-0.976913 22:-0.295796 23:0.445476 24:-0.149677 25:-0.555708 26:-0.295618 27:-0.755318 28:-0.593374 29:-0.893327 30:-0.724209 
-2394.600948063738 0 0 0 1:-0.679845 2:-0.613805 3:-0.716221 4:-0.690559 5:-0.662331 6:-0.802976 7:0.107324 8:-0.108847 9:0.438515 10:-0.705781 11:-0.477067 12:-0.583923 13:-0.732198 14:-0.779832 15:-0.718861 16:-0.594322 17:-0.620301 18:-0.478802 19:-0.377219 20:-0.539538 21:-0.533929 22:-0.12395 23:-0.482518 24:-0.36326 25:-0.660312 26:-0.338357 27:-0.745495 28:-0.592697 29:-0.523233 30:-0.450914 
-0 0 0 405.7384035093477 1:-0.481154 2:-0.317634 3:-0.510105 4:-0.603572 5:-0.549676 6:-0.67744 7:0.112753 8:-0.0309433 9:0.35817 10:-0.78782 11:-0.553863 12:-0.659805 13:-0.537011 14:-0.707944 15:-0.584956 16:-0.616217 17:-0.700829 18:-0.496284 19:-0.439824 20:-0.660286 21:-0.880237 22:0.496433 23:0.411721 24:-0.125217 25:-0.397246 26:-0.386064 27:-0.900338 28:-0.606812 29:-0.580529 30:-0.52325 
-0 0 3100.719122333584 806.0736358712591 1:-0.737811 2:-0.708885 3:-0.685799 4:-0.767007 5:-0.676554 6:-0.803773 7:-0.125563 8:0.600604 9:0.123637 10:-0.657863 11:-0.226177 12:-0.747147 13:-0.715835 14:-0.850688 15:-0.751358 16:-0.571262 17:-0.600824 18:-0.693185 19:-0.466078 20:-0.537777 21:-0.711274 22:0.417804 23:-0.488275 24:-0.292235 25:-0.49331 26:-0.229723 27:-0.789513 28:-0.595233 29:-0.629673 30:-0.535588 
-0 1843.394997899621 3649.037 0 1:-0.891658 2:-0.861025 3:-0.838224 4:-0.893292 5:-0.882161 6:-0.927055 7:0.243395 8:0.314486 9:-0.0464829 10:-0.422771 11:-0.672367 12:-0.888174 13:-0.870976 14:-0.927995 15:-0.906908 16:-0.897186 17:-0.928274 18:-0.951429 19:-0.83388 20:-0.911647 21:-0.939513 22:-0.414465 23:0.250035 24:-0.0852704 25:-0.129074 26:-0.695952 27:-0.882549 28:-0.926129 29:-0.932223 30:-0.915774 
-2.212952739592591 0 0 0 1:-0.878857 2:-0.88812 3:-0.859262 4:-0.884706 5:-0.897318 6:-0.859355 7:0.230966 8:0.213862 9:-0.845271 10:-0.604462 11:-0.672927 12:0.61248 13:-0.892388 14:-0.895151 15:-0.87929 16:-0.887196 17:-0.9323 18:-0.956453 19:-0.75564 20:-0.908319 21:-0.934267 22:-0.844146 23:0.265802 24:-0.363134 25:0.625495 26:-0.529113 27:-0.62649 28:-0.915987 29:-0.855596 30:-0.879107 
-3649.037 0 3649.037 3649.037 1:-0.932012 2:-0.872155 3:-0.93108 4:-0.941779 5:-0.893758 6:-0.960954 7:0.0401198 8:0.156544 9:0.0515355 10:-0.728457 11:-0.618937 12:-0.972814 13:-0.962719 14:-0.972822 15:-0.955951 16:-0.949134 17:-0.964699 18:-0.938867 19:-0.916278 20:-0.944676 21:-0.92896 22:0.499606 23:-0.039709 24:-0.068699 25:-0.272063 26:-0.236102 27:-0.872499 28:-0.964163 29:-0.937347 30:-0.957094 
-3649.037 0 0 3649.037 1:-0.933846 2:-0.866838 3:-0.751265 4:-0.946624 5:-0.880492 6:-0.79761 7:-0.204823 8:-0.354688 9:-0.366855 10:-0.930588 11:-0.346669 12:-0.109926 13:-0.782468 14:-0.879183 15:-0.847599 16:-0.940393 17:-0.922936 18:-0.950696 19:-0.911538 20:-0.905287 21:-0.962631 22:0.323171 23:0.338423 24:-0.370531 25:-0.559756 26:-0.520353 27:-0.658437 28:-0.948443 29:-0.946431 30:-0.945605 
-2682.272619478833 0 0 0 1:-0.949567 2:-0.9499 3:-0.900951 4:-0.94715 5:-0.92861 6:-0.934356 7:-0.608352 8:0.581411 9:-0.115407 10:-0.0351876 11:-0.169409 12:-0.81222 13:-0.934821 14:-0.951863 15:-0.952741 16:-0.906344 17:-0.921906 18:-0.959489 19:-0.846793 20:-0.901231 21:-0.944218 22:-0.490728 23:0.0608096 24:-0.416506 25:-0.00329328 26:-0.638393 27:-0.659602 28:-0.935427 29:-0.921742 30:-0.920277 
-1863.856884654734 0 3606.978479592738 3044.972193866186 1:-0.967773 2:-0.967107 3:-0.846021 4:-0.955784 5:-0.951395 6:-0.922109 7:0.43201 8:-0.290791 9:-0.0393009 10:-0.210664 11:-0.226302 12:-0.698061 13:-0.878911 14:-0.96615 15:-0.939056 16:-0.967199 17:-0.96011 18:-0.950173 19:-0.954599 20:-0.943834 21:-0.958704 22:0.267826 23:0.480352 24:-0.329596 25:-0.520552 26:-0.123671 27:-0.599271 28:-0.973292 29:-0.996041 30:-0.973834 
-3649.037 0 0 0 1:-0.982326 2:-0.898465 3:-0.782264 4:-0.987142 5:-0.908417 6:-0.867987 7:-0.0185621 8:0.249344 9:0.413033 10:-0.923286 11:-0.596248 12:-0.553571 13:-0.814019 14:-0.922551 15:-0.892783 16:-0.953963 17:-0.987453 18:-0.9463 19:-0.90355 20:-0.966597 21:-0.941911 22:0.868347 23:0.522608 24:-0.31225 25:0.650085 26:0.127253 27:-0.606152 28:-0.970164 29:-0.912659 30:-0.965152 
-227.3854527740818 0 0 0 1:-0.884357 2:-0.720064 3:-0.912647 4:-0.882908 5:-0.797213 6:-0.970679 7:-0.497625 8:0.240446 9:0.366448 10:-0.386939 11:-0.854944 12:-0.698074 13:-0.869085 14:-0.928471 15:-0.890368 16:-0.8002 17:-0.726111 18:-0.435465 19:-0.674193 20:-0.701264 21:-0.472504 22:-0.384555 23:0.459256 24:-0.160126 25:-0.189884 26:-0.46898 27:-0.96772 28:-0.557706 29:-0.715384 30:-0.596934 
-3649.037 0 0 0 1:-0.913099 2:-0.834335 3:-0.932012 4:-0.879033 5:-0.857493 6:-0.958167 7:-0.712995 8:0.35673 9:0.204355 10:0.128677 11:-0.707119 12:-0.907234 13:-0.939435 14:-0.926805 15:-0.911867 16:-0.709374 17:-0.741093 18:-0.65414 19:-0.491799 20:-0.745833 21:-0.64959 22:-0.449613 23:0.220336 24:-0.551186 25:-0.128234 26:-0.675847 27:-0.297345 28:-0.734269 29:-0.632468 30:-0.618078 
-0 580.0944725003443 0 0 1:-0.957809 2:-0.87681 3:-0.670009 4:-0.970544 5:-0.867713 6:-0.618174 7:-0.1115 8:-0.471109 9:-0.909646 10:-0.982835 11:-0.0818221 12:0.794132 13:-0.699764 14:-0.746514 15:-0.705429 16:-0.886447 17:-0.974718 18:-0.974458 19:-0.797611 20:-0.961113 21:-0.963695 22:-0.540905 23:0.263614 24:-0.0847206 25:-0.26841 26:-0.332819 27:-0.906416 28:-0.915226 29:-0.953651 30:-0.918751 
-0 482.0982110568946 3649.037 3649.037 1:-0.920084 2:-0.898803 3:-0.879729 4:-0.924249 5:-0.873328 6:-0.920568 7:-0.411385 8:0.577014 9:-0.0104606 10:-0.504817 11:-0.217375 12:-0.919534 13:-0.913221 14:-0.939505 15:-0.92303 16:-0.913503 17:-0.971628 18:-0.897624 19:-0.850887 20:-0.953163 21:-0.891655 22:0.405285 23:0.907739 24:-0.319679 25:-0.465302 26:0.790888 27:-0.52573 28:-0.930863 29:-0.873064 30:-0.918026 
-0 3649.037 3649.037 1167.155370643641 1:-0.833992 2:-0.825854 3:-0.790662 4:-0.843981 5:-0.832263 6:-0.888126 7:0.306455 8:0.377935 9:0.0290319 10:-0.431934 11:-0.51193 12:-0.956929 13:-0.822567 14:-0.89372 15:-0.865022 16:-0.811688 17:-0.82237 18:-0.881399 19:-0.746469 20:-0.802916 21:-0.871907 22:0.0170725 23:-0.140429 24:-0.16653 25:-0.566444 26:-0.766063 27:-0.837207 28:-0.839327 29:-0.855363 30:-0.803736 
-0 1054.129721666462 1541.313709922697 666.5979033182016 1:-0.402415 2:-0.123547 3:-0.230096 4:-0.461259 5:0.322753 6:-0.277969 7:-0.282081 8:-0.969779 9:-0.356909 10:-0.601659 11:0.932268 12:-0.0391898 13:-0.252013 14:-0.139742 15:-0.0902137 16:-0.874043 17:-0.325343 18:-0.722496 19:-0.813663 20:-0.2477 21:-0.730979 22:0.334722 23:0.441913 24:0.0731527 25:-0.615933 26:-0.557212 27:-0.93013 28:-0.409035 29:-0.564225 30:-0.470878 
-0 149.82973704578 0 0 1:-0.837692 2:-0.847434 3:-0.590265 4:-0.837489 5:-0.762336 6:-0.552932 7:-0.280608 8:0.932443 9:-0.760147 10:-0.79353 11:0.772036 12:0.496331 13:-0.618599 14:-0.66491 15:-0.624313 16:-0.825092 17:-0.733976 18:-0.911546 19:-0.603688 20:-0.626931 21:-0.892151 22:-0.910321 23:0.11071 24:-0.283145 25:0.708102 26:-0.393005 27:-0.325163 28:-0.777881 29:-0.761267 30:-0.675141 
-2872.713615270465 0 0 0 1:-0.537257 2:-0.405073 3:-0.0821572 4:-0.500865 5:-0.243012 6:-0.0960658 7:-0.413854 8:-0.957094 9:-0.618014 10:-0.0923163 11:0.894059 12:0.295644 13:-0.101438 14:-0.0860683 15:-0.122922 16:-0.681485 17:-0.714032 18:-0.868209 19:-0.473986 20:-0.657233 21:-0.816023 22:0.184705 23:0.253463 24:-0.169477 25:-0.425941 26:-0.498871 27:-0.377435 28:-0.707138 29:-0.548154 30:-0.632615 
-3649.037 0 0 0 1:-0.656185 2:-0.863511 3:-0.68309 4:-0.626938 5:-0.892714 6:-0.666495 7:0.478051 8:0.342276 9:-0.149257 10:-0.0711221 11:-0.604821 12:-0.0593141 13:-0.710276 14:-0.721957 15:-0.657269 16:-0.825175 17:-0.696428 18:-0.841306 19:-0.649837 20:-0.655574 21:-0.773791 22:0.844443 23:0.442541 24:-0.207441 25:0.71626 26:-0.401344 27:-0.51226 28:-0.743988 29:-0.557936 30:-0.689835 
-3649.037 0 0 0 1:-0.831703 2:-0.878678 3:-0.885926 4:-0.845973 5:-0.8904 6:-0.907404 7:0.238457 8:0.306696 9:-0.570686 10:-0.535539 11:-0.783299 12:0.05132 13:-0.872903 14:-0.93418 15:-0.890572 16:-0.833333 17:-0.889695 18:-0.881922 19:-0.68403 20:-0.864258 21:-0.849404 22:0.784313 23:0.486309 24:-0.202616 25:0.306124 26:-0.224475 27:-0.711237 28:-0.861302 29:-0.772214 30:-0.806751 
-2889.742280546256 0 0 0 1:-0.53056 2:-0.612696 3:0.174799 4:-0.561418 5:-0.674965 6:0.0712827 7:0.0248777 8:-0.0318473 9:-0.213108 10:-0.632545 11:-0.612968 12:-0.0529415 13:0.160096 14:-0.342231 15:-0.0754779 16:-0.249833 17:-0.663936 18:-0.6689 19:0.378543 20:-0.590514 21:-0.614117 22:-0.428164 23:0.274313 24:-0.250823 25:0.0214183 26:-0.589505 27:-0.754494 28:-0.268901 29:-0.310353 30:-0.161264 
-311.0153805487381 739.316081829834 0 0 1:-0.41048 2:-0.321421 3:-0.293178 4:-0.475552 5:-0.271429 6:-0.262522 7:-0.145919 8:-0.593651 9:0.662193 10:-0.601623 11:0.213776 12:0.305924 13:-0.316219 14:-0.37576 15:-0.247703 16:-0.658009 17:-0.418793 18:-0.745734 19:-0.494157 20:-0.312051 21:-0.632586 22:0.339735 23:0.267235 24:-0.553904 25:-0.604995 26:-0.582502 27:-0.195883 28:-0.493386 29:-0.255386 30:-0.392148 
-922.6093690797636 0 0 0 1:-0.897388 2:-0.856262 3:-0.918528 4:-0.903289 5:-0.855336 6:-0.949916 7:-0.448475 8:0.427229 9:0.0244731 10:-0.507353 11:-0.637382 12:-0.759594 13:-0.933762 14:-0.942248 15:-0.917911 16:-0.646936 17:-0.822745 18:-0.658537 19:-0.457363 20:-0.799499 21:-0.68177 22:-0.108905 23:0.310295 24:-0.116608 25:-0.610544 26:-0.593263 27:-0.939384 28:-0.672062 29:-0.740305 30:-0.636254 
-181.2141618145767 0 0 0 1:-0.729592 2:-0.64911 3:-0.772574 4:-0.800947 5:-0.671441 6:-0.780314 7:0.187866 8:-0.645385 9:-0.518035 10:-0.848601 11:0.178353 12:0.154258 13:-0.778292 14:-0.790583 15:-0.755563 16:-0.800699 17:-0.719275 18:-0.630797 19:-0.716539 20:-0.722289 21:-0.663608 22:-0.25556 23:0.152762 24:-0.18759 25:-0.389932 26:-0.645742 27:-0.848994 28:-0.715421 29:-0.771049 30:-0.675883 
-3649.037 0 973.695823697379 0 1:-0.900857 2:-0.761147 3:-0.92921 4:-0.889418 5:-0.80865 6:-0.948253 7:-0.45572 8:0.317902 9:0.0705671 10:-0.590996 11:-0.773214 12:-0.681358 13:-0.894377 14:-0.925087 15:-0.895729 16:-0.652015 17:-0.727984 18:-0.702816 19:-0.451578 20:-0.675234 21:-0.70847 22:-0.205942 23:0.0396527 24:-0.288234 25:-0.51982 26:-0.678535 27:-0.79216 28:-0.677218 29:-0.665075 30:-0.605693 
-3649.037 0 3649.037 0 1:-0.804229 2:-0.638706 3:-0.80537 4:-0.803195 5:-0.710547 6:-0.894187 7:0.0666506 8:-0.374372 9:-0.175449 10:-0.394607 11:-0.340939 12:-0.610726 13:-0.818998 14:-0.905765 15:-0.815731 16:-0.669497 17:-0.701952 18:-0.723856 19:-0.476351 20:-0.697466 21:-0.741139 22:-0.116444 23:0.259618 24:-0.261253 25:-0.531768 26:-0.575735 27:-0.855577 28:-0.694967 29:-0.708164 30:-0.625798 
-3649.037 0 0 0 1:-0.518699 2:-0.337447 3:-0.0505495 4:-0.628772 5:-0.600085 6:-0.348643 7:0.0560582 8:-0.293472 9:0.0190374 10:-0.899054 11:-0.459895 12:-0.67144 13:-0.0692674 14:-0.682184 15:-0.388015 16:-0.0281385 17:-0.314013 18:-0.617293 19:0.582789 20:-0.372103 21:-0.684269 22:0.576806 23:0.544329 24:-0.0785972 25:-0.110585 26:-0.0440477 27:-0.811535 28:-0.0438237 29:-0.0129265 30:0.0386591 
-0 -1289.178202389704 3649.037 3649.037 1:-0.666888 2:-0.723409 3:-0.822003 4:-0.7312 5:-0.760499 6:-0.887557 7:-0.00711039 8:0.506363 9:0.122923 10:-0.750396 11:-0.324598 12:-0.78551 13:-0.720193 14:-0.905546 15:-0.792684 16:-0.700133 17:-0.531158 18:-0.414425 19:-0.598855 20:-0.508905 21:-0.396126 22:-0.127955 23:0.209277 24:-0.173617 25:-0.801843 26:-0.765077 27:-0.832818 28:-0.540718 29:-0.623384 30:-0.458264 
-0 -2207.348184604795 0 3649.037 1:-0.493308 2:-0.570328 3:-0.674165 4:-0.582242 5:-0.623126 6:-0.782209 7:-0.0456583 8:0.420058 9:0.380397 10:-0.857588 11:-0.501298 12:-0.408261 13:-0.559363 14:-0.747724 15:-0.66063 16:-0.726357 17:-0.657475 18:-0.489375 19:-0.684269 20:-0.628361 21:-0.389138 22:0.101643 23:-0.243268 24:-0.320085 25:-0.504179 26:-0.638668 27:-0.517742 28:-0.601234 29:-0.576336 30:-0.508604 
-3347.575234992458 -861.0416468682824 0 0 1:-0.772724 2:-0.742939 3:-0.690136 4:-0.804055 5:-0.763537 6:-0.798044 7:0.0792878 8:0.493675 9:-0.2737 10:-0.779077 11:-0.386745 12:-0.631138 13:-0.720249 14:-0.863387 15:-0.788049 16:-0.800866 17:-0.89522 18:-0.8009 19:-0.745155 20:-0.847697 21:-0.86195 22:-0.379594 23:0.63775 24:-0.411472 25:-0.64714 26:0.0159907 27:-0.00579665 28:-0.82834 29:-0.757308 30:-0.779276 
-3649.037 -0 3649.037 3649.037 1:-0.439126 2:-0.525404 3:-0.747843 4:-0.482501 5:-0.867126 6:-0.831805 7:0.255819 8:-0.259986 9:-0.384398 10:-0.533607 11:-0.340803 12:-0.354453 13:-0.509161 14:-0.768053 15:-0.626246 16:-0.211289 17:0.163444 18:-0.915943 19:0.120746 20:0.200073 21:-0.90961 22:-0.257428 23:-0.175963 24:0.0318702 25:-0.827241 26:-0.898675 27:-0.95541 28:0.0321599 29:-0.068592 30:0.148401 
-0 -0 3649.037 0 1:-0.0088152 2:-0.652339 3:-0.497142 4:-0.0457262 5:-0.67187 6:-0.643401 7:-0.49625 8:0.584127 9:-0.291338 10:-0.0907532 11:-0.313523 12:-0.391097 13:-0.110458 14:-0.537486 15:-0.34995 16:-0.216284 17:-0.202865 18:-0.885481 19:-0.0810673 20:-0.304266 21:-0.942068 22:-0.125281 23:-0.0910686 24:-0.12908 25:-0.862337 26:-0.937764 27:-0.862777 28:-0.234839 29:-0.301269 30:-0.0996209 
-0 -0 1530.393720767729 0 1:-0.201106 2:-0.761884 3:-0.61431 4:-0.21987 5:-0.843127 6:-0.734607 7:0.498212 8:-0.173985 9:-0.249327 10:-0.295855 11:-0.845983 12:-0.808833 13:-0.288624 14:-0.636502 15:-0.47562 16:0.022644 17:-0.282363 18:-0.821627 19:-0.4694 20:-0.508875 21:-0.829412 22:-0.0200163 23:0.0342185 24:-0.115128 25:-0.853897 26:-0.632213 27:-0.933849 28:0.00773361 29:-0.340398 30:-0.127705 
-0 -602.4258267347506 3649.037 0 1:-0.188917 2:-0.231421 3:-0.543562 4:-0.113044 5:-0.0685182 6:-0.716374 7:0.653406 8:0.935747 9:-0.140504 10:-0.0127799 11:0.810769 12:-0.909687 13:-0.27733 14:-0.309371 15:-0.282047 16:-0.232018 17:-0.148462 18:-0.686172 19:-0.188662 20:-0.322445 21:-0.773658 22:0.0605924 23:0.0183768 24:-0.0769097 25:-1 26:-1 27:-1 28:-0.249377 29:-0.414697 30:-0.0815965 
-114.9520102059872 -0 0 0 1:-0.109909 2:-0.474764 3:-0.401151 4:-0.344223 5:-0.357236 6:-0.295541 7:-0.0261947 8:0.962496 9:-0.931325 10:-0.88724 11:0.849438 12:0.832213 13:-0.204126 14:-0.342287 15:-0.232888 16:-0.523726 17:-0.690997 18:-0.12886 19:-0.154586 20:-0.625464 21:0.12687 22:-0.612682 23:0.556286 24:0.290522 25:0.243234 26:-0.170852 27:-0.548887 28:-0.310147 29:0.11727 30:-0.125365 
-0 -0 3649.037 0 1:-0.244209 2:-0.403012 3:-0.581618 4:-0.4025 5:-0.508197 6:-0.71726 7:0.00723488 8:0.427714 9:0.123083 10:-0.836791 11:-0.350093 12:-0.640793 13:-0.328561 14:-0.7732 15:-0.522741 16:-0.755494 17:0.205862 18:-0.316968 19:-0.661437 20:0.49251 21:-0.10366 22:-0.0676116 23:-0.118724 24:0.0671303 25:-0.762422 26:-0.634952 27:-0.605702 28:0.0704475 29:-0.0860603 30:0.171152 
-0 -0 3649.037 0 1:-0.355985 2:-0.335086 3:-0.633323 4:-0.381578 5:-0.447544 6:-0.72949 7:0.284622 8:0.550636 9:0.105765 10:-0.566075 11:-0.128866 12:-0.567382 13:-0.432127 14:-0.685306 15:-0.51358 16:-0.822178 17:-0.0412473 18:-0.636449 19:-0.743333 20:0.190675 21:-0.530289 22:-0.19102 23:-0.0303334 24:-0.101256 25:-0.821807 26:-0.598368 27:-0.54743 28:-0.152601 29:-0.367183 30:-0.138757 
-0 -0 3308.701631130141 1582.402103373568 1:-0.0938837 2:-0.407601 3:-0.370036 4:-0.260954 5:-0.55621 6:-0.530189 7:-0.112786 8:-0.0283932 9:0.0310095 10:-0.815152 11:-0.688539 12:-0.644896 13:-0.189278 14:-0.597756 15:-0.390068 16:-0.621545 17:0.119996 18:-0.15838 19:-0.385831 20:0.376344 21:0.0691862 22:0.380943 23:-0.508818 24:0.132114 25:-0.452871 26:-0.447251 27:-0.522041 28:-0.00705741 29:0.396763 30:0.208999 
-0 -0 3649.037 959.6494062797894 1:-0.443908 2:-0.437158 3:-0.657105 4:-0.569032 5:-0.49998 6:-0.743354 7:0.0702981 8:0.591537 9:-0.325414 10:-0.824425 11:0.0357527 12:-0.734714 13:-0.513592 14:-0.762422 15:-0.603334 16:-0.788545 17:0.0318835 18:-0.46645 19:-0.703062 20:0.315456 21:-0.329088 22:0.0119576 23:-0.00411273 24:-0.0800629 25:-0.770848 26:-0.64174 27:-0.570602 28:-0.0865909 29:-0.182019 30:-0.00835141 
-0 -0 3649.037 0 1:-0.280446 2:-0.585732 3:-0.647421 4:-0.435325 5:-0.621177 6:-0.70673 7:0.18966 8:0.631955 9:-0.30364 10:-0.894739 11:0.147556 12:-0.543352 13:-0.362137 14:-0.74304 15:-0.553248 16:-0.903513 17:-0.408587 18:-0.718204 19:-0.854409 20:-0.0427627 21:-0.559434 22:-0.0978974 23:0.606659 24:-0.472508 25:-0.562943 26:-0.203692 27:-0.407143 28:-0.484174 29:-0.247001 30:-0.283626 
-0 -1033.945665025924 0 0 1:-0.69019 2:-0.78452 3:-0.795064 4:-0.664469 5:-0.818131 6:-0.827779 7:0.277194 8:-0.521858 9:-0.290137 10:-0.23804 11:-0.000538858 12:-0.536671 13:-0.741784 14:-0.798492 15:-0.757642 16:-0.930486 17:-0.788941 18:-0.792212 19:-0.865364 20:-0.631174 21:-0.699259 22:-0.782077 23:0.754565 24:-0.739809 25:0.396644 26:0.204664 27:0.338839 28:-0.827494 29:-0.502504 30:-0.697813 
-2973.736140459193 -1861.221300016553 3649.037 745.290191255525 1:-0.766135 2:-0.875236 3:-0.803457 4:-0.746262 5:-0.887649 6:-0.827813 7:0.409726 8:-0.395384 9:-0.510497 10:-0.167781 11:-0.314779 12:-0.358338 13:-0.812151 14:-0.834382 15:-0.803811 16:-0.845821 17:-0.483684 18:-0.635507 19:-0.760142 20:-0.28277 21:-0.542321 22:0.321445 23:0.0171584 24:-0.174991 25:-0.636446 26:-0.50448 27:-0.664867 28:-0.551959 29:-0.488995 30:-0.439745 
-3649.037 -0 3649.037 3649.037 1:-0.487646 2:-0.826055 3:-0.756801 4:-0.503882 5:-0.875128 6:-0.793971 7:-0.315339 8:0.0530502 9:-0.452165 10:-0.423857 11:-0.894452 12:-0.483013 13:-0.554117 14:-0.74327 15:-0.666316 16:-0.90676 17:-0.631256 18:-0.651418 19:-0.818848 20:-0.502241 21:-0.565171 22:0.63248 23:0.0576139 24:-0.260664 25:0.0872982 26:-0.509539 27:-0.68061 28:-0.685162 29:-0.632468 30:-0.577968 
-0 -0 3649.037 5.243226664091303 1:-0.748671 2:-0.708174 3:-0.858142 4:-0.730755 5:-0.73386 6:-0.909729 7:-0.551776 8:0.613326 9:0.1881 10:-0.054759 11:-0.0362604 12:-0.609839 13:-0.795969 14:-0.780832 15:-0.79365 16:-0.878788 17:-0.811695 18:-0.904323 19:-0.847797 20:-0.770683 21:-0.93995 22:-0.154942 23:-0.480476 24:-0.182304 25:-0.801082 26:-0.241476 27:-0.912022 28:-0.848033 29:-0.838127 30:-0.827117 
-137.6116229778957 -1408.364565621592 834.8537866547862 2153.566913925096 1:-0.681612 2:-0.83374 3:-0.858554 4:-0.650743 5:-0.882286 6:-0.916326 7:-0.71999 8:0.303143 9:0.185503 10:0.311941 11:-0.574375 12:-0.696125 13:-0.733836 14:-0.854029 15:-0.78958 16:-0.725191 17:-0.819374 18:-0.640636 19:-0.644802 20:-0.83142 21:-0.610226 22:0.146924 23:0.292276 24:-0.946623 25:-0.845287 26:-0.565966 27:0.862506 28:-0.723366 29:-0.642949 30:-0.67614 
-2612.265226863404 -1848.44849044195 3649.037 3649.037 1:-0.553376 2:-0.824719 3:-0.851551 4:-0.600668 5:-0.849463 6:-0.892338 7:-0.123273 8:-0.459671 9:0.330419 10:-0.484501 11:-0.141743 12:-0.338343 13:-0.615019 14:-0.817629 15:-0.749879 16:-0.812937 17:-0.86769 18:-0.924422 19:-0.754508 20:-0.871939 21:-0.937277 22:0.715612 23:0.674175 24:0.100566 25:-0.00341189 26:0.222881 27:-0.897826 28:-0.840595 29:-0.809712 30:-0.846071 
-0 -0 2585.705335038613 0 1:-0.463321 2:-0.598262 3:-0.585523 4:-0.452871 5:-0.66747 6:-0.711992 7:-0.492101 8:0.688154 9:-0.521503 10:-0.45808 11:0.227643 12:-0.137914 13:-0.531579 14:-0.62394 15:-0.573487 16:-0.813104 17:-0.830891 18:-0.689312 19:-0.80087 20:-0.716207 21:-0.844199 22:0.328989 23:0.248717 24:0.0846438 25:-0.561267 26:-0.0949615 27:-0.719645 28:-0.762667 29:-0.82392 30:-0.71512 
-3518.099184726554 -2517.123480319324 0 0 1:-0.676703 2:-0.829439 3:-0.705755 4:-0.683363 5:-0.851838 6:-0.752124 7:0.569811 8:-0.204348 9:-0.42757 10:-0.0822019 11:-0.715423 12:-0.433597 13:-0.729287 14:-0.837082 15:-0.724249 16:-0.666001 17:-0.824805 18:-0.809589 19:-0.716034 20:-0.8411 21:-0.863187 22:-0.396678 23:-0.184967 24:-0.0368549 25:-0.535672 26:-0.845895 27:-0.937652 28:-0.691417 29:-0.725632 30:-0.69292 
-0 -0 3649.037 0 1:-0.0975629 2:-0.571209 3:-0.661634 4:-0.0156122 5:-0.742838 6:-0.765222 7:-0.661258 8:0.0461019 9:-0.342257 10:0.024411 11:-0.84861 12:-0.474507 13:-0.192687 14:-0.466215 15:-0.347632 16:-0.809108 17:-0.897186 18:-0.798388 19:-0.750859 20:-0.944209 21:-0.875129 22:0.328178 23:0.188304 24:-0.0671652 25:-0.548325 26:-0.457743 27:-0.914051 28:-0.836707 29:-0.879818 30:-0.815367 
-0 -0 3649.037 0 1:-0.727827 2:-0.839558 3:-0.759224 4:-0.74561 5:-0.81281 6:-0.862009 7:-0.462937 8:0.711887 9:-0.0881928 10:-0.148509 11:0.304667 12:-0.641083 13:-0.776657 14:-0.819126 15:-0.80201 16:-0.777556 17:-0.59352 18:-0.616979 19:-0.752152 20:-0.534186 21:-0.831047 22:-0.206386 23:-0.428399 24:-0.00588837 25:-0.810435 26:-0.573097 27:-0.553529 28:-0.651101 29:-0.676488 30:-0.579007 
-0 -0 3649.037 0 1:-0.239483 2:-0.67527 3:-0.724498 4:-0.260399 5:-0.783789 6:-0.815137 7:-0.410761 8:0.0681673 9:0.0151688 10:-0.210496 11:-0.913265 12:-0.809379 13:-0.324183 14:-0.759602 15:-0.538782 16:-0.716617 17:-0.792406 18:-0.731917 19:-0.512776 20:-0.745234 21:-0.702102 22:0.00675947 23:0.351992 24:-0.365266 25:-0.58475 26:-0.678629 27:-0.539915 28:-0.742805 29:-0.718179 30:-0.654537 
-0 -0 3649.037 2602.316915810512 1:-0.0777109 2:-0.549013 3:-0.632255 4:-0.178405 5:-0.724373 6:-0.756688 7:-0.190611 8:-0.063517 9:0.0660916 10:-0.68333 11:-0.910723 12:-0.76879 13:-0.174293 14:-0.70404 15:-0.464273 16:-0.757243 17:-0.856922 18:-0.639171 19:-0.59001 20:-0.857585 21:-0.654852 22:0.0951659 23:0.316429 24:-0.0942919 25:-0.411618 26:-0.564126 27:-0.912462 28:-0.722182 29:-0.71585 30:-0.68362 
-0 -0 3649.037 0 1:-0.248179 2:-0.650925 3:-0.639039 4:-0.191789 5:-0.666851 6:-0.756214 7:-0.58689 8:0.456093 9:-0.342815 10:-0.0386235 11:-0.19064 12:-0.667354 13:-0.33224 14:-0.579193 15:-0.458795 16:-0.767399 17:-0.988951 18:-0.865383 19:-0.690658 20:-0.986626 21:-0.855425 22:-0.493386 23:-0.484857 24:-0.0294214 25:-0.281877 26:-0.126537 27:-0.877724 28:-0.794363 29:-0.785723 30:-0.79148 
-0 -0 0 3649.037 1:-0.317675 2:-0.721293 3:-0.712962 4:-0.39655 5:-0.794589 6:-0.839184 7:0.330889 8:-0.165124 9:-0.143079 10:-0.821493 11:-0.874044 12:-0.826236 13:-0.396631 14:-0.810508 15:-0.60351 16:-0.680653 17:-0.831172 18:-0.361038 19:-0.514266 20:-0.837416 21:-0.307282 22:0.215578 23:0.461297 24:0.383591 25:-0.651399 26:-0.325407 27:-0.340999 28:-0.497612 29:-0.513451 30:-0.486977 
-0 -0 1239.592062444264 79.59270613605868 1:-0.956404 2:-0.878751 3:-0.946001 4:-0.947436 5:-0.806538 6:-0.98525 7:0.574348 8:0.86822 9:-0.0955565 10:-0.130952 11:0.657379 12:-0.94374 13:-0.96678 14:-0.92321 15:-0.930402 16:-0.979271 17:-0.97116 18:-0.946614 19:-0.953052 20:-0.97942 21:-0.90079 22:-0.777168 23:-0.12768 24:0.76118 25:0.224073 26:-0.36429 27:0.231541 28:-0.970418 29:-0.890066 30:-0.95399 
-0 -0 3618.528261964143 0 1:-0.800828 2:-0.848662 3:-0.83751 4:-0.83213 5:-0.871876 6:-0.872421 7:0.36314 8:-0.466338 9:0.665105 10:-0.562226 11:-0.213172 12:0.0335533 13:-0.844295 14:-0.848424 15:-0.857206 16:-0.965784 17:-0.886512 18:-0.945672 19:-0.95722 20:-0.808003 21:-0.938097 22:0.0624909 23:-0.546739 24:0.0312153 25:-0.778919 26:-0.0799708 27:-0.886069 28:-0.915564 29:-0.866775 30:-0.891996 
-0 -0 634.1480539948986 3252.636251872876 1:-0.889801 2:-0.618886 3:-0.881701 4:-0.874637 5:-0.544762 6:-0.895492 7:-0.387236 8:0.64358 9:-0.702258 10:-0.0915119 11:0.27035 12:0.358004 13:-0.806795 14:-0.77836 15:-0.78696 16:-0.925491 17:-0.917318 18:-0.85303 19:-0.834611 20:-0.87665 21:-0.834443 22:-0.601321 23:0.340617 24:0.921837 25:-0.190939 26:-0.568213 27:0.796739 28:-0.894857 29:-0.751718 30:-0.84107 
-0 -0 3649.037 0 1:-0.852811 2:-0.913172 3:-0.859495 4:-0.902374 5:-0.931059 6:-0.915964 7:0.0786692 8:0.0718616 9:0.24928 10:-0.884553 11:-0.718778 12:-0.649125 13:-0.89246 14:-0.947807 15:-0.919744 16:-0.964868 17:-0.960204 18:-0.952999 19:-0.953003 20:-0.898697 21:-0.939928 22:-0.193323 23:-0.756546 24:0.167267 25:-0.714051 26:0.142173 27:-0.819948 28:-0.975574 29:-0.896588 30:-0.940438 
-0 -3576.261429884976 3649.037 0 1:-0.840622 2:-0.869837 3:-0.837889 4:-0.865323 5:-0.862162 6:-0.897456 7:0.388234 8:0.500771 9:0.138808 10:-0.41508 11:-0.16479 12:-0.702676 13:-0.870635 14:-0.877681 15:-0.88193 16:-0.949301 17:-0.966571 18:-0.875955 19:-0.930701 20:-0.947209 21:-0.909653 22:-0.179886 23:-0.445974 24:0.0521311 25:-0.412383 26:0.000446465 27:-0.871128 28:-0.913367 29:-0.896821 30:-0.929707 
-0 -0 3649.037 3649.037 1:-0.824383 2:-0.889659 3:-0.893673 4:-0.876881 5:-0.912198 6:-0.93966 7:0.00101798 8:0.0793555 9:0.197288 10:-1 11:-0.78149 12:-0.65171 13:-0.86612 14:-0.948368 15:-0.918731 16:-0.932817 17:-0.978744 18:-0.875118 19:-0.913323 20:-0.97152 21:-0.87108 22:-0.14258 23:-0.169414 24:-0.0392982 25:-0.733682 26:-0.460542 27:-0.913822 28:-0.912691 29:-0.937347 30:-0.941012 
-1540.83623788688 -3649.037 0 322.9491710477149 1:-0.741146 2:-0.771156 3:-0.690731 4:-0.772395 5:-0.790855 6:-0.780642 7:0.169863 8:0.623875 9:0.402328 10:-0.687005 11:0.0401502 12:-0.379493 13:-0.720855 14:-0.839273 15:-0.762475 16:-0.711122 17:-0.73304 18:-0.51544 19:-0.636093 20:-0.687388 21:-0.506865 22:0.168506 23:0.405124 24:-0.104182 25:-0.801806 26:-0.542688 27:-0.849804 28:-0.622279 29:-0.743566 30:-0.590425 
-3649.037 -2030.390658183092 3649.037 0 1:-0.788568 2:-0.91871 3:-0.790696 4:-0.810866 5:-0.92575 6:-0.82992 7:-0.432664 8:0.0688065 9:-0.442777 10:-0.37963 11:-0.836403 12:-0.103562 13:-0.822601 14:-0.864046 15:-0.837149 16:-0.937562 17:-0.957489 18:-0.893332 19:-0.908767 20:-0.94072 21:-0.909497 22:-0.263017 23:-0.00656134 24:-0.140548 25:-0.425987 26:-0.373734 27:-0.929576 28:-0.927397 29:-0.924304 30:-0.939282 
-3522.390336427688 -2277.086417549113 3649.037 3649.037 1:-0.918722 2:-0.974591 3:-0.961533 4:-0.944241 5:-0.95737 6:-0.973093 7:-0.0490846 8:0.109337 9:-0.104548 10:-0.920108 11:-0.752521 12:-0.84165 13:-0.953529 14:-0.990912 15:-0.976406 16:-0.952214 17:-0.996442 18:-0.933215 19:-0.917895 20:-0.985626 21:-0.938603 22:-0.606919 23:0.0120726 24:0.105553 25:-0.00652992 26:-0.360468 27:-0.637658 28:-0.959599 29:-0.926633 30:-0.967449 
-0 -0 1931.817817656009 0 1:-0.781419 2:-0.805894 3:-0.961115 4:-0.833623 5:-0.840081 6:-0.956076 7:0.214355 8:0.443446 9:0.696916 10:-0.898568 11:-0.205418 12:0.0714054 13:-0.826312 14:-0.9218 15:-0.889079 16:-0.952964 17:-0.95084 18:-0.842353 19:-0.928753 20:-0.912863 21:-0.821435 22:-0.581198 23:-0.647373 24:0.158972 25:0.0553295 26:0.0776555 27:-0.750528 28:-0.886236 29:-0.845581 30:-0.90135 
-0 -0 3649.037 0 1:-0.236284 2:-0.735063 3:-0.709251 4:-0.100399 5:-0.767632 6:-0.794278 7:-0.772801 8:0.416417 9:-0.123522 10:0.432947 11:-0.339946 12:-0.851989 13:-0.321218 14:-0.542162 15:-0.442193 16:-0.895521 17:-0.46196 18:-0.702188 19:-0.835303 20:-0.312705 21:-0.637831 22:0.499083 23:-0.234872 24:0.000565079 25:-0.309444 26:-0.574554 27:-0.624547 28:-0.53235 29:-0.502504 30:-0.486255 
-514.5728916230647 -3649.037 3649.037 3649.037 1:-0.783576 2:-0.571193 3:-0.792387 4:-0.782345 5:-0.638227 6:-0.84652 7:0.439815 8:0.162011 9:0.437907 10:-0.564677 11:-0.512007 12:-0.533993 13:-0.777434 14:-0.822377 15:-0.764429 16:-0.988595 17:-0.63444 18:-0.763111 19:-0.980204 20:-0.587985 21:-0.72572 22:0.376347 23:0.00320857 24:-0.0635869 25:-0.646897 26:-0.679736 27:-0.784971 28:-0.688036 29:-0.801561 30:-0.691093 
-1031.636748332679 -0 2226.327648320315 0 1:-0.484534 2:-0.759883 3:-0.781413 4:-0.390511 5:-0.783311 6:-0.765499 7:-0.732007 8:0.33696 9:-0.826472 10:0.351543 11:-0.504379 12:0.545603 13:-0.551233 14:-0.582756 15:-0.591353 16:-0.968365 17:-0.884264 18:-0.97561 19:-0.941852 20:-0.754722 21:-0.937267 22:0.778484 23:0.878624 24:0.53895 25:0.470744 26:0.776318 27:-0.0278697 28:-0.913536 29:-0.805054 30:-0.860787 
-0 -0 1233.641719290388 0 1:-0.630228 2:-0.736039 3:-0.751716 4:-0.490193 5:-0.794934 6:-0.774488 7:-0.937427 8:-0.231076 9:0.569237 10:0.817411 11:-0.358218 12:-0.271092 13:-0.686226 14:-0.68849 15:-0.645146 16:-0.941642 17:-0.751206 18:-0.986706 19:-0.895876 20:-0.629564 21:-0.943819 22:0.17821 23:0.557934 24:0.889268 25:-0.281131 26:-0.194118 27:0.737813 28:-0.793433 29:-0.745662 30:-0.760845 
-0 -0 1680.766524980328 0 1:-0.663628 2:-0.719959 3:-0.86198 4:-0.659529 5:-0.698171 6:-0.90421 7:0.499195 8:0.352175 9:0.200088 10:-0.293533 11:-0.0177616 12:-0.38951 13:-0.717173 14:-0.763114 15:-0.756736 16:-0.911921 17:-0.762068 18:-0.822045 19:-0.871684 20:-0.702587 21:-0.72957 22:0.102189 23:-0.251616 24:-0.0946477 25:-0.649157 26:-0.526645 27:-0.263255 28:-0.803237 29:-0.747292 30:-0.754395 
-0 -0 3649.037 0 1:-0.742322 2:-0.701062 3:-0.908751 4:-0.720519 5:-0.729502 6:-0.924035 7:0.430212 8:0.846061 9:-0.36958 10:-0.498508 11:0.553095 12:-0.486891 13:-0.790087 14:-0.814816 15:-0.786161 16:-0.976523 17:-0.885482 18:-0.967863 19:-0.961419 20:-0.796962 21:-0.934094 22:-0.398514 23:0.637278 24:0.544904 25:-0.169145 26:-0.033947 27:-0.0163229 28:-0.914635 29:-0.882846 30:-0.883914 
-0 -210.2286765374882 3649.037 0 1:-0.68985 2:-0.530988 3:-0.757913 4:-0.709799 5:-0.442831 6:-0.779935 7:0.137361 8:0.762864 9:-0.335965 10:-0.535303 11:0.503241 12:-0.00496851 13:-0.741468 14:-0.732495 15:-0.66075 16:-0.892857 17:-0.547451 18:-0.818696 19:-0.830201 20:-0.432748 21:-0.772995 22:-0.1513 23:-0.193707 24:-0.191541 25:-0.624639 26:-0.556129 27:-0.443584 28:-0.609517 29:-0.721905 30:-0.599208 
-0 -0 3649.037 0 1:-0.470614 2:-0.694511 3:-0.762463 4:-0.35743 5:-0.768593 6:-0.816247 7:-0.584323 8:0.05523 9:0.54057 10:0.197109 11:-0.619265 12:-0.432743 13:-0.538336 14:-0.664693 15:-0.583254 16:-0.951465 17:-0.718245 18:-0.897833 19:-0.926284 20:-0.615467 21:-0.853452 22:-0.0366381 23:-0.31886 24:0.590895 25:-0.647849 26:-0.425833 27:0.043001 28:-0.763682 29:-0.744497 30:-0.746843 
-0 -0 3649.037 0 1:-0.676583 2:-0.745638 3:-0.92165 4:-0.644084 5:-0.917922 6:-0.959739 7:0.768244 8:0.0849491 9:0.116257 10:0.483642 11:-0.808465 12:-0.763848 13:-0.729176 14:-0.872197 15:-0.789971 16:-0.954878 17:-0.767218 18:-0.690673 19:-0.949906 20:-0.654343 21:-0.802727 22:-0.031017 23:-0.722439 24:-0.0923571 25:-0.920858 26:0.393686 27:-0.577924 28:-0.763766 29:-0.754746 30:-0.718936 
-2021.041115940888 -0 3649.037 3649.037 1:-0.757625 2:-0.890156 3:-0.867108 4:-0.734929 5:-0.912631 6:-0.935881 7:-0.664017 8:0.259425 9:-0.350676 10:-0.068347 11:-0.746027 12:-0.594013 13:-0.804265 14:-0.880544 15:-0.848207 16:-0.8171 17:-0.846903 18:-0.647127 19:-0.802524 20:-0.84286 21:-0.763623 22:-0.375116 23:-0.673727 24:0.0910279 25:-0.502144 26:-0.0249429 27:-0.773948 28:-0.728606 29:-0.653895 30:-0.708761 
-2874.810739908954 -0 0 0 1:-0.804577 2:-0.865891 3:-0.717543 4:-0.766986 5:-0.88688 6:-0.782694 7:0.0811115 8:-0.223004 9:-0.568783 10:-0.303734 11:-0.58788 12:-0.0492194 13:-0.748144 14:-0.8877 15:-0.785934 16:-0.793956 17:-0.633503 18:-0.583691 19:-0.780051 20:-0.492987 21:-0.645403 22:-0.166024 23:0.59411 24:-0.833423 25:-0.840253 26:-0.113192 27:0.399952 28:-0.677387 29:-0.46058 30:-0.55923 
-0 -0 3649.037 3649.037 1:-0.595857 2:-0.797582 3:-0.795888 4:-0.666978 5:-0.861 6:-0.884114 7:0.0177636 8:0.0492029 9:0.0709728 10:-0.90954 11:-0.738064 12:-0.907934 13:-0.65438 14:-0.907695 15:-0.787144 16:-0.889527 17:-0.862447 18:-0.711714 19:-0.823412 20:-0.8273 21:-0.901427 22:-0.382439 23:-0.497727 24:-0.0975364 25:-0.50498 26:-0.376486 27:-0.915934 28:-0.780755 29:-0.775707 30:-0.783227 
-0 -0 3455.499774093099 3649.037 1:-0.631891 2:-0.814989 3:-0.768132 4:-0.683066 5:-0.846354 6:-0.867848 7:-0.0714798 8:0.101682 9:-0.161411 10:-0.869558 11:-0.516353 12:-0.910652 13:-0.687767 14:-0.904075 15:-0.790114 16:-0.863553 17:-0.725643 18:-0.601277 19:-0.816974 20:-0.645029 21:-0.578678 22:-0.355131 23:0.322529 24:-0.573272 25:-0.576278 26:-0.437077 27:-0.252842 28:-0.691586 29:-0.638756 30:-0.637774 
-1234.538013173946 -0 3649.037 0 1:-0.654258 2:-0.855907 3:-0.807783 4:-0.706365 5:-0.866367 6:-0.882132 7:-0.138915 8:0.374079 9:-0.177486 10:-0.819907 11:-0.572945 12:-0.81981 13:-0.708491 14:-0.875877 15:-0.808184 16:-0.870296 17:-0.713282 18:-0.687533 19:-0.868781 20:-0.679235 21:-0.712694 22:0.0754272 23:0.403386 24:-0.568465 25:-0.713496 26:-0.4875 27:-0.272517 28:-0.759202 29:-0.764761 30:-0.716248 
-1105.238904828628 -0 0 0 1:-0.112562 2:-0.550638 3:-0.216833 4:-0.0882506 5:-0.601087 6:-0.390951 7:-0.185744 8:0.54249 9:0.7584 10:-0.510418 11:-0.130065 12:0.232017 13:-0.206584 14:-0.284788 15:-0.233927 16:-0.0809191 17:0.139847 18:-0.959594 19:-0.486913 20:-0.744675 21:-0.958366 22:-0.196756 23:-0.475469 24:-0.0344931 25:-0.620121 26:-0.157003 27:-0.8466 28:0.0108609 29:-0.29568 30:-0.0488784 
-0 -0 3141.067795715418 3649.037 1:-0.71526 2:-0.711941 3:-0.829194 4:-0.677713 5:-0.840104 6:-0.915733 7:-0.678386 8:0.513599 9:0.0714875 10:0.0666897 11:-0.0640754 12:-0.93545 13:-0.765012 14:-0.8079 15:-0.773367 16:-0.557026 17:-0.233485 18:-0.784989 19:-0.796741 20:-0.825327 21:-0.821423 22:0.102908 23:-0.238964 24:0.328192 25:-0.883476 26:-0.697208 27:-0.657662 28:-0.326121 29:-0.625015 30:-0.433936 
-3649.037 -2427.009567089362 0 0 1:-0.592859 2:-0.743679 3:-0.567679 4:-0.549242 5:-0.779445 6:-0.715881 7:-0.337455 8:0.317428 9:0.479767 10:-0.167582 11:-0.553298 12:-0.294451 13:-0.595611 14:-0.739395 15:-0.643756 16:-0.405095 17:-0.441921 18:-0.682194 19:-0.221254 20:-0.768935 21:-0.973986 22:-0.16664 23:-0.205907 24:-0.1981 25:-0.914309 26:-0.892292 27:-0.709872 28:-0.426531 29:-0.529288 30:-0.349125 
-0 -77.85573198855934 3256.474193997751 1019.886285391853 1:-0.39309 2:-0.220267 3:-0.55362 4:-0.483783 5:-0.191809 6:-0.646051 7:-0.0973312 8:0.872107 9:0.644241 10:-0.789292 11:0.634888 12:0.0440349 13:-0.466507 14:-0.66427 15:-0.448659 16:0.193973 17:-0.499227 18:-0.705119 19:-0.540142 20:-0.734957 21:-0.842988 22:0.202063 23:-0.561847 24:0.10016 25:-0.735971 26:0.105109 27:-0.803449 28:0.181676 29:-0.429603 30:-0.0972122 
-2390.739070725193 -0 0 29.65181523521643 1:0.30217 2:-0.411411 3:-0.0782723 4:0.0418632 5:-0.571572 6:-0.361018 7:-0.0431565 8:0.358913 9:0.610628 10:-0.847009 11:-0.4716 12:-0.0713222 13:0.177685 14:-0.546915 15:-0.170876 16:0.34299 17:-0.418606 18:-0.120904 19:0.632493 20:-0.470816 21:0.172263 22:0.5196 23:-0.065692 24:0.0907086 25:-0.114618 26:-0.768685 27:-0.393669 28:0.332967 29:0.269128 30:0.338704 
-0 -0 -0 72.35536515181556 1:-0.769846 2:-0.761996 3:-0.837738 4:-0.576703 5:-0.806735 6:-0.906 7:-0.9657 8:-0.694238 9:0.0582284 10:0.891079 11:0.206672 12:-0.911777 13:-0.815588 14:-0.740473 15:-0.73585 16:-0.612388 17:-0.643804 18:-0.883806 19:-0.50074 20:-0.603882 21:-0.923817 22:-0.138543 23:-0.271575 24:-0.355932 25:-0.922317 26:-0.61799 27:-0.503512 28:-0.636986 29:-0.78153 30:-0.604608 
-896.3801870498077 -3649.037 -3649.037 0 1:-0.784053 2:-0.740614 3:-0.730437 4:-0.77533 5:-0.723218 6:-0.840183 7:-0.324243 8:0.720667 9:0.143801 10:-0.392636 11:0.249931 12:-0.759039 13:-0.761268 14:-0.843903 15:-0.789509 16:-0.747835 17:-0.629477 18:-0.85816 19:-0.658451 20:-0.560776 21:-0.92307 22:0.233676 23:-0.140198 24:-0.415945 25:-0.54942 26:-0.532458 27:-0.408269 28:-0.683557 29:-0.721439 30:-0.647256 
-0 -0 -1055.481217449628 0 1:-0.375037 2:-0.712119 3:-0.589404 4:-0.360792 5:-0.844555 6:-0.785956 7:0.211782 8:-0.174518 9:0.144568 10:-0.518134 11:-0.885457 12:-0.95945 13:-0.449779 14:-0.743061 15:-0.577053 16:-0.224858 17:-0.863851 18:-0.875851 19:-0.12741 20:-0.913499 21:-0.96283 22:-0.160503 23:0.0736047 24:-0.0684682 25:-0.840047 26:-0.873272 27:-0.856871 28:-0.243545 29:-0.587516 30:-0.335843 
-0 -0 -0 3649.037 1:-0.55142 2:-0.397013 3:-0.670156 4:-0.627102 5:-0.218898 6:-0.822518 7:0.0449613 8:-0.663716 9:0.0464834 10:-0.888454 11:0.394242 12:-0.928296 13:-0.613207 14:-0.706406 15:-0.56442 16:-0.0658508 17:0.116532 18:-0.832618 19:0.230292 20:0.059094 21:-0.854208 22:-0.161456 23:-0.105358 24:0.0543044 25:-0.919777 26:-0.993592 27:-0.862672 28:-0.0101846 29:-0.254454 30:0.12125 
-1955.387644494546 -0 -0 0 1:-0.436505 2:-0.704875 3:-0.624134 4:-0.377177 5:-0.800025 6:-0.763383 7:0.523705 8:-0.246394 9:-0.119228 10:-0.448451 11:-0.712512 12:-0.798365 13:-0.506733 14:-0.721146 15:-0.561506 16:0.191475 17:0.00379232 18:-0.454726 19:0.639479 20:-0.0123605 21:-0.344123 22:0.168673 23:0.275743 24:0.206083 25:-0.805461 26:-0.782364 27:-0.59768 28:0.17914 29:-0.272156 30:0.213518 
-0 -0 -3649.037 0 1:-0.562759 2:-0.651901 3:-0.666905 4:-0.526521 5:-0.639498 6:-0.77705 7:-0.265078 8:0.58474 9:0.0147323 10:-0.303087 11:-0.319208 12:-0.567998 13:-0.623713 14:-0.694206 15:-0.640586 16:-0.349151 17:-0.572546 18:-0.816916 19:-0.451814 20:-0.692283 21:-0.945888 22:0.113518 23:0.0321094 24:0.180753 25:-0.97205 26:-0.94559 27:-0.798584 28:-0.369733 29:-0.618726 30:-0.399822 
-0 -0 -3649.037 3649.037 1:-0.509682 2:-0.568725 3:-0.684814 4:-0.541441 5:-0.560635 6:-0.805897 7:-0.32247 8:0.794431 9:-0.0669228 10:-0.343803 11:0.441033 12:-0.845142 13:-0.574534 14:-0.703756 15:-0.631586 16:-0.424575 17:-0.601199 18:-0.695802 19:-0.543758 20:-0.663745 21:-0.86674 22:-0.348888 23:-0.120833 24:-0.454717 25:-0.626096 26:-0.839236 27:-0.110322 28:-0.446309 29:-0.579364 30:-0.443638 
-0 -0 -0 3649.037 1:-0.150166 2:-0.452568 3:-0.640418 4:-0.0532827 5:-0.259232 6:-0.797163 7:-0.546961 8:-0.811868 9:-0.0826971 10:0.0654326 11:0.645805 12:-0.871901 13:-0.241426 14:-0.385565 15:-0.324387 16:-0.121712 17:-0.221967 18:-0.496807 19:0.0959173 20:-0.315925 21:-0.45047 22:0.280845 23:0.564017 24:-0.106802 25:-0.675276 26:-0.282712 27:-0.583381 28:-0.138824 29:-0.122627 30:-0.0924492 
-0 -0 -3554.494421860389 0 1:-0.477419 2:-0.505293 3:-0.727604 4:-0.518723 5:-0.669379 6:-0.841076 7:0.27666 8:0.216626 9:0.169494 10:-0.538194 11:-0.806665 12:-0.888847 13:-0.544641 14:-0.804843 15:-0.66603 16:0.027639 17:-0.415422 18:-0.774835 19:-0.524975 20:-0.703803 21:-0.887407 22:-0.15456 23:0.0487316 24:0.00269871 25:-0.792915 26:-0.945431 27:-0.933902 28:0.0128048 29:-0.461744 30:-0.171622 
-0 -0 -1121.038286679793 700.8101974587876 1:-0.00558989 2:-0.301603 3:-0.679919 4:-0.0974767 5:-0.418223 6:-0.802089 7:-0.233553 8:0.300125 9:0.259909 10:-0.650553 11:-0.395502 12:-0.749924 13:-0.107469 14:-0.554051 15:-0.382063 16:-0.776557 17:-0.340325 18:-0.48121 19:-0.686712 20:-0.200513 21:-0.267711 22:0.0204847 23:-0.553528 24:0.524934 25:-0.66146 26:0.0061655 27:0.0346264 28:-0.422558 29:-0.0334226 30:-0.278377 
-0 -0 -0 3649.037 1:-0.660028 2:-0.822414 3:-0.950912 4:-0.633363 5:-0.823971 6:-0.960603 7:0.553047 8:-0.60071 9:-0.102457 10:-0.322918 11:-0.0685424 12:-0.738032 13:-0.713837 14:-0.855105 15:-0.776446 16:-0.695971 17:-0.34716 18:-0.721658 19:-0.552435 20:-0.188716 21:-0.589056 22:0.390455 23:-0.0252445 24:0.404967 25:-0.423774 26:-0.514201 27:-0.36596 28:-0.428728 29:-0.317107 30:-0.34009 
-0 -0 -2960.30662351808 850.7077162048784 1:-0.647489 2:-0.708842 3:-0.883405 4:-0.615288 5:-0.734979 6:-0.88136 7:0.17688 8:0.49087 9:-0.290775 10:-0.429097 11:-0.191183 12:-0.158575 13:-0.702219 14:-0.846992 15:-0.740818 16:-0.936064 17:-0.472634 18:-0.803308 19:-0.89547 20:-0.264761 21:-0.757808 22:0.598878 23:-0.297301 24:0.410044 25:-0.0315755 26:-0.453726 27:-0.450286 28:-0.541985 29:-0.59101 30:-0.487507 
-0 -0 -3649.037 0 1:0.0136306 2:-0.428498 3:-0.438887 4:-0.0756196 5:-0.488991 6:-0.629351 7:-0.155111 8:0.270579 9:0.195286 10:-0.616599 11:-0.32774 12:-0.649142 13:-0.0896607 14:-0.566035 15:-0.339504 16:-0.822095 17:-0.122056 18:-0.486339 19:-0.741895 20:0.129494 21:-0.374058 22:0.20664 23:-0.17266 24:0.223947 25:-0.497778 26:-0.488398 27:-0.62912 28:-0.225542 29:-0.206009 30:-0.124535 
-0 -0 -1752.859622943017 0 1:0.429988 2:0.113546 3:-0.0905704 4:0.310898 5:-0.294825 6:-0.455551 7:-0.362801 8:-0.019673 9:0.00255562 10:-0.551186 11:-0.892253 12:-0.907447 13:0.296114 14:-0.373469 15:-0.0460705 16:-0.768149 17:0.683131 18:-0.568303 19:-0.703621 20:1 21:-0.493785 22:0.20774 23:0.177983 24:-0.137874 25:-0.607696 26:-0.626002 27:-0.69168 28:0.501247 29:0.0571795 30:0.420938 
-0 -0 -3649.037 0 1:-0.226466 2:-0.589131 3:-0.60555 4:-0.281524 5:-0.639377 6:-0.702392 7:-0.0785368 8:-0.0227301 9:-0.165845 10:-0.587444 11:-0.496511 12:-0.525578 13:-0.312121 14:-0.657752 15:-0.494435 16:-0.853896 17:-0.157264 18:-0.548309 19:-0.816551 20:0.129129 21:-0.368659 22:-0.163218 23:-0.0587492 24:0.360209 25:-0.584951 26:-0.496346 27:-0.400471 28:-0.257322 29:-0.201118 30:-0.13449 
-0 -0 -0 3322.911978952148 1:-0.557497 2:-0.646508 3:-0.734788 4:-0.577884 5:-0.686683 6:-0.824772 7:0.0568055 8:0.248052 9:0.00387302 10:-0.614414 11:-0.601435 12:-0.763261 13:-0.618837 14:-0.806998 15:-0.693665 16:-0.69955 17:-0.300529 18:-0.643253 19:-0.580029 20:-0.0876523 21:-0.524901 22:0.036751 23:-0.264614 24:0.45594 25:-0.807463 26:-0.513606 27:-0.501671 28:-0.386637 29:-0.262373 30:-0.280754 
-0 -0 -2377.701554291156 0 1:-0.58893 2:-0.81384 3:-0.840099 4:-0.422901 5:-0.788911 6:-0.870014 7:-0.833543 8:0.568673 9:0.402752 10:0.595347 11:0.162285 12:-0.234657 13:-0.647962 14:-0.715276 15:-0.641404 16:-0.73668 17:-0.744464 18:-0.976343 19:-0.554852 20:-0.689937 21:-0.978001 22:-0.415567 23:-0.358892 24:0.0169895 25:-0.645761 26:-0.720298 27:-0.952314 28:-0.763175 29:-0.694422 30:-0.656115 
-2774.629987518818 -1019.270725951797 -3649.037 633.6678052800705 1:-0.625773 2:-0.787977 3:-0.73294 4:-0.658512 5:-0.839152 6:-0.788256 7:0.267031 8:-0.316361 9:-0.3634 10:-0.45353 11:-0.652562 12:-0.345315 13:-0.682098 14:-0.820244 15:-0.729628 16:-0.798785 17:-0.0490191 18:-0.450225 19:-0.695745 20:0.0816514 21:-0.407775 22:0.0305879 23:0.0384192 24:0.103418 25:-0.611824 26:-0.690895 27:-0.77746 28:-0.159616 29:-0.359264 30:-0.151879 
-0 -0 -818.2317514620154 0 1:-0.447732 2:-0.564375 3:-0.779652 4:-0.507779 5:-0.64108 6:-0.843195 7:-0.0435062 8:0.367681 9:0.168062 10:-0.633639 11:-0.471968 12:-0.470791 13:-0.517135 14:-0.755299 15:-0.656866 16:-0.716783 17:-0.182078 18:-0.568931 19:-0.587369 20:-0.0827893 21:-0.536007 22:0.234229 23:-0.0532154 24:0.0820657 25:-0.850456 26:-0.675714 27:-0.798387 28:-0.279719 29:-0.432864 30:-0.276439 
-0 -0 -1729.521646183766 1535.081388285056 1:-0.731591 2:-0.852141 3:-0.934323 4:-0.718009 5:-0.859179 6:-0.957553 7:-0.627523 8:0.684392 9:-0.228058 10:-0.0662782 11:0.0933929 12:-0.747351 13:-0.780143 14:-0.847847 15:-0.817637 16:-0.908342 17:-0.859076 18:-0.853659 19:-0.868414 20:-0.809192 21:-0.799212 22:0.275225 23:0.297765 24:-0.562576 25:-0.644476 26:-0.561901 27:-0.256144 28:-0.8908 29:-0.798998 30:-0.836307 
-0 -0 -3649.037 3649.037 1:-0.380281 2:-0.598022 3:-0.844997 4:-0.560986 5:-0.756712 6:-0.908607 7:-0.0808389 8:-0.0556686 9:0.122055 10:-0.854169 11:-0.915639 12:-0.886084 13:-0.454638 14:-0.857221 15:-0.717273 16:-0.821179 17:-0.816003 18:-0.613315 19:-0.81877 20:-0.817791 21:-0.647256 22:0.174835 23:-0.473738 24:-0.0723891 25:-0.871598 26:-0.498092 27:-0.965821 28:-0.701306 29:-0.802725 30:-0.717544 
-0 -0 -0 3649.037 1:-0.68203 2:-0.738541 3:-0.913135 4:-0.696599 5:-0.806952 6:-0.935897 7:-0.612912 8:0.295855 9:-0.458605 10:0.0594195 11:-0.494278 12:-0.0908058 13:-0.734223 14:-0.812634 15:-0.80823 16:-0.930819 17:-0.836228 18:-0.644405 19:-0.914998 20:-0.816535 21:-0.794499 22:0.478319 23:0.707853 24:0.0046594 25:-0.552672 26:0.137266 27:-0.924073 28:-0.726408 29:-0.796204 30:-0.760725 
-0 -0 -0 959.9477576427067 1:-0.807239 2:-0.794399 3:-0.874888 4:-0.831933 5:-0.791067 6:-0.927459 7:-0.187557 8:0.56847 9:0.0879396 10:-0.668565 11:0.0150114 12:-0.933969 13:-0.850235 14:-0.906635 15:-0.869085 16:-0.799201 17:-0.641088 18:-0.797132 19:-0.72553 20:-0.534602 21:-0.960614 22:-0.129826 23:0.49091 24:0.0287973 25:-0.762411 26:-0.364719 27:-0.938276 28:-0.694037 29:-0.733085 30:-0.651078 
-0 -0 -0 3649.037 1:-0.875829 2:-0.822927 3:-0.942033 4:-0.874246 5:-0.879849 6:-0.964736 7:-0.309551 8:0.182151 9:-0.0952798 10:-0.309019 11:-0.760727 12:-0.769112 13:-0.913787 14:-0.920721 15:-0.916703 16:-0.84016 17:-0.689311 18:-0.768554 19:-0.787265 20:-0.647307 21:-0.759094 22:-0.0586229 23:0.350387 24:-0.191593 25:-0.798452 26:-0.601161 27:-0.725319 28:-0.737565 29:-0.751718 30:-0.716286 
-0 -0 -3649.037 0 1:-0.475 2:-0.624539 3:-0.832684 4:-0.497658 5:-0.664991 6:-0.881076 7:-0.492337 8:0.530782 9:-0.387291 10:-0.329592 11:-0.0808641 12:-0.358533 13:-0.5424 14:-0.690156 15:-0.666113 16:-0.908591 17:-0.744651 18:-0.772951 19:-0.87207 20:-0.777609 21:-0.83215 22:-0.140165 23:-0.410838 24:0.12164 25:-0.778572 26:-0.389878 27:-0.815154 28:-0.787516 29:-0.726098 30:-0.744145 
-0 -0 -3649.037 0 1:-0.365371 2:-0.563064 3:-0.686855 4:-0.44877 5:-0.682401 6:-0.808121 7:-0.508302 8:0.378408 9:0.00668919 10:-0.127461 11:-0.353869 12:-0.802269 13:-0.440824 14:-0.678164 15:-0.618661 16:-0.894938 17:-0.833138 18:-0.705433 19:-0.830539 20:-0.706847 21:-0.715137 22:-0.0156325 23:-0.477742 24:-0.0489518 25:-0.507308 26:0.180681 27:-0.851651 28:-0.775684 29:-0.712589 30:-0.738155 
-0 -0 -1702.986132125924 0 1:-0.475478 2:-0.740957 3:-0.754438 4:-0.590539 5:-0.803859 6:-0.865233 7:-0.179823 8:0.165311 9:-0.271699 10:-0.657006 11:-0.627921 12:-0.552782 13:-0.542842 14:-0.796552 15:-0.726546 16:-0.6501 17:-0.855143 18:-0.741024 19:-0.463148 20:-0.811079 21:-0.751142 22:-0.328491 23:-0.541929 24:-0.0758455 25:-0.750452 26:-0.250347 27:-0.97868 28:-0.675274 29:-0.682776 30:-0.635671 
-0 -0 -1326.892467481887 1689.963131252068 1:-0.424948 2:-0.668065 3:-0.729573 4:-0.435118 5:-0.719157 6:-0.842622 7:-0.486761 8:0.445118 9:-0.0407527 10:-0.106524 11:-0.235109 12:-0.749448 13:-0.496024 14:-0.735514 15:-0.631488 16:-0.798535 17:-0.890819 18:-0.796818 19:-0.667396 20:-0.860761 21:-0.826759 22:0.337406 23:0.390066 24:-0.159996 25:-0.433069 26:-0.380738 27:-0.858165 28:-0.825973 29:-0.811343 30:-0.785804 
-0 -0 -0 1537.199061312437 1:-0.691946 2:-0.717441 3:-0.886728 4:-0.741632 5:-0.768186 6:-0.920973 7:-0.458063 8:0.577763 9:-0.481868 10:-0.306826 11:0.0283839 12:0.0101947 13:-0.743411 14:-0.807807 15:-0.815019 16:-0.767899 17:-0.883328 18:-0.836386 19:-0.710352 20:-0.833205 21:-0.860762 22:0.144549 23:0.661851 24:0.121095 25:-0.883714 26:-0.110579 27:-0.937246 28:-0.79487 29:-0.782928 30:-0.794301 
-0 -0 -0 3649.037 1:-0.389384 2:-0.595905 3:-0.807875 4:-0.461579 5:-0.700233 6:-0.910472 7:-0.33609 8:0.345635 9:-0.127452 10:-0.504785 11:-0.421756 12:-0.729763 13:-0.463073 14:-0.758742 15:-0.655169 16:-0.880619 17:-0.805515 18:-0.69643 19:-0.843132 20:-0.711218 21:-0.771998 22:0.294209 23:-0.355574 24:-0.0693706 25:-0.323157 26:-0.282064 27:-0.811255 28:-0.768415 29:-0.75591 30:-0.736193 
-0 -0 -2330.571478336193 3649.037 1:-0.0864183 2:-0.301537 3:-0.679029 4:-0.110492 5:-0.451355 6:-0.791518 7:-0.432614 8:0.506718 9:-0.151934 10:-0.1802 11:-0.121375 12:-0.751561 13:-0.182361 14:-0.496381 15:-0.401902 16:-0.799367 17:-0.702889 18:-0.506228 19:-0.674001 20:-0.553291 21:-0.391325 22:-0.145806 23:-0.316294 24:0.36524 25:-0.474678 26:-0.417039 27:-0.603078 28:-0.614842 29:-0.492722 30:-0.491757 
-0 -0 -3649.037 0 1:-0.519831 2:-0.582239 3:-0.84603 4:-0.603874 5:-0.741977 6:-0.890495 7:-0.329062 8:0.199047 9:-0.219708 10:-0.436869 11:-0.58032 12:-0.450199 13:-0.583938 14:-0.761433 15:-0.727654 16:-0.943556 17:-0.915633 18:-0.767612 19:-0.950754 20:-0.863246 21:-0.758993 22:0.419771 23:-0.345072 24:-0.224546 25:-0.583067 26:-0.0352423 27:-0.882934 28:-0.825889 29:-0.901945 30:-0.855436 
-0 -0 -3649.037 3649.037 1:-0.269829 2:-0.479238 3:-0.784403 4:-0.420219 5:-0.678608 6:-0.866595 7:-0.220616 8:0.0352362 9:0.0255682 10:-0.657557 11:-0.841817 12:-0.719435 13:-0.352299 14:-0.782656 15:-0.623376 16:-0.822428 17:-0.772368 18:-0.498692 19:-0.773779 20:-0.693797 21:-0.472001 22:-0.013029 23:-0.16325 24:0.0971206 25:-0.807681 26:-0.469247 27:-0.804355 28:-0.608756 29:-0.667404 30:-0.614219 
-0 -0 -0 3649.037 1:-0.286538 2:-0.473393 3:-0.889819 4:-0.389719 5:-0.638304 6:-0.928827 7:-0.431722 8:0.270673 9:-0.287237 10:-0.372737 11:-0.588734 12:-0.638851 13:-0.367781 14:-0.706716 15:-0.607742 16:-0.917915 17:-0.775832 18:-0.653303 19:-0.873686 20:-0.736616 21:-0.711834 22:0.425018 23:-0.444625 24:-0.185141 25:-0.439163 26:-0.35661 27:-0.90015 28:-0.733593 29:-0.78875 30:-0.748793 
-0 -0 -3649.037 1204.284994052862 1:-0.166841 2:-0.509357 3:-0.707604 4:-0.198061 5:-0.606387 6:-0.813683 7:-0.323752 8:0.505887 9:0.00767475 10:-0.402899 11:-0.197119 12:-0.8071 13:-0.256877 14:-0.584475 15:-0.473816 16:-0.817599 17:-0.971347 18:-0.649639 19:-0.699039 20:-0.977209 21:-0.689308 22:-0.483466 23:-0.000964314 24:-0.0778687 25:-0.429967 26:-0.897472 27:-0.966537 28:-0.730634 29:-0.860021 30:-0.746778 
-0 -0 -0 998.9938940862113 1:-0.102142 2:-0.337744 3:-0.694934 4:-0.169917 5:-0.538227 6:-0.813709 7:-0.274287 8:0.322678 9:-0.12252 10:-0.380257 11:-0.50087 12:-0.732661 13:-0.19693 14:-0.621161 15:-0.449352 16:-0.723526 17:-0.709818 18:-0.620747 19:-0.533925 20:-0.546207 21:-0.530718 22:-0.372277 23:-0.0136947 24:0.398705 25:-0.591586 26:-0.198989 27:-0.485651 28:-0.707307 29:-0.559567 30:-0.517876 
-2387.797984464783 -1061.879567691454 -3649.037 0 1:-0.0693451 2:-0.486639 3:-0.478286 4:-0.147708 5:-0.606473 6:-0.704851 7:-0.0931903 8:0.374936 9:-0.0885326 10:-0.620861 11:-0.377603 12:-0.901373 13:-0.166542 14:-0.619195 15:-0.420661 16:-0.755661 17:-0.913385 18:-0.659793 19:-0.527727 20:-0.901602 21:-0.644677 22:-0.761371 23:-0.389754 24:-0.222848 25:0.200097 26:-0.524954 27:-0.885442 28:-0.738833 29:-0.584255 30:-0.655923 
-0 -0 -0 3649.037 1:-0.940321 2:-0.974033 3:-0.996485 4:-0.939127 5:-0.957276 6:-0.993649 7:0.339694 8:-0.154252 9:0.0841523 10:-0.59634 11:-0.706439 12:-0.750662 13:-0.973542 14:-0.988589 15:-0.980291 16:-0.981269 17:-0.95983 18:-0.973621 19:-0.970526 20:-0.92289 21:-0.956831 22:0.162133 23:-0.418757 24:0.162688 25:-0.365745 26:0.0076699 27:-0.673983 28:-0.981744 29:-0.931757 30:-0.970984 
-0 -0 -0 3649.037 1:-0.919691 2:-0.970874 3:-1 4:-0.930989 5:-0.959469 6:-0.999411 7:0.221728 8:-0.0650342 9:-0.0521711 10:-0.75901 11:-0.802274 12:-0.918111 13:-0.954427 14:-0.992566 15:-0.980443 16:-0.974942 17:-0.949998 18:-0.921491 19:-0.973776 20:-0.910566 21:-0.913036 22:-0.025618 23:-0.424057 24:0.196986 25:-0.715415 26:-0.399069 27:-0.614686 28:-0.950133 29:-0.914988 30:-0.945143 
-0 -0 -3649.037 644.1902398830028 1:-0.860192 2:-0.919406 3:-0.860636 4:-0.888114 5:-0.933456 6:-0.921737 7:0.219397 8:-0.0816165 9:-0.0700673 10:-0.61788 11:-0.82302 12:-0.884076 13:-0.893787 14:-0.938888 15:-0.920888 16:-0.979104 17:-0.985673 18:-0.949649 19:-0.973061 20:-0.981384 21:-0.939857 22:-0.199345 23:0.254194 24:0.109243 25:-0.709116 26:-0.645359 27:-0.98627 28:-0.972869 29:-1 30:-0.992757 
-0 -0 -2886.437354378269 0 1:-0.783888 2:-0.916907 3:-0.932929 4:-0.845159 5:-0.935321 6:-0.957009 7:0.118757 8:0.094484 9:0.213628 10:-0.92517 11:-0.95276 12:-0.788956 13:-0.8286 14:-0.961827 15:-0.917582 16:-0.9498 17:-0.913105 18:-0.911965 19:-0.920181 20:-0.850308 21:-0.88861 22:0.0280083 23:-0.568694 24:0.219463 25:-0.585947 26:-0.148188 27:-0.627771 28:-0.939568 29:-0.856527 30:-0.900132 
-0 -0 -3649.037 0 1:-0.93198 2:-0.934661 3:-0.893032 4:-0.944383 5:-0.905575 6:-0.957028 7:0.0408847 8:0.745438 9:-0.0470361 10:-0.816212 11:0.336268 12:-0.720737 13:-0.92676 14:-0.956174 15:-0.949104 16:-0.952214 17:-0.935765 18:-0.914058 19:-0.948503 20:-0.916045 21:-0.985271 22:-0.103821 23:-0.723779 24:0.0401811 25:-0.653863 26:0.384936 27:-0.743284 28:-0.944132 29:-0.920112 30:-0.941565 
-307.987547565584 -2700.609287196907 -3649.037 0 1:-0.904066 2:-0.926464 3:-0.941837 4:-0.919208 5:-0.938135 6:-0.963716 7:0.441897 8:-0.0866664 9:0.119089 10:-0.33542 11:-0.858726 12:-0.926942 13:-0.93995 14:-0.965704 15:-0.95887 16:-0.969447 17:-0.967882 18:-0.930074 19:-0.942339 20:-0.928171 21:-0.918844 22:-0.55576 23:-0.750613 24:0.113426 25:0.151273 26:0.43267 27:-0.83302 28:-0.957064 29:-0.914056 30:-0.95226 
-535.3875360886391 -3649.037 -3649.037 3649.037 1:-0.901203 2:-0.93758 3:-0.901897 4:-0.902372 5:-0.944562 6:-0.941108 7:0.461384 8:-0.211579 9:0.0251427 10:-0.326033 11:-0.765652 12:-0.936384 13:-0.935783 14:-0.960157 15:-0.941662 16:-0.961372 17:-0.991011 18:-0.929446 19:-0.951467 20:-0.996434 21:-0.911678 22:0.146672 23:0.0583277 24:0.0678333 25:-0.505524 26:-0.790605 27:-0.84207 28:-0.956557 29:-0.979737 30:-0.975704 
-1593.483349025873 -0 -1654.586577131932 0 1:-0.841528 2:-0.921918 3:-0.93404 4:-0.843165 5:-0.936171 6:-0.940046 7:-0.488371 8:0.00945894 9:-0.207632 10:-0.109141 11:-0.968452 12:-0.27983 13:-0.882006 14:-0.925266 15:-0.910548 16:-0.982184 17:-0.96189 18:-0.951638 19:-0.969228 20:-0.927621 21:-0.942325 22:0.129741 23:-0.468904 24:0.0810687 25:-0.478604 26:-0.161761 27:-0.775603 28:-0.974475 29:-0.938512 30:-0.968953 
-0 -0 -2921.136633221058 0 1:-0.779588 2:-0.881057 3:-0.852912 4:-0.719424 5:-0.88462 6:-0.887244 7:-0.741862 8:0.236905 9:-0.553962 10:0.381775 11:-0.624783 12:-0.0104671 13:-0.824616 14:-0.814918 15:-0.821769 16:-0.963953 17:-0.930334 18:-0.954569 19:-0.95495 20:-0.843915 21:-0.944081 22:-0.200291 23:0.822699 24:-0.00177745 25:-0.728159 26:0.683396 27:-0.939022 28:-0.95512 29:-0.897287 30:-0.92029 
-3102.52497781245 -0 -0 3649.037 1:-0.87848 2:-0.903289 3:-0.958965 4:-0.918419 5:-0.918195 6:-0.980118 7:-0.0127065 8:-0.159464 9:0.0980241 10:-0.953087 11:-0.718789 12:-0.809057 13:-0.916243 14:-0.981443 15:-0.957528 16:-0.95954 17:-0.936514 18:-0.938763 19:-0.936685 20:-0.900336 21:-0.928199 22:-0.00685543 23:-0.482727 24:-0.00370484 25:-0.356984 26:-0.138244 27:-0.877121 28:-0.960698 29:-0.899616 30:-0.940217 
-3649.037 -3649.037 -3649.037 3649.037 1:-0.86971 2:-0.971393 3:-0.96254 4:-0.873171 5:-0.967097 6:-0.966808 7:0.374774 8:-0.242022 9:0.487114 10:-0.424057 11:-0.564528 12:-0.255268 13:-0.908118 14:-0.944827 15:-0.940069 16:-0.974192 17:-0.979213 18:-0.977389 19:-0.95074 20:-0.982456 21:-0.9541 22:0.754637 23:0.565429 24:-0.401364 25:0.111334 26:-0.00219536 27:-0.620523 28:-0.995267 29:-0.948294 30:-0.989083 
-0 -3360.952038151111 -357.2244510664731 0 1:-0.837018 2:-0.814369 3:-0.906407 4:-0.821327 5:-0.768015 6:-0.938515 7:-0.434527 8:0.79209 9:-0.499493 10:-0.142073 11:0.449217 12:-0.160994 13:-0.877827 14:-0.844648 15:-0.862594 16:-0.934565 17:-0.945035 18:-0.896472 19:-0.89754 20:-0.894819 21:-0.891911 22:-0.513166 23:0.507562 24:-0.0727984 25:-0.223301 26:0.138886 27:-0.941257 28:-0.929933 29:-0.925236 30:-0.916446 
-169.4171592090468 -0 -0 3649.037 1:-0.656677 2:-0.637308 3:-0.835057 4:-0.60842 5:-0.757159 6:-0.89477 7:-0.520376 8:0.134104 9:0.231468 10:-0.221245 11:-0.771107 12:-0.793379 13:-0.710733 14:-0.799971 15:-0.736056 16:-0.886364 17:-0.93024 18:-0.901392 19:-0.790521 20:-0.908833 21:-0.92615 22:-0.654246 23:-0.512013 24:-0.0889681 25:0.178951 26:-0.132441 27:-0.944675 28:-0.915142 29:-0.846046 30:-0.878466 
-0 -693.5773463583685 -0 3649.037 1:-0.889411 2:-0.807766 3:-0.864367 4:-0.871742 5:-0.846808 6:-0.922363 7:-0.436187 8:0.264974 9:-0.143131 10:-0.151086 11:-0.543066 12:-0.868748 13:-0.897584 14:-0.923227 15:-0.895759 16:-0.790959 17:-0.847558 18:-0.854705 19:-0.722136 20:-0.792224 21:-0.896788 22:0.0198711 23:0.450318 24:-0.152715 25:-0.791174 26:-0.297918 27:-0.823381 28:-0.818282 29:-0.839758 30:-0.79703 
-0 -0 -3649.037 0 1:-0.808102 2:-0.958271 3:-0.83699 4:-0.800084 5:-0.959586 6:-0.893067 7:-0.413605 8:0.0661648 9:-0.0413689 10:-0.4183 11:-0.818054 12:-0.721103 13:-0.851035 14:-0.907738 15:-0.871259 16:-0.93315 17:-0.908891 18:-0.904219 19:-0.921133 20:-0.89117 21:-0.90556 22:0.0906281 23:0.379563 24:0.242638 25:-0.878779 26:-0.541277 27:-0.853633 28:-0.935765 29:-0.96879 30:-0.925006 
-0 -3649.037 -3649.037 3649.037 1:-0.841838 2:-0.804004 3:-0.865525 4:-0.886484 5:-0.843001 6:-0.93103 7:0.131587 8:0.347568 9:0.0610356 10:-0.93901 11:-0.436638 12:-0.905435 13:-0.882292 14:-0.963056 15:-0.90059 16:-0.914419 17:-0.97322 18:-0.875118 19:-0.883473 20:-0.970938 21:-0.866257 22:-0.271622 23:-0.213984 24:-0.0908352 25:-0.691215 26:-0.781077 27:-0.946556 28:-0.912691 29:-0.939909 30:-0.926466 
-2598.222894331947 -0 -0 0 1:-0.941633 2:-0.881362 3:-0.917684 4:-0.921394 5:-0.821699 6:-0.940754 7:-0.512517 8:0.801119 9:-0.538914 10:-0.0436948 11:0.525034 12:-0.0157916 13:-0.951852 14:-0.893641 15:-0.917542 16:-0.968698 17:-0.963294 18:-0.992044 19:-0.93746 20:-0.895469 21:-0.976287 22:-0.676934 23:0.910476 24:0.0763038 25:0.225126 26:0.819394 27:-0.896924 28:-0.984871 29:-0.92477 30:-0.953579 
-0 -0 -0 3649.037 1:-0.749588 2:-0.888733 3:-0.889928 4:-0.744261 5:-0.921729 6:-0.936058 7:-0.433619 8:-0.032211 9:-0.0459243 10:-0.139107 11:-0.908527 12:-0.913656 13:-0.796819 14:-0.906288 15:-0.853932 16:-0.891275 17:-0.686034 18:-0.937925 19:-0.837588 20:-0.608807 21:-0.878935 22:0.0901036 23:0.00612355 24:0.564727 25:-0.658433 26:-0.550999 27:-0.191911 28:-0.734607 29:-0.741237 30:-0.739124 
-2752.717387373722 -3445.798182458767 -0 2548.571578669531 1:-0.941809 2:-0.778781 3:-0.905889 4:-0.955693 5:-0.774243 6:-0.937858 7:0.0459639 8:0.565495 9:-0.234006 10:-0.802406 11:-0.072329 12:-0.59076 13:-0.905234 14:-0.955997 15:-0.908914 16:-0.910589 17:-0.711597 18:-0.980844 19:-0.856731 20:-0.627502 21:-0.963641 22:0.312461 23:0.303657 24:-0.257302 25:-0.434475 26:-0.394622 27:-0.684485 28:-0.757681 29:-0.756609 30:-0.760617 
-0 -0 -0 3649.037 1:-0.728341 2:-0.800181 3:-0.864451 4:-0.61029 5:-0.806272 6:-0.899381 7:-0.841986 8:-0.0872068 9:-0.304132 10:0.620493 11:-0.327806 12:-0.238348 13:-0.777132 14:-0.808503 15:-0.754532 16:-0.896354 17:-0.688749 18:-0.957605 19:-0.852363 20:-0.603575 21:-0.900998 22:0.0587616 23:-0.108843 24:0.695959 25:-0.600773 26:-0.43385 27:0.260484 28:-0.737058 29:-0.761966 30:-0.738187 
-3649.037 -1847.599360277171 -0 3649.037 1:-0.805897 2:-0.699114 3:-0.809968 4:-0.808442 5:-0.777852 6:-0.844509 7:-0.150075 8:-0.419885 9:0.401097 10:-0.458777 11:-0.442902 12:-0.520202 13:-0.842216 14:-0.850279 15:-0.820931 16:-0.929987 17:-0.745962 18:-0.976028 19:-0.861936 20:-0.600679 21:-0.972229 22:0.638327 23:0.597698 24:-0.163204 25:-0.233088 26:-0.108319 27:-0.810041 28:-0.7887 29:-0.720042 30:-0.742345 
-1497.661284180932 -0 -3649.037 0 1:-0.641148 2:-0.9049 3:-0.80036 4:-0.566396 5:-0.879597 6:-0.77826 7:-0.622227 8:-0.532125 9:-0.781606 10:-0.0882787 11:-0.0103679 12:0.559142 13:-0.696344 14:-0.715962 15:-0.695531 16:-0.843823 17:-0.569549 18:-0.871349 19:-0.767337 20:-0.442125 21:-0.736276 22:0.177051 23:0.13453 24:-1 25:-0.636728 26:-0.378142 27:0.984838 28:-0.629464 29:-0.53581 30:-0.591361 
-0 -0 -0 3649.037 1:-0.825366 2:-0.811583 3:-0.912778 4:-0.792232 5:-0.843722 6:-0.928924 7:-0.501693 8:-0.198051 9:0.360337 10:0.0458409 11:-0.488369 12:-0.321012 13:-0.86703 14:-0.868713 15:-0.866117 16:-0.844156 17:-0.514584 18:-1 19:-0.710784 20:-0.34901 21:-0.971821 22:0.593134 23:0.457911 24:0.413351 25:-0.273836 26:-0.478359 27:-0.436982 28:-0.57985 29:-0.533947 30:-0.507743 
-0 -0 -0 2503.754330822514 1:-0.715151 2:-0.93125 3:-0.908581 4:-0.647477 5:-0.919148 6:-0.922534 7:-0.823412 8:-0.412704 9:-0.0217621 10:0.576581 11:-0.115245 12:-0.344678 13:-0.764911 14:-0.842547 15:-0.799032 16:-0.943556 17:-0.909827 18:-0.976866 19:-0.919434 20:-0.907885 21:-0.951213 22:0.343523 23:-0.0876675 24:-0.205979 25:-0.560856 26:-0.603784 27:-0.621738 28:-0.93661 29:-0.941307 30:-0.943699 
-227.1502840035332 -0 -0 0 1:-0.813796 2:-0.768671 3:-0.784063 4:-0.84722 5:-0.75571 6:-0.816491 7:-0.0946145 8:0.737863 9:-0.0499379 10:-0.797971 11:0.368463 12:-0.356801 13:-0.81585 14:-0.899966 15:-0.810902 16:-0.824842 17:-0.438738 18:-0.992358 19:-0.71032 20:-0.228271 21:-0.968945 22:0.302514 23:0.423462 24:-0.255847 25:-0.526844 26:-0.495075 27:-0.786504 28:-0.511389 29:-0.482473 30:-0.446451 
-0 -0 -3649.037 655.3425057085425 1:-0.815138 2:-0.785431 3:-0.961922 4:-0.836796 5:-0.824595 6:-0.964072 7:0.250114 8:0.615983 9:-0.284428 10:-0.692464 11:0.112051 12:-0.332505 13:-0.857554 14:-0.924091 15:-0.886114 16:-0.969281 17:-0.809261 18:-0.945148 19:-0.948007 20:-0.796898 21:-0.939758 22:-0.604437 23:-0.284206 24:0.294796 25:0.193688 26:0.158104 27:-0.384562 28:-0.845835 29:-0.821591 30:-0.861998 
-0 -0 -3649.037 0 1:-0.776284 2:-0.670721 3:-0.791633 4:-0.811394 5:-0.697823 6:-0.857228 7:0.435816 8:0.596402 9:-0.236845 10:-0.389836 11:0.00721204 12:-0.626559 13:-0.821554 14:-0.898559 15:-0.802232 16:-0.8832 17:-0.526944 18:-0.899089 19:-0.832609 20:-0.354847 21:-0.886738 22:-0.450325 23:0.508629 24:-0.09805 25:-0.411304 26:-0.313381 27:-0.951279 28:-0.591007 29:-0.606615 30:-0.543209 
-0 -0 -3649.037 0 1:-0.665007 2:-0.640847 3:-0.861512 4:-0.616674 5:-0.693328 6:-0.866578 7:0.437699 8:0.330337 9:0.243513 10:-0.497448 11:-0.175617 12:-0.208097 13:-0.71845 14:-0.782107 15:-0.716179 16:-0.870463 17:-0.556627 18:-0.876688 19:-0.814812 20:-0.428611 21:-0.831013 22:0.250026 23:-0.437866 24:0.468404 25:-0.651004 26:-0.401122 27:-0.40423 28:-0.6178 29:-0.595435 30:-0.611019 
-0 -0 -3649.037 0 1:-0.565138 2:-0.658426 3:-0.889225 4:-0.603349 5:-0.677825 6:-0.88123 7:0.0344902 8:0.615683 9:0.85413 10:-0.563882 11:0.13447 12:0.4812 13:-0.625917 14:-0.736099 15:-0.720673 16:-0.836497 17:-0.510558 18:-0.78635 19:-0.729011 20:-0.36459 21:-0.716956 22:0.269688 23:-0.420588 24:0.441854 25:-0.442825 26:-0.450178 27:-0.542289 28:-0.576216 29:-0.522767 30:-0.528586 
-245.1322410049902 -0 -3649.037 0 1:-0.375481 2:-0.723296 3:-0.537731 4:-0.14416 5:-0.774829 6:-0.516111 7:-0.801014 8:0.0910294 9:-0.859409 10:0.5398 11:-0.715521 12:0.6629 13:-0.450191 14:-0.332171 15:-0.348292 16:-0.791958 17:-0.133105 18:-0.838899 19:-0.700832 20:0.0912834 21:-0.78638 22:0.19401 23:0.128856 24:-0.0385439 25:-0.693055 26:-0.466973 27:-0.507445 28:-0.235515 29:-0.364388 30:-0.240249 
-0 -0 -3649.037 0 1:-0.183394 2:-0.628757 3:-0.317167 4:-0.139133 5:-0.504236 6:-0.646736 7:-0.593437 8:0.937662 9:-0.4515 10:-0.229324 11:0.811312 12:-0.0397907 13:-0.272213 14:-0.421293 15:-0.351872 16:-0.686314 17:-0.407182 18:-0.418717 19:-0.598823 20:-0.156644 21:-0.620118 22:0.119415 23:0.254312 24:0.265255 25:-0.713924 26:-0.169378 27:-0.542032 28:-0.482906 29:-0.396995 30:-0.297908 
-0 -0 -3649.037 0 1:-0.621392 2:-0.71319 3:-0.769516 4:-0.605985 5:-0.698707 6:-0.854611 7:0.298034 8:0.715978 9:0.124847 10:-0.5851 11:0.304373 12:-0.832868 13:-0.678039 14:-0.805669 15:-0.716343 16:-0.767399 17:-0.483309 18:-0.726369 19:-0.66078 20:-0.31896 21:-0.657566 22:0.133076 23:0.499479 24:0.0251069 25:-0.819673 26:0.0372153 27:-0.702184 28:-0.551621 29:-0.569815 30:-0.475114 
-0 -0 -0 1148.780269867876 1:-0.74828 2:-0.63727 3:-0.867988 4:-0.750379 5:-0.587721 6:-0.904565 7:-0.338387 8:0.781748 9:0.316602 10:-0.259603 11:0.339667 12:-0.339448 13:-0.795607 14:-0.850724 15:-0.765868 16:-0.801532 17:-0.47123 18:-0.867686 19:-0.715055 20:-0.370129 21:-0.859005 22:0.149542 23:-0.00247823 24:0.213944 25:-0.625358 26:-0.632821 27:-0.799391 28:-0.540718 29:-0.614767 30:-0.552653 
-3649.037 -3649.037 -0 3649.037 1:-0.891364 2:-0.924354 3:-0.923012 4:-0.888626 5:-0.938443 6:-0.951759 7:0.132086 8:-0.072826 9:-0.0703093 10:-0.548121 11:-0.908022 12:-0.858905 13:-0.928181 14:-0.985328 15:-0.938476 16:-0.86372 17:-0.800272 18:-0.775463 19:-0.808825 20:-0.753173 21:-0.890266 22:0.149662 23:0.499453 24:-0.314752 25:-0.712533 26:-0.0911995 27:-0.555574 28:-0.832228 29:-0.808082 30:-0.787576 
-0 -0 -1444.500898185478 0 1:-0.749184 2:-0.797821 3:-0.858549 4:-0.74376 5:-0.827157 6:-0.91498 7:-0.0505474 8:0.366034 9:-0.0539991 10:-0.534415 11:-0.420636 12:-0.885641 13:-0.796445 14:-0.877684 15:-0.833412 16:-0.784299 17:-0.709631 18:-0.88569 19:-0.678033 20:-0.604574 21:-0.908076 22:-0.169579 23:0.574225 24:-0.65459 25:-0.697102 26:0.0348093 27:0.0835298 28:-0.755906 29:-0.682776 30:-0.692209 
-0 -3649.037 -0 3649.037 1:-0.870636 2:-0.809137 3:-0.964495 4:-0.878909 5:-0.86651 6:-0.968019 7:-0.547932 8:-0.0596453 9:-0.235642 10:-0.0628642 11:-0.758827 12:-0.617686 13:-0.908975 14:-0.943542 15:-0.91668 16:-0.878705 17:-0.826584 18:-0.77159 19:-0.877912 20:-0.831818 21:-0.700815 22:0.179645 23:0.327207 24:-0.512543 25:-0.752098 26:-0.439322 27:-0.0629296 28:-0.8291 29:-0.767789 30:-0.787739 
-0 -0 -907.0239053935126 0 1:-0.615353 2:-0.616062 3:-0.839887 4:-0.546755 5:-0.715673 6:-0.879036 7:-0.591256 8:0.300782 9:0.48446 10:-0.255735 11:-0.679832 12:-0.556863 13:-0.672444 14:-0.768953 15:-0.689854 16:-0.893773 17:-0.775739 18:-0.877839 19:-0.898762 20:-0.756308 21:-0.89465 22:0.164937 23:-0.153826 24:0.0979007 25:-0.85801 26:-0.532155 27:-0.773833 28:-0.815577 29:-0.850239 30:-0.81331 
-2180.43483672546 -0 -0 0 1:-0.698212 2:-0.906329 3:-0.92373 4:-0.552904 5:-0.920698 6:-0.957741 7:-0.886959 8:0.107124 9:-0.195662 10:0.715543 11:-0.791369 12:-0.861041 13:-0.749217 14:-0.805771 15:-0.751052 16:-0.814519 17:-0.715155 18:-0.785826 19:-0.818591 20:-0.742325 21:-0.870865 22:0.275097 23:0.244266 24:-0.295231 25:-0.588338 26:-0.590466 27:-0.739473 28:-0.760893 29:-0.808315 30:-0.756494 
-0 -0 -443.7918847657302 0 1:-0.359158 2:-0.777403 3:-0.855211 4:-0.2437 5:-0.796528 6:-0.923942 7:-0.756166 8:0.452116 9:0.0814195 10:0.347916 11:-0.179503 12:-0.945725 13:-0.435067 14:-0.696725 15:-0.552646 16:-0.837413 17:-0.667307 18:-0.847168 19:-0.771476 20:-0.659189 21:-0.883866 22:0.0109344 23:0.0774018 24:0.125099 25:-0.557007 26:-0.756264 27:-0.52069 28:-0.717703 29:-0.803657 30:-0.728413 
-0 -0 -0 3649.037 1:-0.879788 2:-0.789252 3:-0.959368 4:-0.905295 5:-0.848988 6:-0.972938 7:-0.191187 8:0.355019 9:-0.068388 10:-0.63252 11:-0.409832 12:-0.779254 13:-0.91168 14:-0.958127 15:-0.921509 16:-0.894522 17:-0.889602 18:-0.886004 19:-0.868141 20:-0.899617 21:-0.943777 22:-0.230259 23:-0.228991 24:-0.0458124 25:-0.705908 26:-0.774104 27:-0.830091 28:-0.918354 29:-0.894725 30:-0.880085 
-0 -0 -3649.037 0 1:-0.641545 2:-0.918153 3:-0.912191 4:-0.561515 5:-0.927494 6:-0.943903 7:0.695569 8:-0.204206 9:0.117759 10:0.237873 11:-0.798096 12:-0.919842 13:-0.696712 14:-0.819356 15:-0.745981 16:-0.430819 17:0.105389 18:-0.538888 19:-0.570531 20:0.199019 21:-0.359673 22:0.0245059 23:0.406414 24:-0.521236 25:-0.872865 26:-0.256166 27:-0.103875 28:-0.0202425 29:-0.0758123 30:0.0271301 
-0 -0 -90.65983549140506 0 1:0.0762495 2:-0.150595 3:-0.216146 4:0.0185851 5:-0.424682 6:-0.515547 7:-0.0912672 8:0.218226 9:0.290584 10:-0.578765 11:-0.712731 12:-0.775841 13:-0.0316414 14:-0.540832 15:-0.23195 16:0.487762 17:0.874807 18:-0.402805 19:0.350556 20:0.66915 21:-0.347636 22:0.379726 23:0.610032 24:-0.0785783 25:-0.6638 26:0.118364 27:-0.703862 28:0.674259 29:0.252125 30:0.786806 
-0 -711.7282573565872 -933.8722119876279 3649.037 1:-0.411423 2:-0.148325 3:-0.552279 4:-0.524745 5:0.0682783 6:-0.71031 7:0.348026 8:-0.996545 9:-0.195856 10:-0.717933 11:0.986886 12:-0.68381 13:-0.483493 14:-0.527777 15:-0.397459 16:-0.226024 17:-0.150522 18:-0.523815 19:-0.272133 20:-0.423291 21:-0.490982 22:0.12168 23:-0.0562948 24:-0.183732 25:-0.88093 26:-0.969062 27:-0.869376 28:-0.244728 29:-0.310586 30:-0.0672852 
-796.4895756267712 -447.0447545224623 -3649.037 317.5679246743138 1:-0.281293 2:-0.398728 3:-0.553242 4:-0.380519 5:-0.453686 6:-0.707281 7:0.105062 8:0.796945 9:0.0714628 10:-0.743772 11:0.50831 12:-0.705376 13:-0.362921 14:-0.665692 15:-0.494101 16:-0.528055 17:-0.412145 18:-0.542343 19:-0.314777 20:-0.293067 21:-0.674737 22:-0.264675 23:-0.510221 24:-0.457332 25:-0.260563 26:-0.354882 27:-0.330598 28:-0.487385 29:-0.136602 30:-0.264254 
-0 -3649.037 -0 3649.037 1:-0.635116 2:-0.325981 3:-0.663065 4:-0.722721 5:-0.465627 6:-0.75598 7:-0.276262 8:0.474047 9:0.345506 10:-0.780327 11:-0.467719 12:-0.38256 13:-0.62647 14:-0.749807 15:-0.656728 16:-0.548285 17:-0.547076 18:-0.671936 19:-0.501196 20:-0.554599 21:-0.815193 22:0.20373 23:0.385604 24:-0.124365 25:-0.844915 26:-0.324138 27:-0.890353 28:-0.571905 29:-0.720275 30:-0.50354 
-0 -1096.432192444182 -1844.955091262752 3649.037 1:-0.0699358 2:-0.28047 3:-0.469 4:-0.11349 5:-0.42442 6:-0.644404 7:0.0740496 8:0.231915 9:0.209614 10:-0.432124 11:-0.54393 12:-0.726467 13:-0.167089 14:-0.544867 15:-0.345671 16:0.201965 17:0.0895641 18:-0.0935832 19:0.341556 20:0.169089 21:0.000141768 22:0.3145 23:0.182483 24:-0.0741291 25:-0.733392 26:-0.567498 27:-0.614795 28:0.18979 29:-0.0737161 30:0.386154 
