svm_type c_svc
kernel_type rbf
gamma 0.125
nr_class 5
total_sv 410
rho -0.10209 -0.983506 -0.847501 -0.357087 0.134906 -0.0910973 0.5294 -0.0480309 -1.26371 -0.0756032
label 1 2 3 4 5
probA -2.25596 -2.14155 -2.3276 -2.11807 -2.6503 -2.78991 -2.37337 -1.14778 -1.44818 -1.36047
probB 0.0705335 0.0269995 -0.131784 0.00704362 0.104285 0.0760574 0.0577596 -0.0185391 0.0229923 -0.00232402
nr_sv 75 67 90 92 86
SV
1.207679829589803 0 0 2.276447362576258 1:-0.322596 2:0.129499 3:-0.285556 4:-0.442453 5:-0.373728 6:-0.522454 7:-0.143313 8:-0.230969 9:0.175307 10:-0.620546 11:-0.844606 12:-0.826453 13:-0.323936 14:-0.640903 15:-0.345719 16:0.0396844 17:0.603252 18:-0.471725 19:0.214422 20:0.585332 21:-0.647541 22:-0.43593 23:0.662336 24:0.199822 25:-0.410613 26:-0.247035 27:-0.74757 28:0.593754 29:1 30:0.788577 
22.627 22.627 22.627 22.627 1:-0.730888 2:-0.545644 3:-0.712 4:-0.8151 5:-0.768434 6:-0.857004 7:0.321907 8:0.276088 9:0.0833401 10:-0.672648 11:-0.691638 12:-0.867303 13:-0.732642 14:-0.904142 15:-0.772797 16:-0.42304 17:-0.761253 18:-0.698699 19:-0.552793 20:-0.814074 21:-0.654005 22:0.163549 23:0.390287 24:0.217553 25:-0.886932 26:-0.56718 27:-0.680238 28:-0.595684 29:-0.624286 30:-0.618046 
18.54280303070587 0 0 0 1:-0.836091 2:-0.853485 3:-0.740449 4:-0.849034 5:-0.877664 6:-0.795499 7:0.510341 8:0.566588 9:0.246311 10:-0.487144 11:-0.225214 12:-0.457973 13:-0.789295 14:-0.831376 15:-0.832846 16:-0.624903 17:-0.767116 18:-0.365323 19:-0.506092 20:-0.82843 21:-0.530266 22:-0.806616 23:0.0907375 24:0.420224 25:0.58501 26:-0.84711 27:-0.635201 28:-0.688009 29:-0.56226 30:-0.616994 
0.2914309126298808 22.627 22.627 8.632889338440782 1:-0.277586 2:-0.407801 3:-0.668851 4:-0.367763 5:-0.641025 6:-0.723343 7:0.515946 8:0.261858 9:0.487294 10:-0.3548 11:-0.848905 12:-0.0828501 13:-0.278881 14:-0.564378 15:-0.450799 16:-0.911272 17:-0.652383 18:-0.713255 19:-0.905888 20:-0.689423 21:-0.794492 22:0.00511377 23:0.48415 24:-0.0165992 25:-0.813107 26:-0.663643 27:-1 28:-0.691939 29:-0.696243 30:-0.640808 
0.1380381295917762 6.854697569664841 1.004937056665623 0 1:-0.169418 2:-0.194661 3:-0.305856 4:-0.333291 5:-0.517494 6:-0.476602 7:0.012754 8:-0.127512 9:0.400913 10:-0.732121 11:-0.740781 12:-0.713111 13:-0.170603 14:-0.61414 15:-0.318124 16:-0.588659 17:-0.635494 18:-0.392761 19:-0.516191 20:-0.655979 21:-0.825182 22:0.584984 23:-0.674734 24:0.350545 25:-0.292828 26:0.155327 27:-0.425989 28:-0.674646 29:-0.442893 30:-0.520182 
0 0 0 4.712363498027335 1:-0.379852 2:-0.496469 3:-0.437141 4:-0.336258 5:-0.676339 6:-0.651296 7:0.703308 8:0.387756 9:-0.0717902 10:0.13535 11:-0.599952 12:-0.90154 13:-0.38125 14:-0.583241 15:-0.41789 16:-0.107217 17:-0.565287 18:0.629782 19:-0.115489 20:-0.621496 21:0.593062 22:-0.0277903 23:-0.108487 24:0.492885 25:-0.75847 26:-0.543443 27:-0.501764 28:-0.135987 29:-0.0690528 30:-0.0521117 
2.954305749444013 3.8957567407814 3.247535431990731 0 1:0.31132 2:0.0046771 3:-0.45528 4:0.119278 5:-0.382179 6:-0.618134 7:0.0108207 8:-0.10981 9:0.216782 10:-0.663676 11:-0.614332 12:-0.58896 13:0.310623 14:-0.449267 15:-0.0441003 16:-0.367161 17:-0.457813 18:-0.140925 19:-0.244375 20:-0.567585 21:-0.0838678 22:-0.587264 23:-0.0796917 24:0.594897 25:0.164123 26:-0.663834 27:-0.231131 28:-0.492711 29:-0.0639933 30:-0.266098 
1.624710023072484 0.6201824158172389 0.1506398392872022 0 1:0.790993 2:0.0298833 3:0.252163 4:0.800652 5:-0.354139 6:0.522949 7:-0.318394 8:-0.211759 9:-0.946501 10:-0.367918 11:-0.672064 12:0.865166 13:0.790781 14:0.622427 15:0.860174 16:-0.490297 17:-0.603392 18:0.42767 19:-0.441225 20:-0.65792 21:0.407445 22:-0.337096 23:0.494703 24:0.627164 25:-0.478953 26:-0.430924 27:-0.133032 28:-0.248106 29:-0.0817952 30:-0.226625 
6.520304052070082 10.08768988801772 0.9395910626077331 3.223613331493318 1:-0.783574 2:-0.380581 3:-0.69032 4:-0.821676 5:-0.494675 6:-0.689835 7:-0.177215 8:-0.726469 9:0.660833 10:-0.505424 11:0.311119 12:-0.0822116 13:-0.668232 14:-0.790019 15:-0.636396 16:-0.75749 17:-0.734455 18:-0.900554 19:-0.739092 20:-0.793882 21:-0.896458 22:0.276897 23:-0.456277 24:-0.3341 25:-0.45904 26:-0.0670469 27:-0.736344 28:-0.775975 29:-0.747587 30:-0.753295 
0 3.779674995033482 2.183214923021396 0 1:-0.497595 2:-0.798151 3:-0.680683 4:-0.153844 5:-0.808188 6:-0.684273 7:-0.925666 8:-0.744587 9:0.764001 10:0.837716 11:0.395496 12:0.388765 13:-0.499112 14:-0.498464 15:-0.315982 16:-0.788228 17:-0.8845 18:-0.930568 19:-0.76896 20:-0.906216 21:-0.905208 22:0.340804 23:0.29548 24:0.538146 25:-0.619415 26:-0.822592 27:-0.051926 28:-0.880091 29:-0.868266 30:-0.861973 
0 0.3648414949894539 1.065065405104967 0 1:-0.237183 2:-0.336939 3:-0.222724 4:0.371286 5:-0.537384 6:-0.1485 7:-1 8:-0.61603 9:-0.556968 10:1 11:0.0986351 12:0.24317 13:-0.238437 14:0.260898 15:0.280739 16:-0.679589 17:-0.907111 18:-0.504315 19:-0.643805 20:-0.928222 21:-0.611401 22:0.497288 23:0.434117 24:0.318097 25:-0.553941 26:-0.670474 27:-0.734288 28:-0.765114 29:-0.768388 30:-0.725305 
22.627 0 0 22.627 1:-0.867013 2:-0.756011 3:-0.923354 4:-0.909647 5:-0.858917 6:-0.944882 7:0.420986 8:0.310254 9:0.209048 10:-0.648507 11:-0.68088 12:-0.858911 13:-0.868904 14:-0.946944 15:-0.93304 16:-0.547002 17:-0.851909 18:-0.61149 19:-0.397954 20:-0.883305 21:-0.68945 22:0.0120015 23:0.183716 24:0.0392561 25:-0.384297 26:-0.787546 27:-0.936079 28:-0.692225 29:-0.70149 30:-0.62288 
1.453173482755262 0 0.8055709987680911 0 1:-0.682703 2:-0.762514 3:-0.676069 4:-0.618502 5:-0.859594 6:-0.674019 7:0.885735 8:0.238815 9:0.598136 10:0.69317 11:-0.766122 12:-0.313823 13:-0.684408 14:-0.666054 15:-0.63454 16:-0.781897 17:-0.901808 18:-0.830736 19:-0.712497 20:-0.876847 21:-0.82829 22:-0.588236 23:-0.877814 24:0.0810797 25:0.182044 26:0.697793 27:-0.868538 28:-0.875161 29:-0.688747 30:-0.800384 
7.334983932604877 0 0 0 1:-0.560984 2:-0.207327 3:-0.442926 4:-0.613072 5:-0.553138 6:-0.432228 7:-0.341439 8:-0.0507863 9:0.816198 10:-0.251735 11:-0.857501 12:0.432317 13:-0.547764 14:-0.483659 15:-0.434262 16:-0.281552 17:-0.696769 18:-0.195929 19:-0.214368 20:-0.68937 21:-0.358002 22:-0.343972 23:-0.636528 24:0.0608675 25:-0.261359 26:0.113761 27:-0.988531 28:-0.485494 29:-0.248759 30:-0.368371 
10.07849831543169 0 0 0 1:-0.617794 2:-0.458995 3:-0.564006 4:-0.713654 5:-0.675446 6:-0.59564 7:-0.376701 8:-0.0745031 9:0.552603 10:-0.45547 11:-0.767027 12:-0.418241 13:-0.619433 14:-0.74555 15:-0.608442 16:-0.630408 17:-0.857701 18:-0.36674 19:-0.508229 20:-0.885017 21:-0.453319 22:0.570309 23:0.0415283 24:0.435623 25:-0.55606 26:-0.787838 27:-0.588844 28:-0.688795 29:-0.594678 30:-0.605039 
15.22802036320443 0 3.85560934977663 5.842278341780861 1:-0.752398 2:-0.290566 3:-0.592118 4:-0.800758 5:-0.508242 6:-0.665495 7:-0.205223 8:-0.422947 9:-0.0609549 10:-0.576877 11:-0.222536 12:-0.588528 13:-0.615983 14:-0.686747 15:-0.627238 16:-0.764463 17:-0.89113 18:-0.662244 19:-0.641088 20:-0.914993 21:-0.720543 22:0.840646 23:0.127846 24:0.441532 25:0.139024 26:-0.677397 27:-0.534881 28:-0.852723 29:-0.682751 30:-0.757795 
15.60882977705798 0 0 0 1:-0.309079 2:-0.156237 3:0.379098 4:-0.359097 5:-0.536653 6:0.0426182 7:-0.544078 8:-0.0650849 9:-0.214287 10:0.0276919 11:-0.845955 12:-0.384906 13:0.119561 14:-0.252252 15:-0.0594424 16:-0.0580355 17:-0.6833 18:-0.276826 19:0.0147385 20:-0.75709 21:-0.358848 22:0.0103536 23:-0.0878703 24:0.153016 25:-0.662037 26:-0.862846 27:-0.857278 28:-0.311419 29:-0.366064 30:-0.297825 
0 9.278988646169831 0 0 1:-0.585638 2:-0.590741 3:-0.464772 4:-0.468536 5:-0.732529 6:-0.601562 7:0.926036 8:-0.087339 9:0.241202 10:0.784869 11:-0.635672 12:-0.704084 13:-0.565498 14:-0.610855 15:-0.500592 16:-0.593614 17:-0.81185 18:-0.6464 19:-0.541355 20:-0.862545 21:-0.677143 22:0.0887051 23:0.18811 24:0.319735 25:-0.544045 26:-0.86885 27:-0.728849 28:-0.728527 29:-0.711796 30:-0.693756 
6.173744562639898 1.123266378944646 0 0 1:-0.719672 2:-0.622861 3:-0.556174 4:-0.816156 5:-0.757147 6:-0.636385 7:0.725869 8:0.368143 9:-0.151991 10:0.201279 11:-0.709341 12:-0.371707 13:-0.639699 14:-0.817267 15:-0.698057 16:-0.60022 17:-0.815409 18:-0.731805 19:-0.38509 20:-0.845424 21:-0.813811 22:0.843931 23:0.365821 24:-0.0254845 25:0.192244 26:-0.708616 27:-0.777937 28:-0.733672 29:-0.589806 30:-0.610457 
13.99508769840546 0 0 0 1:-0.535138 2:-0.2179 3:-0.183506 4:-0.613705 5:-0.488562 6:-0.414473 7:0.0503477 8:-0.258838 9:0.344114 10:-0.512479 11:-0.445776 12:-0.624781 13:-0.337164 14:-0.527405 15:-0.417591 16:-0.356425 17:-0.767116 18:-0.436816 19:-0.218855 20:-0.730748 21:-0.462785 22:-0.0125915 23:-0.575189 24:0.378971 25:-0.439476 26:-0.260697 27:-0.632563 28:-0.543804 29:-0.350698 30:-0.428216 
15.37839617662832 0 0 0 1:-0.622636 2:0.072966 3:-0.325882 4:-0.747535 5:-0.316437 6:-0.438824 7:0.116117 8:-0.368567 9:0.511807 10:-0.86365 11:-0.425847 12:-0.295787 13:-0.404973 14:-0.708772 15:-0.417175 16:-0.208974 17:-0.632842 18:-0.295376 19:-0.0745179 20:-0.679612 21:-0.367753 22:-0.0673559 23:0.00144925 24:0.196761 25:-0.464589 26:-0.694921 27:-0.826018 28:-0.42897 29:-0.325588 30:-0.327649 
1.837017890694515 0.7509839984420172 1.526939001049131 0 1:-0.432912 2:-0.350101 3:-0.257344 4:-0.138108 5:-0.52549 6:-0.112031 7:-0.970866 8:-0.566289 9:-0.82642 10:0.922891 11:0.0216066 12:0.619412 13:-0.397107 14:0.033914 15:-0.0322315 16:-0.66344 17:-0.810385 18:-0.54734 19:-0.619834 20:-0.812116 21:-0.614978 22:-0.131177 23:0.77456 24:0.0848972 25:-0.587513 26:0.208844 27:-0.95603 28:-0.782907 29:-0.656704 30:-0.685412 
4.018680559123977 0 0 0 1:-0.794331 2:-0.622699 3:-0.831312 4:-0.812911 5:-0.743426 6:-0.854775 7:0.619987 8:-0.104137 9:0.433439 10:-0.0208321 11:-0.475017 12:-0.418329 13:-0.796149 14:-0.779763 15:-0.791837 16:-0.639767 17:-0.801801 18:-0.691099 19:-0.475509 20:-0.768774 21:-0.698807 22:-0.580519 23:-0.535719 24:0.28343 25:0.291605 26:-0.301278 27:-0.762546 28:-0.76447 29:-0.449077 30:-0.611049 
2.246679781028956 0 0 0 1:-0.647125 2:-0.67594 3:-0.462732 4:-0.605683 5:-0.790411 6:-0.532696 7:-0.549699 8:-0.339797 9:0.606372 10:0.127049 11:-0.604823 12:-0.109706 13:-0.563842 14:-0.721785 15:-0.55303 16:-0.440565 17:-0.657059 18:-0.514749 19:-0.309074 20:-0.674544 21:-0.533794 22:-0.342869 23:0.578343 24:0.732628 25:-0.214825 26:-0.174637 27:0.279664 28:-0.609333 29:-0.164059 30:-0.442057 
0 0 0 5.654812431963812 1:-0.83994 2:-0.608069 3:-0.733667 4:-0.868685 5:-0.753017 6:-0.825443 7:-0.262179 8:-0.226423 9:0.0435294 10:-0.591815 11:-0.659259 12:-0.772842 13:-0.783789 14:-0.878006 15:-0.825715 16:-0.749599 17:-0.680787 18:-0.505475 19:-0.738493 20:-0.75201 21:-0.568361 22:-0.0265073 23:0.382956 24:0.480493 25:-0.518727 26:-0.559157 27:-0.488332 28:-0.721023 29:-0.591118 30:-0.666228 
7.055169472925547 4.66190276246753 4.205772430413667 10.7821547297392 1:-0.709799 2:-0.635469 3:-0.53322 4:-0.722769 5:-0.746747 6:-0.66799 7:-0.326139 8:-0.0944968 9:-0.309754 10:-0.245731 11:-0.503834 12:-0.486046 13:-0.621065 14:-0.796062 15:-0.675894 16:-0.724366 17:-0.715821 18:-0.601443 19:-0.627122 20:-0.671593 21:-0.871266 22:0.618691 23:-0.791558 24:-0.003832 25:0.022585 26:0.493064 27:-0.584848 28:-0.756896 29:-0.417408 30:-0.600417 
0 0.1447811273638749 0 0 1:-0.122455 2:-0.645159 3:0.465897 4:-0.0406485 5:-0.770902 6:0.499883 7:-0.625179 8:-0.329125 9:-0.78938 10:0.00571592 11:-0.552127 12:0.531473 13:0.190026 14:0.197809 15:0.366221 16:-0.131257 17:-0.348733 18:-0.03156 19:0.0245286 20:-0.407332 21:-0.0616405 22:-0.263805 23:0.404973 24:0.692518 25:-0.525794 26:-0.475752 27:-0.126067 28:-0.368444 29:0.0731753 30:-0.0705849 
0.1467540045594165 0 0 0 1:-0.445517 2:-0.692324 3:0.0351844 4:-0.449597 5:-0.825965 6:0.102617 7:-0.484051 8:0.156753 9:-0.748048 10:-0.127108 11:-0.852407 12:0.447278 13:-0.15963 14:-0.21146 15:-0.0855767 16:-0.590769 17:-0.651755 18:-0.544635 19:-0.4861 20:-0.70678 21:-0.592764 22:-0.228788 23:0.496284 24:0.43675 25:-0.314623 26:-0.121585 27:-0.366376 28:-0.691296 29:-0.436522 30:-0.549961 
11.5395513938758 0 0 0 1:-0.507432 2:-0.798579 3:-0.0270811 4:-0.529344 5:-0.879497 6:-0.0562633 7:-0.440886 8:0.125808 9:-0.60899 10:-0.14143 11:-0.871988 12:0.200393 13:-0.210178 14:-0.400538 15:-0.237907 16:-0.538744 17:-0.615814 18:-0.370089 19:-0.453346 20:-0.68796 21:-0.484989 22:0.00217724 23:-0.246756 24:0.646461 25:-0.453836 26:-0.646488 27:-0.0508081 28:-0.654495 29:-0.474187 30:-0.51106 
0.2648180535334899 0 0 0 1:-0.660504 2:-0.813835 3:-0.523677 4:-0.659123 5:-0.848136 6:-0.564085 7:0.582726 8:0.56568 9:0.711914 10:-0.188552 11:-0.246365 12:0.173621 13:-0.613318 14:-0.584967 15:-0.589104 16:-0.399092 17:-0.516016 18:-0.295376 19:-0.271045 20:-0.563484 21:-0.230373 22:0.106786 23:-0.133273 24:0.658489 25:-0.485827 26:-0.644822 27:-0.138368 28:-0.552308 29:-0.226647 30:-0.31648 
0.406926380468111 0 0 0 1:-0.736221 2:-0.96316 3:-0.537426 4:-0.778739 5:-0.956094 6:-0.566481 7:0.485792 8:0.592536 9:0.573814 10:-0.24404 11:0.0235773 12:-0.182057 13:-0.624479 14:-0.729023 15:-0.666815 16:-0.454329 17:-0.554819 18:-0.441453 19:-0.349475 20:-0.622267 21:-0.58996 22:-0.0772438 23:0.449153 24:0.647298 25:-0.593569 26:-0.545634 27:-0.126809 28:-0.592039 29:-0.402043 30:-0.4358 
0 2.768379971627823 0 1.818065370450026 1:-0.167947 2:-0.52785 3:0.0248172 4:-0.231605 5:-0.658439 6:-0.228722 7:-0.330737 8:-0.304288 9:0.157344 10:-0.261676 11:-0.452602 12:-0.698636 13:-0.168046 14:-0.553237 15:-0.174761 16:-0.216773 17:-0.520343 18:0.05114 19:-0.0596564 20:-0.654435 21:0.00317602 22:0.100157 23:0.13231 24:0.457196 25:-0.550327 26:-0.854962 27:-0.345632 28:-0.435044 29:-0.136513 30:-0.195094 
0.2993186482699607 3.295810536443659 0.2883360520612719 1.546136434126157 1:-1 2:-1 3:-1 4:-0.952889 5:-0.951075 6:-1 7:1 8:-0.9942 9:0.048071 10:0.996563 11:0.982644 12:-0.892797 13:-1 14:-0.948013 15:-1 16:-0.75437 17:-0.608765 18:-0.295118 19:-0.939766 20:-0.879214 21:-0.851857 22:0.417114 23:0.130043 24:-0.272704 25:-0.594713 26:-0.922647 27:-0.861041 28:-0.647277 29:-0.738031 30:-0.633951 
22.627 12.06430862563613 22.627 7.143026854821121 1:-0.927771 2:-0.91394 3:-0.918572 4:-0.956667 5:-0.949332 6:-0.929281 7:-0.477233 8:-0.232195 9:0.294959 10:-0.411723 11:-0.777729 12:-0.762997 13:-0.929724 14:-0.984361 15:-0.976135 16:-0.873377 17:-0.863563 18:-0.762721 19:-0.871364 20:-0.894633 21:-0.780994 22:-0.0598927 23:0.138481 24:0.333792 25:-0.569379 26:-0.442032 27:-0.653877 28:-0.908175 29:-0.812799 30:-0.85762 
1.043960782437462 0 0 3.135139619086651 1:-0.748395 2:-0.708172 3:-0.803287 4:-0.871077 5:-0.858564 6:-0.871726 7:-0.5755 8:-0.192815 9:-0.137887 10:-0.173853 11:-0.923888 12:-0.916187 13:-0.750166 14:-0.936367 15:-0.86566 16:-0.510116 17:-0.385512 18:0.181502 19:-0.844519 20:-0.837291 21:-0.747872 22:0.476682 23:-0.0512411 24:-0.187497 25:-0.342845 26:-0.853852 27:-0.80033 28:-0.384665 29:-0.507917 30:-0.377852 
4.253794225378477 9.450772537399438 7.721793052562096 5.596656230346772 1:-0.925114 2:-0.870932 3:-0.691266 4:-0.959194 5:-0.891332 6:-0.768374 7:0.0153694 8:-0.592165 9:-0.527786 10:-0.929887 11:-0.0116843 12:-0.32995 13:-0.749368 14:-0.898018 15:-0.86894 16:-0.729045 17:-0.615465 18:-0.570269 19:-0.916685 20:-0.84489 21:-0.762755 22:0.100391 23:-0.708479 24:0.39336 25:-0.867725 26:0.239683 27:-0.532906 28:-0.654137 29:-0.605734 30:-0.656124 
0 0 0 16.77467349715376 1:-0.649769 2:-0.556846 3:-0.836728 4:-0.775434 5:-0.797056 6:-0.952101 7:-0.358143 8:0.00370385 9:0.0505015 10:-0.736627 11:-0.993292 12:-0.853426 13:-0.651441 14:-0.914664 15:-0.804711 16:-0.446438 17:-0.262196 18:0.780497 19:-0.841604 20:-0.793348 21:-0.488331 22:0.0543029 23:0.10441 24:-0.15815 25:-0.990315 26:-0.960716 27:-0.929177 28:-0.0523796 29:-0.458447 30:-0.148664 
3.750218258115005 0 0 0.6907721085775441 1:-0.810434 2:-0.878926 3:-0.641793 4:-0.785886 5:-0.921753 6:-0.532869 7:-0.854567 8:-0.397204 9:-0.927828 10:0.600464 11:-0.45423 12:0.823627 13:-0.709205 14:-0.631026 15:-0.643006 16:-0.657109 17:-0.637658 18:-0.206106 19:-0.960268 20:-0.877162 21:-0.691627 22:0.0246813 23:-0.420107 24:0.00360909 25:-0.927436 26:-0.456867 27:-0.783934 28:-0.599686 29:-0.661014 30:-0.590229 
0 0 0 3.462180286084089 1:-0.858304 2:-0.769702 3:-0.773021 4:-0.923274 5:-0.827668 6:-0.799061 7:-0.0752731 8:-0.607832 9:-0.470262 10:-0.980585 11:0.0789637 12:-0.157841 13:-0.815737 14:-0.853947 15:-0.858331 16:-0.532596 17:-0.477284 18:0.124823 19:-0.793539 20:-0.770532 21:-0.41639 22:0.381266 23:-0.236174 24:0.166321 25:-0.715806 26:-0.708732 27:-0.921299 28:-0.416107 29:-0.391549 30:-0.353607 
9.482518353012937 8.067638087584509 17.44061022180314 22.627 1:-0.980026 2:-0.987437 3:-0.897542 4:-0.983358 5:-0.991068 6:-0.969599 7:-0.514319 8:-0.342393 9:0.0386117 10:-0.441027 11:-0.484149 12:-0.91726 13:-0.916824 14:-1 15:-0.993109 16:-0.74446 17:-0.386 18:-0.306067 19:-0.893532 20:-0.887775 21:-0.851136 22:0.141023 23:0.042597 24:-0.0622205 25:-0.729386 26:-0.889603 27:-0.933498 28:-0.41918 29:-0.686124 30:-0.534738 
5.326155132601386 14.21840422127008 0 16.42673219280723 1:-0.709394 2:-0.795801 3:-0.85574 4:-0.822982 5:-0.888294 6:-0.902251 7:-0.565527 8:-0.212728 9:0.154568 10:-0.0524365 11:-0.820024 12:-0.913174 13:-0.711126 14:-0.930259 15:-0.854934 16:-0.683993 17:-0.684626 18:-0.360041 19:-0.737285 20:-0.769959 21:-0.462404 22:-0.0392549 23:-0.232212 24:0.3506 25:-0.456161 26:-0.53537 27:-0.595698 28:-0.685079 29:-0.597676 30:-0.62213 
0 4.481861584132615 0 2.53728584259163 1:-0.616017 2:-0.84907 3:-0.870236 4:-0.782185 5:-0.911407 6:-0.927119 7:-0.338462 8:-0.147077 9:-0.155961 10:-0.759551 11:-0.907118 12:-0.789815 13:-0.617655 14:-0.948462 15:-0.835069 16:-0.477451 17:-0.273501 18:0.171583 19:-0.625462 20:-0.431744 21:-0.211127 22:0.560661 23:-0.420425 24:0.165353 25:-0.529123 26:-0.529873 27:-0.849276 28:-0.303987 29:0.0347606 30:-0.0617102 
6.257212606260701 5.448901743493034 22.627 0.8652930303187583 1:-0.782512 2:-0.775121 3:-0.816254 4:-0.858768 5:-0.843141 6:-0.884528 7:0.0520497 8:-0.444247 9:0.115833 10:-0.628319 11:-0.341235 12:-0.942574 13:-0.784318 14:-0.909244 15:-0.871702 16:-0.602422 17:-0.652244 18:-0.658508 19:-0.685907 20:-0.772108 21:-0.820525 22:-0.595988 23:0.0393439 24:0.185721 25:-0.0841405 26:-0.575353 27:-0.806632 28:-0.691796 29:-0.660826 30:-0.655928 
4.068411968376656 1.891892307990337 18.2653390774273 22.627 1:-0.85346 2:-0.785815 3:-0.869499 4:-0.894008 5:-0.875081 6:-0.912839 7:-0.251404 8:-0.213128 9:0.127138 10:-0.513396 11:-0.696725 12:-0.962548 13:-0.855339 14:-0.925101 15:-0.914422 16:-0.791898 17:-0.691465 18:-0.561381 19:-0.812602 20:-0.791487 21:-0.624844 22:-0.134982 23:0.0591217 24:0.459852 25:-0.708279 26:-0.845313 27:-0.429527 28:-0.731957 29:-0.685374 30:-0.706111 
6.812816112271384 0 0 0.4628413898611852 1:-0.809865 2:-0.788778 3:-0.561124 4:-0.846918 5:-0.872974 6:-0.778839 7:-0.404058 8:-0.259474 9:0.0798644 10:-0.412542 11:-0.578914 12:-0.920457 13:-0.643718 14:-0.877656 15:-0.788403 16:-0.794192 17:-0.724335 18:-0.732706 19:-0.68857 20:-0.743907 21:-0.911472 22:0.812342 23:-0.639995 24:0.475841 25:0.447579 26:0.329256 27:-0.156361 28:-0.765614 29:-0.585121 30:-0.693188 
11.2740128223747 0 0 0 1:-0.808589 2:-0.6882 3:-0.620439 4:-0.813626 5:-0.741759 6:-0.764471 7:-0.230642 8:-0.306954 9:0.0353821 10:-0.28172 11:-0.391697 12:-0.820112 13:-0.69187 14:-0.845466 15:-0.752743 16:-0.634078 17:-0.724824 18:-0.257504 19:-0.56173 20:-0.742449 21:-0.509796 22:-0.307543 23:0.426268 24:0.392567 25:-0.475767 26:-0.306963 27:-0.659555 28:-0.628198 29:-0.555701 30:-0.573473 
0 0 1.69855819005437 8.255340034180429 1:-0.752524 2:-0.939252 3:-0.916088 4:-0.949138 5:-0.963123 6:-0.926838 7:0.210201 8:-0.0689582 9:-0.129669 10:-0.879006 11:-0.9942 12:-0.82489 13:-0.7543 14:-0.96164 15:-0.909985 16:-0.427995 17:-0.418382 18:0.00772897 19:-0.868141 20:-0.75797 21:-0.664993 22:0.136183 23:-0.291478 24:0.180062 25:-0.887465 26:-0.657534 27:-0.66952 28:-0.452337 29:-0.482058 30:-0.37672 
0 22.627 22.627 22.627 1:-0.74988 2:-0.881246 3:-0.908299 4:-0.832611 5:-0.938005 6:-0.914524 7:0.355651 8:0.0503917 9:-0.366997 10:-0.63277 11:-0.984032 12:-0.504605 13:-0.751653 14:-0.884517 15:-0.858896 16:-0.775657 17:-0.615465 18:-0.573103 19:-0.800121 20:-0.725275 21:-0.616515 22:-0.156773 23:0.220047 24:-0.22885 25:-0.902264 26:-0.950086 27:-0.911981 28:-0.654137 29:-0.625785 30:-0.584837 
5.162510131846975 0 0 20.58573361344563 1:-0.814378 2:-0.895212 3:-0.831708 4:-0.874182 5:-0.936433 6:-0.870789 7:-0.156862 8:0.089241 9:0.0969222 10:-0.707018 11:-0.941464 12:-0.879926 13:-0.816217 14:-0.957093 15:-0.899639 16:-0.678029 17:-0.625236 18:0.146335 19:-0.854018 20:-0.762173 21:-0.560579 22:-0.00479737 23:-0.510413 24:0.219516 25:-0.754558 26:-0.330203 27:-0.834013 28:-0.404173 29:-0.452825 30:-0.441788 
22.627 0 0 0 1:-0.896386 2:-0.785864 3:-0.6524 4:-0.943359 5:-0.850966 6:-0.653504 7:0.00589526 8:-0.416253 9:-0.655243 10:-0.974484 11:-0.332021 12:0.236476 13:-0.717816 14:-0.799462 15:-0.776864 16:-0.645456 17:-0.655942 18:-0.532526 19:-0.690964 20:-0.762862 21:-0.657281 22:0.1095 23:-0.0960899 24:0.131974 25:-0.538526 26:-0.68514 27:-0.777512 28:-0.695584 29:-0.682938 30:-0.650876 
22.627 11.69908556635272 3.695050629420365 7.316654607451275 1:-0.788467 2:-0.830907 3:-0.826731 4:-0.851084 5:-0.912049 6:-0.855567 7:-0.358423 8:0.0300507 9:0.385663 10:-0.418617 11:-1 12:-0.670906 13:-0.790279 14:-0.926249 15:-0.872591 16:-0.707024 17:-0.597948 18:-0.594873 19:-0.752321 20:-0.720401 21:-0.767559 22:-0.00051404 23:0.169413 24:-0.0435457 25:-1 26:-0.985826 27:-0.954905 28:-0.636201 29:-0.696805 30:-0.619543 
0 0.1505948520424477 0 0.2553142913534269 1:-0.132678 2:-0.846619 3:0.0589981 4:0.294278 5:-0.86983 6:0.369598 7:-0.980794 8:-0.812205 9:-0.9063 10:0.953695 11:0.570898 12:0.785477 13:-0.133826 14:0.4396 15:0.476954 16:-0.517732 17:-0.60388 18:-0.280433 19:-0.447051 20:-0.583474 21:-0.509481 22:0.254263 23:0.885965 24:0.710579 25:-0.572478 26:0.494053 27:0.0972374 28:-0.640918 29:-0.236578 30:-0.409083 
8.16419944270076 0 0 0 1:-0.720773 2:-0.608491 3:-0.397258 4:-0.707109 5:-0.75644 6:-0.500664 7:-0.658557 8:-0.583114 9:0.413695 10:0.230616 11:0.164089 12:-0.431976 13:-0.51069 14:-0.639536 15:-0.563073 16:-0.699133 17:-0.870821 18:-0.745588 19:-0.581251 20:-0.901394 21:-0.76555 22:0.609547 23:-0.0235613 24:0.345384 25:-0.386479 26:-0.700188 27:-0.615489 28:-0.810705 29:-0.730535 30:-0.721362 
0.6478821186041818 0 0 0 1:-0.578477 2:-0.800786 3:0.188275 4:-0.279854 5:-0.869127 6:0.170787 7:-0.95665 8:-0.350035 9:-0.670462 10:0.895854 11:-0.593987 12:0.291168 13:-0.0353498 14:-0.0769904 15:0.0218976 16:-0.630041 17:-0.748343 18:-0.617931 19:-0.505081 20:-0.807792 21:-0.873115 22:0.885723 23:0.0426662 24:0.669994 25:0.537366 26:-0.671159 27:0.0248779 28:-0.756896 29:-0.62972 30:-0.635383 
0 0.3884968537783 2.221265302788282 0 1:-0.44253 2:-0.41392 3:-0.303 4:-0.523181 5:-0.565535 6:-0.435539 7:0.366983 8:-0.852292 9:0.370543 10:-0.237002 11:0.659055 12:-0.574672 13:-0.434171 14:-0.647209 15:-0.397736 16:-0.17897 17:-0.693628 18:-0.622053 19:-0.0567735 20:-0.697445 21:-0.688799 22:0.0338434 23:0.568702 24:0.30396 25:-0.514158 26:-0.0952513 27:-0.566924 28:-0.405602 29:-0.322215 30:-0.357183 
0 2.881604535258062 0 18.04967185270866 1:-0.61854 2:-0.725977 3:-0.71519 4:-0.642216 5:-0.869083 6:-0.727417 7:0.448613 8:-0.0792835 9:0.412455 10:-0.369389 11:-0.385747 12:-0.146703 13:-0.62018 14:-0.709553 15:-0.653507 16:-0.540028 17:-0.603182 18:-0.551591 19:-0.420446 20:-0.682131 21:-0.402176 22:0.292698 23:-0.597093 24:0.673716 25:-0.523248 26:-0.0520234 27:0.0977796 28:-0.641561 29:-0.341703 30:-0.470704 
0 0.585316456905145 0 0 1:-0.0968618 2:-0.33022 3:0.600544 4:0.227945 5:-0.537935 6:0.921397 7:-0.89092 8:-0.661697 9:-0.795292 10:0.692738 11:0.118029 12:0.587085 13:0.299333 14:0.69505 15:0.76954 16:-0.479653 17:-0.348315 18:-0.441968 19:-0.353898 20:-0.469821 21:-0.401156 22:0.00516468 23:0.312323 24:0.401581 25:-0.509853 26:-0.384598 27:-0.659266 28:-0.380592 29:-0.119648 30:-0.283614 
2.58644756869199 0 0 0 1:-0.740809 2:-0.592315 3:-0.518528 4:-0.808802 5:-0.720505 6:-0.630462 7:0.0765867 8:-0.20917 9:0.272394 10:-0.846229 11:-0.514881 12:-0.702279 13:-0.609137 14:-0.823929 15:-0.680387 16:-0.53856 17:-0.764324 18:-0.621925 19:-0.442607 20:-0.794791 21:-0.596359 22:-0.112075 23:0.0786814 24:0.493553 25:-0.367853 26:-0.677645 27:-0.473509 28:-0.685651 29:-0.517474 30:-0.596611 
6.70541573547947 0 0 0 1:-0.694618 2:-0.805842 3:-0.565253 4:-0.796502 5:-0.893955 6:-0.583049 7:0.400968 8:0.303559 9:0.500162 10:-0.44014 11:-0.761625 12:-0.0138524 13:-0.64707 14:-0.713436 15:-0.659654 16:-0.188145 17:-0.495778 18:-0.631586 19:-0.0664167 20:-0.555715 21:-0.62816 22:0.319792 23:0.333655 24:0.343895 25:-0.483929 26:-0.416187 27:-0.676373 28:-0.412748 29:-0.328211 30:-0.292106 
1.053462385096114 1.609937621246574 0.9833271695098691 0.9001640304741076 1:-0.427577 2:-0.465433 3:-0.214844 4:-0.48066 5:-0.661787 6:-0.520219 7:-0.388306 8:-0.108948 9:0.0506477 10:-0.246163 11:-0.725413 12:-0.848485 13:-0.362605 14:-0.670139 15:-0.432082 16:-0.57985 17:1 18:-0.475976 19:-0.61015 20:1 21:-0.630403 22:0.0330446 23:-0.468859 24:-0.0815469 25:-0.86624 26:-0.293169 27:-0.769052 28:1 29:0.74665 30:1 
0 0 0 1.692560037595232 1:-0.701548 2:-0.743751 3:-0.417358 4:-0.7295 5:-0.80362 6:-0.636227 7:-0.383389 8:-0.452957 9:-0.0420736 10:-0.64278 11:-0.365406 12:-0.718636 13:-0.527007 14:-0.815667 15:-0.654229 16:-0.456164 17:-0.470584 18:-0.135515 19:-0.349141 20:-0.652394 21:-0.361018 22:-0.222025 23:-0.0689088 24:0.183624 25:-0.542469 26:-0.527284 27:-0.848948 28:-0.505788 29:-0.433336 30:-0.384746 
1.766251012716002 0 0 0 1:-0.627812 2:-0.672884 3:0.0698665 4:-0.642575 5:-0.811723 6:0.0515828 7:-0.275456 8:-0.0318472 9:-0.796711 10:-0.382951 11:-0.845588 12:0.514362 13:-0.131475 14:-0.322557 15:-0.172039 16:-0.292288 17:-0.381883 18:-0.546438 19:-0.243575 20:-0.456351 21:-0.62232 22:-0.0342134 23:0.344571 24:0.226597 25:-0.645829 26:-0.408136 27:-0.841497 28:-0.414964 29:-0.367938 30:-0.295931 
22.627 3.876897266172079 6.433831489650794 0 1:-0.805938 2:-0.83472 3:-0.288684 4:-0.815829 5:-0.896964 6:-0.501834 7:-0.356836 8:0.0550226 9:-0.167114 10:-0.44085 11:-0.828622 12:-0.590016 13:-0.422549 14:-0.752112 15:-0.642797 16:-0.731523 17:-0.877033 18:-0.865774 19:-0.729703 20:-0.880329 21:-0.84452 22:0.0900252 23:0.325778 24:-0.010564 25:-0.788117 26:-0.44214 27:-0.737935 28:-0.83593 29:-0.862831 30:-0.821852 
17.26998115581624 22.627 8.883021121332492 19.16923168633007 1:-0.774135 2:-0.868312 3:-0.448149 4:-0.793637 5:-0.881142 6:-0.651135 7:0.497781 8:0.538051 9:-0.0536658 10:-0.348057 11:-0.0119027 12:-0.850337 13:-0.552003 14:-0.801185 15:-0.729154 16:-0.502684 17:-0.87773 18:-0.61265 19:-0.522951 20:-0.873808 21:-0.596878 22:0.123843 23:0.359747 24:0.144378 25:-0.859624 26:-0.49607 27:-0.697817 28:-0.65771 29:-0.74234 30:-0.671689 
0 7.976317259078967 5.558272491999223 7.983793555518173 1:-0.741463 2:-0.807174 3:-0.197489 4:-0.747119 5:-0.834598 6:-0.483563 7:0.450644 8:0.470322 9:0.0119698 10:-0.450259 11:-0.239452 12:-0.847107 13:-0.348516 14:-0.730783 15:-0.600163 16:-0.729045 17:-0.90083 18:-0.742368 19:-0.670305 20:-0.892048 21:-0.705813 22:0.246425 23:0.383567 24:-0.412598 25:-0.368657 26:-0.357299 27:-0.727203 28:-0.834 29:-0.673194 30:-0.757268 
0.3627085179813294 7.659399431587543 0 3.44322356072441 1:-0.616021 2:-0.774714 3:-0.493486 4:-0.675434 5:-0.82193 6:-0.61003 7:0.414513 8:0.631513 9:0.288696 10:-0.599986 11:0.08838 12:-0.414717 13:-0.588808 14:-0.679918 15:-0.638494 16:-0.433959 17:-0.530044 18:-0.255829 19:-0.378573 20:-0.544362 21:-0.331194 22:-0.0616096 23:0.566666 24:0.208175 25:-0.522749 26:-0.111326 27:-0.776752 28:-0.566671 29:-0.292982 30:-0.364473 
3.96976219580864 22.627 20.7203723174205 14.91323888175287 1:-0.826001 2:-0.894149 3:-0.742645 4:-0.787408 5:-0.883085 6:-0.807937 7:0.815789 8:-0.0492484 9:-0.143678 10:0.534712 11:-0.0271363 12:-0.705006 13:-0.791077 14:-0.865115 15:-0.812994 16:-0.665917 17:-0.784074 18:-0.66263 19:-0.649592 20:-0.813882 21:-0.640368 22:-0.00700974 23:0.0719859 24:0.356262 25:-0.686979 26:-0.733707 27:-0.598351 28:-0.784836 29:-0.745713 30:-0.706385 
16.18556599342472 22.627 7.999912405424177 3.508767872659649 1:-0.635532 2:-0.803829 3:-0.265562 4:-0.663712 5:-0.858105 6:-0.411892 7:-0.408721 8:0.378869 9:-0.528657 10:-0.222151 11:-0.440726 12:-0.0583897 13:-0.403778 14:-0.605729 15:-0.524119 16:-0.728036 17:-0.823086 18:-0.697668 19:-0.72653 20:-0.830897 21:-0.697129 22:0.288835 23:0.264531 24:0.146078 25:-0.746191 26:-0.562093 27:-0.672619 28:-0.833214 29:-0.815609 30:-0.760011 
1.944230838658037 0.4171243940740546 0 0 1:0.319651 2:0.110458 3:0.887658 4:0.31695 5:-0.206927 6:0.966945 7:-0.313414 8:-0.453301 9:-0.667937 10:-0.580597 11:-0.45833 12:0.325748 13:0.532414 14:0.541587 15:0.853035 16:-0.54847 17:-0.397167 18:-0.367126 19:-0.249448 20:-0.433705 21:-0.656628 22:0.794435 23:-0.419402 24:0.422182 25:-0.0962291 26:-0.422273 27:-0.467059 28:-0.430613 29:-0.172679 30:-0.256304 
2.471642140958993 0 0 0 1:0.412112 2:0.258913 3:0.593166 4:0.268323 5:-0.253853 6:0.597321 7:-0.257526 8:-0.272966 9:-0.473311 10:-0.64452 11:-0.709706 12:0.0389985 13:0.411516 14:0.173306 15:0.596456 16:-0.150434 17:-0.0388024 18:0.507407 19:0.160231 20:-0.20162 21:0.531726 22:-0.255656 23:-0.255627 24:0.474365 25:-0.269502 26:-0.534087 27:-0.537324 28:-0.0636701 29:0.349199 30:0.247765 
0 0 0.02395059248323752 0.3483995565576448 1:0.310314 2:-0.0471188 3:-0.123885 4:0.274694 5:-0.246147 6:-0.239057 7:-0.29427 8:-0.688068 9:0.399168 10:-0.227055 11:0.163166 12:-0.459099 13:0.309615 14:-0.097275 15:0.213916 16:-0.717943 17:-0.184032 18:-0.291382 19:-0.485959 20:-0.309606 21:-0.817492 22:0.929571 23:-0.579554 24:0.218784 25:0.352555 26:-0.152289 27:-0.49248 28:-0.212377 29:-0.0240794 30:-0.214655 
0 0 0 0.2379559976427155 1:1 2:0.196399 3:0.144329 4:1 5:-0.167354 6:0.459195 7:-0.514319 8:-0.368869 9:-0.934687 10:-0.353569 11:-0.495703 12:0.84824 13:1 14:0.766861 15:0.983827 16:-0.423223 17:-0.583432 18:0.751385 19:-0.387842 20:-0.633318 21:1 22:-0.309449 23:-0.276278 24:0.55951 25:-0.694196 26:-0.581835 27:-0.399186 28:-0.0685294 29:-0.114401 30:0.0315574 
3.440279097484879 0 0 0 1:0.101695 2:0.275006 3:-0.283959 4:0.137687 5:-0.140921 6:-0.210636 7:-0.478291 8:-0.293587 9:0.312053 10:-0.0641946 11:-0.565119 12:0.02817 13:0.100785 14:-0.155131 15:0.152826 16:-0.71152 17:-0.372531 18:0.0432822 19:-0.541487 20:-0.422995 21:-0.321456 22:0.809757 23:-0.478595 24:0.359605 25:0.0885908 26:-0.354231 27:-0.727704 28:-0.405388 29:-0.313782 30:-0.279177 
9.836997357587943 6.320110735207063 1.986675816640187 11.82564325397038 1:-0.16881 2:-0.418569 3:-0.62985 4:-0.27446 5:-0.684618 6:-0.67197 7:0.64652 8:0.451357 9:-0.128966 10:-0.0150897 11:-0.546587 12:-0.179001 13:-0.169994 14:-0.564199 15:-0.372961 16:-0.559389 17:-0.459906 18:0.0619606 19:-0.43459 20:-0.685583 21:0.0136626 22:-0.170105 23:-0.379641 24:0.619854 25:-0.251778 26:-0.578095 27:-0.247322 28:-0.450979 29:-0.354633 30:-0.350622 
0 8.49301685137716 4.972092416727783 5.430159866794945 1:-0.17409 2:-0.358626 3:-0.308769 4:-0.198412 5:-0.584172 6:-0.532245 7:0.562801 8:0.363887 9:0.335817 10:-0.344306 11:-0.710639 12:-0.714567 13:-0.17528 14:-0.439635 15:-0.257827 16:-0.352847 17:-0.455161 18:-0.164885 19:-0.280767 20:-0.355669 21:-0.685768 22:0.553884 23:-0.634041 24:-0.0599909 25:-0.465823 26:-0.177553 27:-0.792718 28:-0.489996 29:-0.0411318 30:-0.150242 
-2.728897993513008 0 0 0 1:-0.798843 2:-0.337937 3:0.31161 4:-0.807223 5:-0.384375 6:0.153785 7:-0.021495 8:-0.669626 9:-0.699733 10:-0.568839 11:0.106976 12:0.272018 13:0.0647744 14:-0.278804 15:-0.0871687 16:-0.172271 17:-0.10566 18:-0.0937782 19:-0.772228 20:-0.579942 21:-0.793598 22:0.23958 23:-0.375468 24:0.179924 25:-0.840597 26:-0.59151 27:-0.776588 28:-0.132128 29:-0.393985 30:-0.141494 
-12.78613673854952 7.725757933421754 1.701867092608969 6.486416090224653 1:-0.819859 2:-0.760622 3:-0.458652 4:-0.866533 5:-0.851529 6:-0.664207 7:-0.24809 8:-0.107616 9:-0.014389 10:-0.661783 11:-0.67212 12:-0.950225 13:-0.56053 14:-0.935956 15:-0.763031 16:-0.100794 17:-0.139717 18:-0.764524 19:-0.234764 20:-0.336605 21:-0.717145 22:0.00576097 23:0.360078 24:0.344562 25:-0.892216 26:-0.588805 27:-0.202087 28:-0.167 29:-0.499485 30:-0.171021 
-5.93268196280527 0 0 2.086338539834462 1:-0.370953 2:-0.167089 3:-0.482986 4:-0.542681 5:-0.561966 6:-0.511186 7:0.447281 8:0.247383 9:-0.465352 10:-0.512304 11:-0.87513 12:-0.0258205 13:-0.372342 14:-0.667235 15:-0.4641 16:-0.16695 17:-0.470375 18:-0.0155868 19:-0.0201693 20:-0.646607 21:-0.197171 22:-0.0167634 23:0.0730016 24:0.251844 25:-0.279893 26:-0.644442 27:-0.705091 28:-0.396241 29:-0.341703 30:-0.2057 
-5.261968272050647 0 0 0 1:-0.407758 2:-0.179051 3:-0.135274 4:-0.484004 5:-0.506245 6:-0.118489 7:0.0593224 8:0.216896 9:0.716112 10:-0.541221 11:-0.592892 12:0.103005 13:-0.298009 14:-0.336708 15:-0.174028 16:-0.553333 17:-0.77891 18:-0.217313 19:-0.423013 20:-0.813214 21:-0.275215 22:-0.130204 23:0.134748 24:0.359189 25:-0.256269 26:-0.519644 27:-0.607091 28:-0.605903 29:-0.443081 30:-0.514765 
-2.852888253041785 0 0 0 1:0.0558256 2:0.118892 3:0.441368 4:-0.0598893 5:-0.326835 6:0.386591 7:-0.231952 8:-0.129984 9:-0.658442 10:-0.654016 11:-0.698301 12:0.269211 13:0.170112 14:0.02745 15:0.309451 16:-0.403404 17:-0.645125 18:-0.154837 19:-0.183391 20:-0.743294 21:-0.0891115 22:-0.309297 23:0.00170498 24:0.528092 25:-0.0192642 26:-0.751217 27:-0.438397 28:-0.571245 29:-0.237703 30:-0.329333 
-11.36695457973634 5.579314856918373 1.708382687945994 5.421835611177519 1:-0.223098 2:-0.174167 3:-0.352229 4:-0.380955 5:-0.490988 6:-0.446314 7:-0.0376626 8:0.156699 9:0.536682 10:-0.744491 11:-0.802546 12:-0.440483 13:-0.224338 14:-0.567711 15:-0.31061 16:-0.717851 17:-0.719799 18:-0.34497 19:-0.642175 20:-0.751027 21:-0.480957 22:0.667203 23:-0.123768 24:0.564057 25:-0.160604 26:-0.686984 27:-0.152656 28:-0.676719 29:-0.56226 30:-0.603676 
-0 0.8560069721187268 2.330818991409218 0.06889938588774037 1:0.154672 2:0.311203 3:-0.187737 4:-0.10327 5:-0.225458 6:-0.213744 7:0.032135 8:-0.0897472 9:-0.560689 10:-0.824213 11:-0.677418 12:0.177336 13:0.153815 14:-0.251739 15:0.00158367 16:-0.554985 17:-0.760556 18:-0.0698184 19:-0.456575 20:-0.82343 21:-0.0378583 22:-0.526705 23:0.215072 24:0.362773 25:0.0629719 26:-0.667897 27:-0.554103 28:-0.524082 29:-0.349574 30:-0.450689 
-5.850319351562898 0.5266491942779168 0 1.224067899059697 1:0.232525 2:0.486473 3:0.302089 4:0.0100515 5:-0.174776 6:0.179084 7:-0.105799 8:0.0159136 9:0.556716 10:-0.623423 11:-0.690345 12:-0.35942 13:0.231748 14:0.0244376 15:0.310972 16:-0.110979 17:-0.550911 18:0.853407 19:0.136221 20:-0.707982 21:0.648356 22:-0.315125 23:0.202037 24:0.360104 25:-0.379439 26:-0.320445 27:-0.682695 28:-0.0119337 29:-0.0049658 30:0.0662825 
-1.547595434425165 0 0 0 1:-0.415663 2:0.00984183 3:-0.177228 4:-0.57364 5:-0.241576 6:-0.321629 7:0.176959 8:-0.499633 9:0.174334 10:-0.833232 11:-0.0095827 12:-0.540102 13:-0.332068 14:-0.649491 15:-0.279185 16:-0.31119 17:-0.620839 18:-0.152518 19:-0.48 20:-0.810857 21:-0.556259 22:0.707628 23:0.0777767 24:0.727444 25:-0.148957 26:-0.938653 27:0.25684 28:-0.508575 29:-0.686311 30:-0.464523 
-0 0.4790452795583647 0.1059313941228736 0 1:-0.448504 2:0.00798005 3:0.281265 4:-0.311969 5:0.013704 6:0.619357 7:0.635501 8:-0.925062 9:-0.820261 10:0.285358 11:0.817546 12:0.651275 13:0.0401399 14:0.493483 15:0.449667 16:-0.533055 17:-0.721474 18:-0.547082 19:-0.416896 20:-0.770627 21:-0.569252 22:-0.366351 23:-0.0368723 24:0.0322888 25:-0.224745 26:-0.692448 27:-0.628368 28:-0.681363 29:-0.506231 30:-0.566082 
-5.661755337098726 0 0 0.6367872403835494 1:-0.771366 2:-0.587434 3:-0.765152 4:-0.795219 5:-0.758105 6:-0.766159 7:-0.251858 8:0.307788 9:0.179981 10:-0.448375 11:-0.786526 12:-0.377803 13:-0.773161 14:-0.857485 15:-0.764005 16:-0.676928 17:-0.816247 18:-0.643179 19:-0.591703 20:-0.826504 21:-0.63176 22:0.701609 23:-0.325996 24:0.560161 25:-0.125836 26:-0.555599 27:-0.345195 28:-0.793411 29:-0.517661 30:-0.665794 
-2.728991627766952 0 0 0 1:-0.668891 2:-0.328424 3:-0.712083 4:-0.70788 5:-0.644223 6:-0.78101 7:-0.335837 8:0.175111 9:0.487095 10:-0.491524 11:-0.962413 12:-0.460337 13:-0.637957 14:-0.841957 15:-0.671676 16:-0.358719 17:-0.743876 18:-0.298982 19:-0.0671899 20:-0.785229 21:-0.379892 22:-0.519611 23:-0.335334 24:0.210803 25:0.169587 26:-0.596637 27:-0.847138 28:-0.545591 29:-0.321278 30:-0.366813 
-3.261173861052062 0 0.5543314335352372 7.132275882635244 1:-0.852007 2:-0.492054 3:-0.850323 4:-0.895028 5:-0.70409 6:-0.886195 7:0.43381 8:0.286275 9:-0.245339 10:-0.665483 11:-0.740712 12:-0.734695 13:-0.732936 14:-0.878356 15:-0.840762 16:-0.76951 17:-0.89783 18:-0.58869 19:-0.656206 20:-0.893491 21:-0.577023 22:1 23:-0.270852 24:0.460559 25:0.702299 26:-0.296984 27:-0.0382142 28:-0.811919 29:-0.568256 30:-0.721913 
-9.918283421206931 0 1.69111450529936 17.96322307482793 1:-0.907117 2:-0.43648 3:-0.87912 4:-0.917517 5:-0.657069 6:-0.904904 7:0.403945 8:0.330761 9:0.307466 10:-0.701428 11:-0.708546 12:-0.727816 13:-0.700678 14:-0.869139 15:-0.82528 16:-0.764371 17:-0.87459 18:-0.661085 19:-0.7472 20:-0.890271 21:-0.653511 22:0.449977 23:-0.0121794 24:0.224277 25:-0.68132 26:-0.70823 27:-0.684273 28:-0.852079 29:-0.74815 30:-0.772725 
-0 0 0 1.04249168903403 1:-0.905487 2:-0.552065 3:-0.882348 4:-0.899271 5:-0.726017 6:-0.916276 7:0.591171 8:0.337813 9:-0.187989 10:-0.281916 11:-0.673018 12:-0.881696 13:-0.767769 14:-0.871937 15:-0.861538 16:-0.469927 17:-0.815619 18:-0.658251 19:-0.185156 20:-0.806341 21:-0.671294 22:-0.82369 23:-0.374786 24:0.334085 25:0.642306 26:-0.216651 27:-0.668786 28:-0.6322 29:-0.343202 30:-0.482591 
-6.14933529662194 0 0 0 1:-0.789383 2:-0.395644 3:-0.93926 4:-0.818357 5:-0.654445 6:-0.951353 7:0.562554 8:0.332041 9:-0.0459437 10:-0.353875 11:-0.704109 12:-0.514755 13:-0.676975 14:-0.856702 15:-0.797889 16:-0.529752 17:-0.767674 18:-0.455108 19:-0.194695 20:-0.803446 21:-0.522092 22:-0.766772 23:-0.0645103 24:0.288711 25:0.614567 26:-0.752264 27:-0.739649 28:-0.678791 29:-0.366064 30:-0.46423 
-0 0.4862914728875973 1.985048219655647 1.897567158286295 1:-0.703479 2:-0.741589 3:-0.413068 4:-0.652594 5:-0.843547 6:-0.604169 7:-0.685539 8:0.275843 9:0.307326 10:0.341348 11:-0.724989 12:-0.667937 13:-0.523525 14:-0.697075 15:-0.619462 16:-0.79878 17:-0.860283 18:-0.685302 19:-0.787559 20:-0.868371 21:-0.855692 22:0.380166 23:-0.370827 24:0.644029 25:-0.533992 26:-0.514766 27:0.201931 28:-0.865514 29:-0.771011 30:-0.800371 
-2.612388521177063 0 0 0 1:-0.854937 2:-0.472579 3:-0.12964 4:-0.880439 5:-0.631967 6:-0.252622 7:-0.124778 8:-0.511556 9:-0.765524 10:-0.665427 11:-0.09524 12:0.420643 13:-0.293435 14:-0.536737 15:-0.439422 16:-0.515988 17:-0.791681 18:-0.767873 19:-0.492738 20:-0.837254 21:-0.771828 22:-0.0716386 23:-0.156795 24:-0.0155632 25:-0.674266 26:-0.573512 27:-0.89388 28:-0.668072 29:-0.715731 30:-0.654371 
-5.837817564318657 0 0 0 1:-0.87789 2:-0.552914 3:-0.286024 4:-0.899028 5:-0.588244 6:-0.354088 7:0.428913 8:-0.825819 9:-0.738262 10:-0.460756 11:0.5861 12:0.388182 13:-0.42039 14:-0.515068 15:-0.500657 16:-0.811717 17:-0.923163 18:-0.665722 19:-0.73131 20:-0.912008 21:-0.912896 22:0.850937 23:-0.343814 24:0.754707 25:0.400738 26:-0.0464225 27:0.418439 28:-0.854652 29:-0.762578 30:-0.812309 
-9.242206049022453 4.63588980488895 0.1500922467193526 0 1:-0.760083 2:-0.702985 3:-0.529328 4:-0.80223 5:-0.774789 6:-0.671813 7:0.338187 8:0.59043 9:0.325713 10:-0.776461 11:-0.132868 12:-0.386616 13:-0.617905 14:-0.734401 15:-0.714675 16:-0.679222 17:-0.821272 18:-0.447121 19:-0.601223 20:-0.82958 21:-0.875238 22:0.633692 23:-0.168279 24:0.00719749 25:-0.207129 26:-0.434872 27:-0.812842 28:-0.733386 29:-0.661201 30:-0.672259 
-0 4.537512267435326 1.235703942713023 7.957543244988959 1:-0.798321 2:-0.795453 3:-0.371192 4:-0.768756 5:-0.833558 6:-0.481444 7:0.431267 8:0.620083 9:0.248368 10:-0.477071 11:-0.074194 12:-0.394248 13:-0.489529 14:-0.687842 15:-0.604543 16:-0.706932 17:-0.889734 18:-0.707587 19:-0.576533 20:-0.900792 21:-0.865169 22:0.663709 23:-0.360484 24:-0.569466 25:-0.301394 26:-0.362617 27:-0.335151 28:-0.816779 29:-0.706549 30:-0.726753 
-0.5110699969299555 0 0 0 1:-0.726607 2:-0.237244 3:0.0902627 4:-0.787541 5:-0.35527 6:-0.20553 7:0.206388 8:-0.716109 9:-0.240835 10:-0.881438 11:0.365367 12:-0.6403 13:-0.114917 14:-0.520151 15:-0.310958 16:-0.581869 17:-0.772489 18:-0.230839 19:-0.466998 20:-0.838674 21:-0.842791 22:0.883941 23:0.395218 24:0.649678 25:0.46892 26:-0.613582 27:0.257148 28:-0.613406 29:-0.640401 30:-0.575747 
-4.221792094480427 0 0 0 1:-0.654602 2:-0.573598 3:-0.36625 4:-0.67195 5:-0.754865 6:-0.59188 7:-0.438452 8:0.150525 9:0.0382258 10:-0.212236 11:-0.892159 12:-0.727829 13:-0.485517 14:-0.75627 15:-0.596512 16:-0.658485 17:-0.840603 18:-0.411825 19:-0.599585 20:-0.898426 21:-0.79214 22:0.479516 23:-0.4255 24:0.36621 25:-0.57229 26:-0.285003 27:-0.450142 28:-0.713806 29:-0.729598 30:-0.675372 
-9.770842227294576 0 0 0 1:-0.811634 2:-0.725853 3:-0.252584 4:-0.750942 5:-0.849002 6:-0.423853 7:-0.649544 8:0.0878246 9:0.40524 10:0.293383 11:-0.918231 12:-0.464419 13:-0.393242 14:-0.70991 15:-0.544167 16:-0.458366 17:-0.747994 18:-0.439907 19:-0.345124 20:-0.774965 21:-0.591224 22:-0.128019 23:0.354905 24:0.31705 25:-0.587178 26:-0.472874 27:-0.734818 28:-0.623196 29:-0.580437 30:-0.53085 
-9.568636328666166 0 1.490062666480567 5.304753822755756 1:-0.705341 2:-0.786867 3:-0.46747 4:-0.672311 5:-0.866116 6:-0.633528 7:-0.682725 8:0.180751 9:0.146401 10:0.279511 11:-0.896358 12:-0.856264 13:-0.567688 14:-0.775658 15:-0.641709 16:-0.793366 17:-0.920999 18:-0.705397 19:-0.720044 20:-0.910232 21:-0.914146 22:0.717434 23:-0.539028 24:-0.0181528 25:-0.0842179 26:0.182293 27:-0.711552 28:-0.876661 29:-0.77251 30:-0.807413 
-17.42434833850326 1.58954151320608 9.056892512181943 7.816580628549964 1:-0.938639 2:-0.926021 3:-0.795097 4:-0.943774 5:-0.951836 6:-0.834507 7:0.580018 8:-0.139522 9:-0.352687 10:0.0300037 11:-0.85959 12:-0.647511 13:-0.833658 14:-0.96721 15:-0.914533 16:-0.643437 17:-0.855956 18:-0.498003 19:-0.536591 20:-0.856922 21:-0.568633 22:-0.202572 23:0.836405 24:0.500638 25:-0.388159 26:0.281728 27:-0.545976 28:-0.761612 29:-0.552703 30:-0.661287 
-17.91539154449413 14.43682612793252 0 20.40668999791341 1:-0.860696 2:-0.921357 3:-0.715449 4:-0.864747 5:-0.936742 6:-0.764487 7:0.476575 8:0.589359 9:-0.397998 10:-0.292295 11:0.00515938 12:-0.47547 13:-0.768999 14:-0.906668 15:-0.837412 16:-0.329908 17:-0.735571 18:-0.142342 19:-0.26542 20:-0.766669 21:-0.407984 22:-0.14954 23:0.275599 24:0.184495 25:-0.616199 26:-0.459512 27:-0.930652 28:-0.523153 29:-0.505481 30:-0.439165 
-2.6041589837606 4.827650537241828 0.5556335600266715 1.592214712350725 1:-0.62966 2:-0.766584 3:-0.159372 4:-0.603729 5:-0.823209 6:-0.347334 7:-0.522695 8:0.358811 9:0.431187 10:-0.00993565 11:-0.608197 12:-0.38126 13:-0.317572 14:-0.637854 15:-0.428131 16:-0.502776 17:0.126876 18:-0.779853 19:-0.526271 20:-0.443092 21:-0.811733 22:0.566009 23:-0.14927 24:0.0434787 25:-0.43746 26:-0.865064 27:-0.824985 28:0.105974 29:-0.211656 30:-0.046444 
-0.442862289088898 9.112612400376593 16.4839728245387 0 1:-0.97831 2:-0.863872 3:-0.863719 4:-1 5:-0.902873 6:-0.874367 7:-0.398506 8:0.124495 9:-0.564403 10:-0.426887 11:-0.47153 12:0.00166614 13:-0.889366 14:-0.929111 15:-0.950506 16:-0.90852 17:-0.957289 18:-0.960067 19:-0.894629 20:-0.9589 21:-0.990149 22:-0.380672 23:0.5404 24:0.319048 25:-0.51282 26:-0.411291 27:-0.668231 28:-0.973774 29:-0.946219 30:-0.958331 
-0.9443957026949161 0 1.20292175608729 7.622612077932243 1:-0.941307 2:-0.910806 3:-0.739756 4:-0.995117 5:-0.945516 6:-0.847346 7:-0.262617 8:0.328116 9:0.289181 10:-0.901106 11:-0.803594 12:-0.794945 13:-0.788732 14:-0.982313 15:-0.93722 16:-0.906226 17:-0.949543 18:-0.726266 19:-0.849853 20:-0.981464 21:-0.896588 22:-0.579145 23:0.186767 24:0.132197 25:-0.223339 26:-0.803725 27:-0.890078 28:-0.888238 29:-0.865455 30:-0.881125 
-22.627 13.16126288665103 12.60192498009125 8.444177538741016 1:-0.78449 2:-0.79298 3:-0.892599 4:-0.876311 5:-0.864722 6:-0.905707 7:-0.53765 8:0.310155 9:0.296549 10:-0.10141 11:-0.584786 12:-0.529369 13:-0.786298 14:-0.889063 15:-0.888103 16:-0.747855 17:-0.841022 18:-0.392889 19:-0.853182 20:-0.900415 21:-0.62206 22:0.227997 23:0.458658 24:0.0739863 25:-0.840584 26:-0.399389 27:-0.948261 28:-0.703301 29:-0.82779 30:-0.717395 
-0 11.96018048290791 7.433069228406357 22.627 1:-0.820339 2:-0.762663 3:-0.843338 4:-0.896259 5:-0.854221 6:-0.8936 7:-0.09397 8:0.356615 9:0.0734585 10:-0.731344 11:-0.377518 12:-0.889363 13:-0.822184 14:-0.921335 15:-0.889468 16:-0.811167 17:-0.725033 18:-0.393791 19:-0.907657 20:-0.81862 21:-0.899964 22:-0.38692 23:0.17823 24:-0.567628 25:-0.497452 26:-0.91429 27:-0.321238 28:-0.703802 29:-0.704488 30:-0.693373 
-22.51844180776334 1.444845913127538 0.3637073192440142 0 1:-0.777514 2:-0.602133 3:-0.669584 4:-0.823068 5:-0.788532 6:-0.624495 7:-0.412259 8:-0.248347 9:-0.680885 10:-0.322241 11:-0.629403 12:0.106616 13:-0.731766 14:-0.732674 15:-0.695906 16:-0.636923 17:-0.655245 18:-0.690712 19:-0.668597 20:-0.755604 21:-0.778295 22:-0.0569938 23:-0.130691 24:0.0267884 25:-0.630286 26:-0.678154 27:-0.934691 28:-0.694869 29:-0.735595 30:-0.657807 
-0 13.05302139356498 0 0 1:-0.810114 2:-0.66073 3:-0.876904 4:-0.874545 5:-0.792095 6:-0.849234 7:-0.500553 8:0.104734 9:-0.606658 10:-0.207744 11:-0.654994 12:-0.0103038 13:-0.811949 14:-0.879744 15:-0.84453 16:-0.604624 17:-0.667039 18:-0.519387 19:-0.733855 20:-0.782753 21:-0.638555 22:0.374758 23:-0.228542 24:-0.103518 25:-0.602203 26:-0.72533 27:-0.90096 28:-0.706946 29:-0.762016 30:-0.644714 
-0 11.61127074804588 22.627 22.627 1:-0.976366 2:-0.905008 3:-0.918557 4:-0.975628 5:-0.934134 6:-0.927708 7:0.547536 8:0.3772 9:-0.0206756 10:-0.367802 11:-0.578984 12:-0.676106 13:-0.933884 14:-0.954068 15:-0.982763 16:-0.882094 17:-0.873404 18:-0.707845 19:-0.895455 20:-0.912242 21:-0.924507 22:0.306301 23:-0.373028 24:0.467424 25:-0.672598 26:-0.451562 27:-0.300952 28:-0.878019 29:-0.92467 30:-0.873455 
-3.423431522718989 1.18297789284116 1.760387763082588 0 1:-0.877045 2:-0.771524 3:-0.914242 4:-0.937005 5:-0.878344 6:-0.822302 7:0.337146 8:0.119377 9:0.969694 10:-0.354339 11:-0.963314 12:0.846305 13:-0.878947 14:-0.874296 15:-0.877245 16:-0.751067 17:-0.593133 18:-0.616385 19:-0.750249 20:-0.780152 21:-0.701947 22:-0.280713 23:0.370247 24:-0.304228 25:-0.726642 26:-0.73012 27:-0.797316 28:-0.631271 29:-0.550267 30:-0.594311 
-22.627 0 0 0 1:-0.869577 2:-0.725792 3:-0.817238 4:-0.952325 5:-0.85153 6:-0.864139 7:-0.386042 8:0.0922376 9:0.375197 10:-0.438604 11:-0.915747 12:-0.498724 13:-0.851633 14:-0.905723 15:-0.888907 16:-0.826398 17:-0.854561 18:-0.608785 19:-0.82214 20:-0.894195 21:-0.805875 22:-0.175 23:0.298381 24:-0.049968 25:-0.841749 26:-0.872417 27:-0.895099 28:-0.823067 29:-0.811487 30:-0.803478 
-1.829507942972138 6.935876282390072 7.12620676943498 8.203597765396173 1:-0.882451 2:-0.818238 3:-0.942149 4:-0.968868 5:-0.886461 6:-0.943387 7:0.319608 8:0.227623 9:0.282871 10:-0.707634 11:-0.736161 12:-0.672683 13:-0.884359 14:-0.937256 15:-0.946289 16:-0.206129 17:0.102868 18:-0.898235 19:-0.30486 20:-0.256115 21:-0.89622 22:-0.118383 23:0.252183 24:-0.194922 25:-0.916643 26:-0.923531 27:-0.849096 28:0.081392 29:-0.521784 30:-0.174705 
-0 9.07425543325626 14.51062918126687 11.81092235123921 1:-0.894449 2:-0.746831 3:-0.951978 4:-0.915618 5:-0.832662 6:-0.961198 7:-0.570026 8:0.472862 9:-0.102916 10:-0.0454788 11:-0.324212 12:-0.82448 13:-0.88082 14:-0.924188 15:-0.926549 16:-0.803643 17:-0.883453 18:-0.758598 19:-0.832188 20:-0.891601 21:-0.802676 22:0.191448 23:0.138762 24:0.0296161 25:-0.62848 26:-0.559437 27:-0.969461 28:-0.892097 29:-0.841094 30:-0.847716 
-15.78657041474886 0 0 9.681687069422217 1:-0.938701 2:-0.778773 3:-0.917989 4:-0.969511 5:-0.86951 6:-0.938065 7:0.273474 8:0.256672 9:0.245928 10:-0.878982 11:-0.789476 12:-0.798823 13:-0.89936 14:-0.947251 15:-0.951009 16:-0.729321 17:-0.9076 18:-0.524411 19:-0.960844 20:-0.984134 21:-0.964023 22:-0.51074 23:0.296269 24:0.10925 25:-0.00558308 26:-0.661078 27:-0.732479 28:-0.776261 29:-0.893563 30:-0.810197 
-0 2.775403322571346 0 0 1:-0.839964 2:-0.621016 3:-0.492528 4:-0.876046 5:-0.744103 6:-0.646286 7:-0.219866 8:0.364467 9:-0.32081 10:-0.594701 11:-0.579274 12:-0.407166 13:-0.58803 14:-0.79577 15:-0.706801 16:-0.674542 17:-0.804383 18:-0.807291 19:-0.613639 20:-0.844916 21:-0.792538 22:-0.00210334 23:0.0530394 24:0.359184 25:-0.579487 26:-0.768492 27:-0.677624 28:-0.791554 29:-0.789937 30:-0.730851 
-13.94821529122509 0 0 0.1692471121182463 1:-0.973857 2:-0.724783 3:-0.58339 4:-0.984914 5:-0.805808 6:-0.770648 7:0.198893 8:-0.167358 9:0.127062 10:-0.822278 11:-0.462401 12:-0.957144 13:-0.661793 14:-0.902654 15:-0.810986 16:-0.677937 17:-0.76244 18:-0.835373 19:-0.602887 20:-0.805672 21:-0.913684 22:0.185877 23:-0.255476 24:0.467561 25:-0.58638 26:-0.550344 27:-0.426775 28:-0.794198 29:-0.741966 30:-0.716972 
-3.400450053145946 0 0 0 1:-0.864763 2:-0.5583 3:-0.286186 4:-0.984715 5:-0.610858 6:0.0528127 7:-0.106706 8:-0.825129 9:-0.990714 10:-0.753202 11:0.578918 12:0.976384 13:-0.420521 14:-0.326578 15:-0.198968 16:-0.671239 17:-0.869077 18:-0.342265 19:-0.658802 20:-0.868359 21:-0.492827 22:-0.2506 23:0.500709 24:-0.200734 25:-0.742535 26:-0.619029 27:-0.891164 28:-0.675218 29:-0.58737 30:-0.607412 
-0.5645397411907558 0 0 0 1:-0.891433 2:-0.45979 3:-0.0923165 4:-0.908732 5:-0.444914 6:-0.139457 7:0.442032 8:-0.914193 9:-0.633251 10:-0.450648 11:0.790812 12:0.161785 13:-0.263136 14:-0.406597 15:-0.307416 16:-0.516172 17:-0.797823 18:-0.183692 19:-0.851618 20:-0.916788 21:-0.838455 22:-1 23:0.50692 24:0.352312 25:1 26:-0.122667 27:-0.204077 28:-0.587252 29:-0.727724 30:-0.614315 
-0 0 8.441255155411403 0 1:-0.949057 2:-0.844902 3:-0.940171 4:-0.969615 5:-0.903765 6:-0.93562 7:0.297564 8:0.21162 9:-0.302972 10:-0.722549 11:-0.836537 12:-0.123713 13:-0.937744 14:-0.939314 15:-0.967877 16:-0.866404 17:-0.879615 18:-0.613036 19:-0.888879 20:-0.912777 21:-0.744345 22:-0.155546 23:-0.101082 24:0.18661 25:-0.41348 26:-0.83213 27:-0.926904 28:-0.825425 29:-0.90668 30:-0.839581 
-0 4.915934434061855 15.24273118876577 9.524636964971489 1:-0.896091 2:-0.727815 3:-0.794958 4:-0.978778 5:-0.858275 6:-0.826272 7:0.164381 8:0.121232 9:-0.315716 10:-0.76369 11:-0.933887 12:-0.610207 13:-0.833545 14:-0.929463 15:-0.889288 16:-0.792173 17:-0.605974 18:-0.931083 19:-0.936221 20:-0.92266 21:-0.994888 22:-0.289574 23:0.188562 24:-0.098083 25:-0.58459 26:-0.875889 27:-0.864473 28:-0.644419 29:-0.84072 30:-0.750777 
-0 0.5301218864949726 0 4.56396750776288 1:-0.801841 2:-0.59318 3:-0.770872 4:-0.789556 5:-0.778638 6:-0.853353 7:-0.807006 8:0.0225768 9:0.0892862 10:0.521995 11:-0.895273 12:-0.917474 13:-0.791634 14:-0.845266 15:-0.8069 16:-0.641602 17:-0.804383 18:-0.437073 19:-0.698994 20:-0.875898 21:-0.616305 22:-0.11235 23:0.425225 24:-0.137127 25:-0.899339 26:-0.635707 27:-0.958595 28:-0.727812 29:-0.633842 30:-0.628306 
-4.198617213789142 22.627 22.627 22.627 1:-0.980498 2:-0.883442 3:-0.944293 4:-0.983282 5:-0.926614 6:-0.958247 7:0.496284 8:0.362918 9:-0.139873 10:-0.436389 11:-0.685593 12:-0.921293 13:-0.954776 14:-0.989867 15:-0.992842 16:-0.938891 17:-0.636681 18:-0.922453 19:-0.949576 20:-0.928779 21:-0.986873 22:0.11036 23:0.0398983 24:-0.084883 25:-0.829978 26:-0.851876 27:-0.831153 28:-0.675861 29:-0.870702 30:-0.792028 
-0 5.28477429549794 6.462211617013575 0 1:-0.497806 2:-0.434024 3:-0.667791 4:-0.749901 5:-0.311313 6:-0.699982 7:-0.0715208 8:0.974527 9:-0.564867 10:-0.405571 11:0.923761 12:-0.158681 13:-0.499324 14:-0.550129 15:-0.496358 16:-0.584989 17:-0.808361 18:-0.234188 19:-0.586519 20:-0.876815 21:-0.790618 22:-0.311068 23:-0.282233 24:0.382905 25:-0.0356129 26:-0.496725 27:-0.630592 28:-0.615264 29:-0.73878 30:-0.59857 
-3.213658098243397 0 0.07700692572384685 0.4271486564234372 1:-0.77831 2:-0.768929 3:-0.734819 4:-0.830094 5:-0.954685 6:-0.810041 7:-0.721398 8:0.257868 9:0.289297 10:0.323914 11:-0.753275 12:-0.680245 13:-0.780112 14:-0.910731 15:-0.824187 16:-0.828509 17:-0.866843 18:-0.748937 19:-0.750374 20:-0.874424 21:-0.863459 22:0.902406 23:-0.0193941 24:0.725144 25:0.468824 26:-0.52701 27:0.436927 28:-0.900815 29:-0.721353 30:-0.806523 
-5.076519357892025 0 0 0 1:-0.668102 2:-0.811532 3:0.069934 4:-0.673602 5:-0.917768 6:-0.117111 7:-0.699772 8:0.129446 9:0.618419 10:0.152592 11:-0.984701 12:0.0442393 13:-0.13142 14:-0.442733 15:-0.29645 16:-0.215121 17:-0.683649 18:-0.427412 19:-0.152371 20:-0.751727 21:-0.609613 22:-0.0842661 23:0.0301131 24:0.25573 25:-0.467069 26:-0.770544 27:-0.805685 28:-0.433757 29:-0.531716 30:-0.422006 
-22.627 22.627 21.84903524444001 22.627 1:-0.757223 2:-0.71872 3:-0.57674 4:-0.80986 5:-0.785248 6:-0.705214 7:0.0525531 8:-0.546434 9:-0.122346 10:-0.622812 11:0.0254598 12:-0.646937 13:-0.656394 14:-0.805821 15:-0.73523 16:-0.654907 17:-0.768372 18:-0.679763 19:-0.589276 20:-0.779218 21:-0.72718 22:0.272778 23:-0.193959 24:-0.02306 25:-0.575371 26:-0.591043 27:-0.828059 28:-0.776261 29:-0.673381 30:-0.668445 
-9.759622710672824 0 0 0 1:-0.691168 2:-0.555706 3:-0.102844 4:-0.773714 5:-0.799945 6:-0.113236 7:-0.206927 8:-0.318136 9:0.762296 10:-0.691584 11:-0.51348 12:0.306523 13:-0.271682 14:-0.451368 15:-0.303999 16:-0.435886 17:-0.663131 18:-0.77367 19:-0.299333 20:-0.759115 21:-0.760664 22:-0.16968 23:-0.129412 24:0.347189 25:-0.284754 26:-0.728621 27:-0.581507 28:-0.605688 29:-0.631406 30:-0.523981 
-22.627 18.17386232871316 22.627 22.627 1:-0.837718 2:-0.589719 3:-0.723685 4:-0.866358 5:-0.736938 6:-0.850073 7:-0.282262 8:-0.474961 9:0.178533 10:-0.446682 11:-0.180682 12:-0.95185 13:-0.775685 14:-0.880658 15:-0.800845 16:-0.704179 17:-0.56766 18:-0.682468 19:-0.70429 20:-0.693509 21:-0.669877 22:0.17979 23:-0.188087 24:0.304789 25:-0.731648 26:-0.559249 27:-0.781229 28:-0.605188 29:-0.67132 30:-0.611788 
-0.7003467064430285 0 0 0 1:0.119888 2:0.383339 3:0.900881 4:0.0186986 5:0.269592 6:0.761099 7:-0.107586 8:-0.774013 9:-0.319064 10:-0.00834877 11:0.523663 12:-0.040019 13:0.543149 14:0.546626 15:0.721378 16:-0.567005 17:-0.768721 18:-0.383486 19:-0.480716 20:-0.775644 21:-0.676083 22:0.290369 23:-0.27361 24:0.475376 25:-0.367928 26:-0.288919 27:-0.431809 28:-0.698085 29:-0.52066 30:-0.581228 
-0 0 5.874654527126486 2.745138611057551 1:-0.910587 2:-0.757072 3:-0.586906 4:-0.921804 5:-0.828082 6:-0.694391 7:0.513572 8:0.445228 9:-0.0210344 10:-0.489684 11:-0.354789 12:-0.76852 13:-0.664647 14:-0.894048 15:-0.790895 16:-0.80924 17:-0.77549 18:-0.615484 19:-0.738394 20:-0.805371 21:-0.838528 22:-0.0221142 23:-0.565688 24:0.624787 25:-0.142849 26:-0.0719939 27:-0.0086802 28:-0.817993 29:-0.711796 30:-0.742903 
-22.627 0.1096724760305846 0 4.471736201828963 1:-0.890398 2:-0.750165 3:-0.717629 4:-0.921116 5:-0.855985 6:-0.783959 7:-0.0465996 8:-0.11159 9:0.0194421 10:-0.684088 11:-0.654946 12:-0.74575 13:-0.770769 14:-0.922177 15:-0.849598 16:-0.533239 17:-0.715821 18:-0.642277 19:-0.455406 20:-0.771995 21:-0.699118 22:-0.172242 23:-0.234786 24:0.294228 25:-0.570252 26:-0.678529 27:-0.753085 28:-0.681506 29:-0.679003 30:-0.610753 
-5.15889902927232 0 0 0 1:-0.872698 2:-0.696166 3:-0.162644 4:-0.880189 5:-0.751033 6:-0.477689 7:-0.64972 8:-0.373298 9:-0.127183 10:0.19219 11:-0.132605 12:-0.78875 13:-0.320229 14:-0.797327 15:-0.620041 16:-0.803918 17:-0.99658 18:-0.873374 19:-0.753648 20:-1 21:-0.94581 22:0.283906 23:-0.00035528 24:-0.186778 25:-0.482221 26:-0.864499 27:-0.689205 28:-0.892311 29:-0.914926 30:-0.880456 
-6.360300302946992 1.611165513847676 0 0 1:-0.839476 2:-0.696493 3:-0.313734 4:-0.897629 5:-0.765119 6:-0.534049 7:0.164567 8:0.533623 9:0.0679299 10:-0.902399 11:-0.164863 12:-0.749717 13:-0.442884 14:-0.762578 15:-0.662201 16:-0.627472 17:-0.957289 18:-0.752544 19:-0.598391 20:-0.987685 21:-0.83022 22:0.188151 23:0.11517 24:-0.235019 25:-0.565264 26:-0.744487 27:-0.806726 28:-0.754895 29:-0.855711 30:-0.765343 
-8.98037530948071 0 0 0 1:-0.721446 2:-0.346022 3:0.453237 4:-0.729366 5:-0.430994 6:-0.0457549 7:-0.623822 8:-0.350444 9:-0.0836007 10:0.124828 11:-0.0683681 12:-0.68992 13:0.179748 14:-0.539281 15:-0.219057 16:-0.507088 17:-0.77877 18:-0.555842 19:-0.467444 20:-0.826959 21:-0.536443 22:0.201126 23:0.156857 24:0.393873 25:-0.634379 26:-0.798692 27:-0.64138 28:-0.66114 29:-0.639277 30:-0.610821 
-0 9.360631841332951 0 0 1:-0.805637 2:-0.752523 3:-0.404903 4:-0.808001 5:-0.810056 6:-0.654504 7:-0.596199 8:0.449895 9:0.0288911 10:0.116415 11:-0.485511 12:-0.925225 13:-0.516896 14:-0.79849 15:-0.716992 16:-0.788687 17:-0.950869 18:-0.773026 19:-0.785051 20:-0.951238 21:-0.763956 22:0.0426637 23:0.233497 24:0.141175 25:-0.788694 26:-0.569168 27:-0.774005 28:-0.880449 29:-0.87445 30:-0.860064 
-0.04804775445471719 0 0 0 1:-0.242937 2:0.483151 3:1 4:-0.395583 5:0.231548 6:1 7:-0.164758 8:-0.671163 9:-0.699661 10:-0.545068 11:0.0673063 12:0.347997 13:0.623614 14:0.511203 15:0.740517 16:-0.140065 17:-0.392351 18:-0.283396 19:0.0647787 20:-0.44732 21:-0.308477 22:-0.375528 23:-0.199155 24:0.426494 25:-0.072358 26:-0.583507 27:-0.558504 28:-0.375304 29:-0.126019 30:-0.122756 
-20.12329018979567 1.646521376324112 0.2182482389281208 0 1:-0.194157 2:-0.111997 3:-0.258946 4:-0.23465 5:-0.496258 6:-0.202956 7:-0.480233 8:0.0998287 9:-0.393937 10:-0.197193 11:-0.804135 12:-0.0135523 13:-0.195367 14:-0.319532 15:-0.133967 16:-0.521494 17:-0.60381 18:-0.352312 19:-0.364785 20:-0.699337 21:-0.438079 22:0.0834021 23:-0.155951 24:0.507382 25:-0.255917 26:-0.570161 27:-0.395843 28:-0.642204 29:-0.438958 30:-0.466401 
-16.14603541075432 0 0 0 1:-0.642402 2:-0.222133 3:-0.438277 4:-0.662639 5:-0.519727 6:-0.588955 7:0.550883 8:0.340383 9:0.27021 10:-0.289256 11:-0.704969 12:-0.432694 13:-0.543989 14:-0.643642 15:-0.538982 16:-0.207322 17:-0.555168 18:-0.168363 19:-0.0783043 20:-0.704835 21:-0.209872 22:-0.468063 23:-0.251872 24:0.365429 25:-0.150234 26:-0.551299 27:-0.672193 28:-0.427683 29:-0.238827 30:-0.288315 
-1.054278094537838 0 0 0.1118661599521093 1:-0.0854701 2:-0.090068 3:-0.0536623 4:-0.130475 5:-0.480952 6:-0.0560932 7:-0.364045 8:0.166619 9:-0.194888 10:-0.205308 11:-0.861504 12:-0.198292 13:-0.08657 14:-0.237229 15:-0.0025422 16:-0.639216 17:-0.783167 18:0.101378 19:-0.476773 20:-0.825183 21:0.0382429 22:-0.559506 23:-0.408931 24:0.332058 25:0.244461 26:-0.394446 27:-0.683663 28:-0.429112 29:-0.415535 30:-0.430984 
-1.37431945208611 0.5656654921045819 0.4114001441297813 0.6610250077574366 1:0.329461 2:1 3:0.87987 4:0.279275 5:0.756709 6:0.819237 7:-0.503695 8:-0.777777 9:-0.64632 10:-0.256107 11:0.421202 12:0.26023 13:0.526092 14:1 15:1 16:-0.106116 17:-0.66983 18:0.281721 19:0.0199516 20:-0.772483 21:0.175165 22:-0.37488 23:-0.11833 24:0.304377 25:-0.486088 26:-0.829587 27:-0.772212 28:-0.32907 29:-0.279678 30:-0.177592 
-0 0 0 0.2918479182811958 1:0.297404 2:0.916658 3:0.434075 4:0.186663 5:1 6:0.329691 7:-0.188262 8:-0.932132 9:-0.281171 10:-0.341483 11:0.831899 12:-0.142604 13:0.296692 14:0.742252 15:0.811251 16:-0.523054 17:-0.737804 18:-0.12727 19:-0.476174 20:-0.832574 21:0.0700873 22:0.141969 23:-0.294806 24:0.693901 25:-0.190312 26:-0.571546 27:-0.0728873 28:-0.555953 29:-0.341329 30:-0.414906 
-0 -5.778452315143892 0 22.627 1:-0.633732 2:-0.62153 3:-0.755929 4:-0.734851 5:-0.771766 6:-0.78932 7:0.024346 8:0.406741 9:0.32055 10:-0.675839 11:-0.233391 12:-0.503028 13:-0.635388 14:-0.788106 15:-0.730787 16:-0.507822 17:-0.597041 18:-0.398557 19:-0.565368 20:-0.714608 21:-0.487756 22:0.320855 23:-0.0968295 24:-0.130591 25:-0.87154 26:-0.858059 27:-0.649664 28:-0.635272 29:-0.652956 30:-0.568641 
-1.766876665211794 -2.302285909978345 1.722987756759666 0 1:-0.567603 2:-0.786384 3:-0.753559 4:-0.685448 5:-0.874247 6:-0.773674 7:0.0343922 8:0.254708 9:0.726497 10:-0.801198 11:-0.637489 12:0.254663 13:-0.569191 14:-0.892026 15:-0.723754 16:-0.293756 17:0.00153533 18:-0.743012 19:-0.283282 20:-0.286264 21:-0.777678 22:0.208357 23:-0.118658 24:0.187996 25:-0.687355 26:-0.844091 27:-0.763344 28:-0.0223667 29:-0.452075 30:-0.174442 
-6.977296511058846 -0 22.627 0 1:-0.429261 2:-0.770643 3:-0.773518 4:-0.395135 5:-0.896906 6:-0.811961 7:0.382714 8:-0.0119651 9:0.399198 10:-0.0943883 11:-0.882146 12:-0.290225 13:-0.430709 14:-0.740267 15:-0.545727 16:-0.732257 17:-0.746319 18:-0.740951 19:-0.849621 20:-0.886596 21:-0.944515 22:-0.178488 23:0.269618 24:-0.0498912 25:-0.56148 26:-0.645897 27:-0.888176 28:-0.788123 29:-0.77251 30:-0.760272 
-3.449391003802504 -1.7078187528349 2.807638300692621 0 1:0.133658 2:-0.208289 3:0.763954 4:0.254292 5:-0.614535 6:0.412509 7:0.603601 8:-0.082804 9:-0.448478 10:0.0019634 11:-0.976286 12:-0.151519 13:0.43199 14:0.23794 15:0.4691 16:0.0839107 17:0.0984018 18:-0.169264 19:-0.0330689 20:-0.136147 21:0.183621 22:0.238248 23:-0.36894 24:-0.669169 25:-0.660083 26:-0.336768 27:-0.18791 28:0.0768186 29:0.243137 30:0.198109 
-0 -0 11.35910793645168 0 1:-0.0109773 2:-0.318871 3:-0.284674 4:0.0141118 5:-0.537773 6:-0.566726 7:0.597428 8:0.556385 9:0.396929 10:0.156446 11:0.0385145 12:-0.436917 13:-0.0120017 14:-0.286316 15:-0.123539 16:-0.628389 17:-0.741922 18:-0.793894 19:-0.563569 20:-0.781002 21:-0.83174 22:0.61365 23:0.00930324 24:-0.17143 25:-0.219017 26:-0.565387 27:-0.919796 28:-0.75561 29:-0.67994 30:-0.6804 
-0 -0 1.398252205833493 0 1:0.217644 2:-0.348199 3:-0.410656 4:0.380826 5:-0.513015 6:-0.518897 7:0.385534 8:0.674625 9:0.470864 10:-0.0806398 11:0.230069 12:-0.340119 13:0.216851 14:-0.0908199 15:0.137231 16:-0.725375 17:-0.636262 18:-0.515909 19:-0.745948 20:-0.560704 21:-0.14911 22:0.432328 23:0.904254 24:-1 25:-0.54225 26:0.396375 27:0.934916 28:-0.675432 29:-0.139698 30:-0.40645 
-0 -0 1.757185769229425 0 1:0.423475 2:0.017389 3:-0.162604 4:0.689826 5:-0.286188 6:-0.529072 7:0.817153 8:0.516022 9:-0.199526 10:0.550751 11:-0.0675568 12:-0.564698 13:0.42289 14:0.233976 15:0.411281 16:-0.335964 17:-0.8152 18:-0.256215 19:-0.363645 20:-0.92897 21:-0.217868 22:0.426986 23:0.0636993 24:-0.537178 25:-0.642438 26:-0.903518 27:-0.111408 28:-0.527869 29:-0.452263 30:-0.489046 
-0 -0 22.627 5.592344691803445 1:-0.279572 2:-0.303465 3:-0.358262 4:-0.185128 5:-0.498432 6:-0.55355 7:0.526208 8:0.455352 9:-0.279322 10:0.0518964 11:-0.206356 12:-0.512696 13:-0.280868 14:-0.32167 15:-0.255817 16:-0.54691 17:-0.448252 18:-0.851475 19:-0.705761 20:-0.739154 21:-0.877667 22:0.521707 23:0.386213 24:0.501062 25:-0.556053 26:-0.670649 27:-0.0163919 28:-0.482921 29:-0.639464 30:-0.533937 
-0 -0.13321655325975 0 0 1:-0.0310887 2:-0.163145 3:-0.0189939 4:0.036836 5:-0.0742556 6:-0.118774 7:0.26684 8:0.996826 9:-0.509063 10:-0.337246 11:0.970435 12:0.0332716 13:-0.0321335 14:0.136459 15:0.163939 16:-0.188879 17:-0.381534 18:-0.383099 19:-0.531347 20:-0.647293 21:-0.0646674 22:0.673924 23:0.261571 24:-0.658068 25:-0.257988 26:-0.845105 27:0.387723 28:-0.41332 29:-0.307411 30:-0.236033 
-0 -0 5.796416650186263 0 1:-0.382009 2:-0.600698 3:-0.675965 4:-0.33027 5:-0.786908 6:-0.807566 7:-0.690821 8:-0.0289153 9:0.0377965 10:0.041135 11:-0.8321 12:-1 13:-0.38341 14:-0.661587 15:-0.479384 16:-0.30807 17:-0.553772 18:-0.70733 19:-0.897245 20:-0.728509 21:-0.747459 22:0.21993 23:0.475651 24:-0.110725 25:-0.795643 26:-0.504946 27:-0.938469 28:-0.506145 29:-0.567132 30:-0.498702 
-0 -0 0 8.277321108363752 1:-0.356636 2:-0.732453 3:-0.433656 4:-0.444582 5:-0.73175 6:-0.538347 7:-0.340802 8:0.849999 9:-0.39617 10:-0.722747 11:0.631734 12:-0.37965 13:-0.358011 14:-0.600622 15:-0.414343 16:-0.488095 17:-0.790914 18:-0.214994 19:-0.462785 20:-0.774202 21:0.0543297 22:0.359213 23:-0.614661 24:-0.592908 25:-0.638276 26:0.0431525 27:-0.164032 28:-0.604616 29:-0.354446 30:-0.392185 
-0 -0 13.89564011200954 0 1:-0.213688 2:-0.788996 3:-0.611631 4:0.0431927 5:-0.816481 6:-0.668345 7:0.828872 8:-0.50188 9:-0.367639 10:0.584292 11:-0.410743 12:-0.238944 13:-0.214918 14:-0.297393 15:-0.167247 16:-0.807129 17:-0.683649 18:-0.772768 19:-0.796027 20:-0.662277 21:-0.693207 22:-0.111596 23:0.261462 24:-0.219287 25:-0.828181 26:-0.376484 27:-0.210378 28:-0.723953 29:-0.594116 30:-0.648395 
-7.700150305943073 -3.334265523098799 0 22.627 1:-0.72529 2:-0.807176 3:-0.841522 4:-0.670108 5:-0.870819 6:-0.924473 7:-0.571471 8:-0.015668 9:0.0996708 10:0.0312225 11:-0.713378 12:-0.839456 13:-0.727039 14:-0.847904 15:-0.76444 16:-0.629949 17:-0.604578 18:-0.584825 19:-0.618684 20:-0.618469 21:-0.477113 22:0.0813305 23:0.2394 24:0.0172803 25:-0.692466 26:-0.574419 27:-0.332344 28:-0.64299 29:-0.487867 30:-0.519339 
-6.599315350933629 -1.668393323762567 0.2763090237723095 0 1:-0.646866 2:-0.72712 3:0.0304147 4:-0.702304 5:-0.75429 6:0.217471 7:-0.391052 8:0.744602 9:-0.900901 10:-0.656803 11:0.419877 12:0.764586 13:-0.163502 14:-0.20478 15:-0.0666979 16:-0.611873 17:-0.660339 18:-0.678732 19:-0.632941 20:-0.681571 21:-0.654177 22:0.0443494 23:0.259171 24:-0.17452 25:-0.832927 26:-0.460294 27:-0.383069 28:-0.700086 29:-0.640401 30:-0.60481 
-0 -0 22.627 22.627 1:-0.711632 2:-0.806384 3:-0.78976 4:-0.727569 5:-0.87499 6:-0.866782 7:-0.483055 8:0.0414762 9:0.0687575 10:-0.49877 11:-0.696739 12:-0.958007 13:-0.713366 14:-0.887561 15:-0.788465 16:-0.671881 17:-0.714216 18:-0.660698 19:-0.672833 20:-0.740391 21:-0.59729 22:0.183028 23:0.288472 24:0.143709 25:-0.795135 26:-0.551131 27:-0.517314 28:-0.755252 29:-0.669071 30:-0.65308 
-2.758327986636019 -0.1625831944731326 0 0 1:-0.132854 2:-0.515774 3:-0.133842 4:0.140711 5:-0.515412 6:-0.0508704 7:0.777225 8:-0.645468 9:-0.720545 10:0.507365 11:0.284996 12:0.414322 13:-0.134002 14:0.176524 15:0.163192 16:-0.720145 17:-0.534092 18:-0.682339 19:-0.692319 20:-0.518888 21:-0.59563 22:0.336494 23:-0.444676 24:0.587338 25:-0.586811 26:-0.454628 27:-0.258194 28:-0.570816 29:-0.310035 30:-0.453655 
-0 -0 22.627 0 1:-0.556418 2:-0.730477 3:-0.846984 4:-0.49732 5:-0.763651 6:-0.891771 7:0.524901 8:-0.643079 9:0.302771 10:0.128553 11:-0.050263 12:-0.728873 13:-0.557996 14:-0.705643 15:-0.62055 16:-0.79199 17:-0.666132 18:-0.703336 19:-0.811886 20:-0.708364 21:-0.710753 22:0.229101 23:0.632778 24:0.0528533 25:-0.737397 26:-0.115534 27:-0.549324 28:-0.706017 29:-0.666073 30:-0.677281 
-0.2969837037823306 -1.71160555081854 1.799919348984331 1.984716973270966 1:-0.543094 2:-0.388133 3:-0.666796 4:-0.596138 5:-0.363278 6:-0.596001 7:-0.446605 8:0.901828 9:0.950961 10:-0.606613 11:0.781333 12:0.79105 13:-0.544658 14:-0.474035 15:-0.441422 16:-0.699959 17:-0.319143 18:-0.50702 19:-0.647034 20:-0.351596 21:-0.425457 22:-0.524027 23:0.393743 24:-0.519981 25:0.0783229 26:-0.418957 27:-0.220015 28:-0.350722 29:-0.127143 30:-0.298301 
-0 -0 3.734491269632853 0 1:-0.703154 2:-0.705359 3:-0.779366 4:-0.718177 5:-0.739402 6:-0.791984 7:-0.43017 8:0.776351 9:0.523313 10:-0.540139 11:0.476454 12:-0.190201 13:-0.70488 14:-0.769712 15:-0.726255 16:-0.820526 17:-0.650569 18:-0.735154 19:-0.796536 20:-0.628777 21:-0.681034 22:0.439798 23:0.596442 24:0.140979 25:-0.618599 26:0.0929909 27:-0.516312 28:-0.690081 29:-0.623723 30:-0.609885 
-0 -0 22.627 16.10021350756275 1:-0.57255 2:-0.502749 3:-0.709141 4:-0.632186 5:-0.592093 6:-0.825758 7:-0.416716 8:0.624701 9:0.113153 10:-0.639061 11:0.211178 12:-0.895718 13:-0.574143 14:-0.712796 15:-0.635926 16:-0.775932 17:-0.555796 18:-0.585598 19:-0.773393 20:-0.592025 21:-0.446368 22:0.203875 23:0.444659 24:-0.224805 25:-0.719882 26:-0.507608 27:-0.361238 28:-0.59304 29:-0.480558 30:-0.525592 
-10.57739265526396 -0 0 0 1:-0.425994 2:-0.468309 3:-0.476172 4:-0.360252 5:-0.567737 6:-0.45634 7:0.545792 8:-0.220024 9:0.735695 10:0.125811 11:-0.253171 12:0.366541 13:-0.427439 14:-0.523618 15:-0.338905 16:-0.715741 17:-0.505897 18:-0.724462 19:-0.728187 20:-0.513078 21:-0.680291 22:0.182741 23:0.488552 24:-0.09941 25:-0.795503 26:-0.3901 27:-0.485252 28:-0.541947 29:-0.439895 30:-0.487742 
-0 -0 22.627 0 1:-0.756287 2:-0.878339 3:-0.839017 4:-0.747471 5:-0.936489 6:-0.904013 7:-0.628887 8:-0.420106 9:-0.00168501 10:-0.124068 11:-0.276511 12:-0.995413 13:-0.758066 14:-0.884061 15:-0.829022 16:-0.771069 17:-0.644567 18:-0.746103 19:-0.762642 20:-0.661952 21:-0.712534 22:0.183934 23:0.392763 24:-0.280629 25:-0.732491 26:-0.329552 27:-0.416458 28:-0.683936 29:-0.586058 30:-0.642243 
-0 -0 3.220888778563041 0 1:-0.289763 2:-0.36289 3:-0.326745 4:-0.182878 5:-0.507764 6:-0.32345 7:0.67828 8:-0.232041 9:0.798015 10:0.345231 11:-0.287968 12:0.388947 13:-0.29107 14:-0.386177 15:-0.136005 16:-0.789788 17:-0.508968 18:-0.669715 19:-0.778519 20:-0.450888 21:-0.638574 22:0.333303 23:0.621094 24:-0.119872 25:-0.748982 26:-0.274037 27:-0.485995 28:-0.545091 29:-0.472501 30:-0.439318 
-0 -0 14.82295591011061 0 1:-0.179386 2:-0.550186 3:-0.572742 4:-0.22921 5:-0.698982 6:-0.675432 7:0.251587 8:0.462449 9:0.276764 10:-0.259063 11:-0.48325 12:-0.36776 13:-0.180581 14:-0.545388 15:-0.359709 16:-0.564344 17:-0.635006 18:-0.790674 19:-0.657401 20:-0.903759 21:-0.819138 22:0.00379716 23:-0.0464867 24:0.0701241 25:-0.987195 26:-0.692929 27:-0.883498 28:-0.674146 29:-0.728474 30:-0.641164 
-22.627 -18.07139331800155 22.627 22.15282063953293 1:-0.587425 2:-0.680512 3:-0.603942 4:-0.700441 5:-0.822087 6:-0.7543 7:-0.316525 8:-0.166376 9:-0.13454 10:-0.684026 11:-0.863437 12:-0.919557 13:-0.589034 14:-0.805938 15:-0.706685 16:-0.763821 17:-0.958266 18:-0.77805 19:-0.730551 20:-0.962554 21:-0.862634 22:-0.370284 23:0.290332 24:0.123632 25:-0.525009 26:-0.643296 27:-0.905308 28:-0.861083 29:-0.834161 30:-0.829295 
-0.1495271162761758 -0 9.178580289884016 22.627 1:-0.436824 2:-0.455684 3:-0.37141 4:-0.477597 5:-0.652292 6:-0.630511 7:0.425035 8:0.358458 9:-0.123075 10:-0.299764 11:-0.588207 12:-0.859894 13:-0.43828 14:-0.647867 15:-0.499457 16:-0.629766 17:-0.6833 18:-0.567564 19:-0.630559 20:-0.786348 21:-0.461764 22:-0.262376 23:0.171721 24:-0.77054 25:-0.736751 26:-0.836077 27:0.417012 28:-0.723596 29:-0.563759 30:-0.616309 
-0 -3.962025308548553 0 0 1:-0.665819 2:-0.419445 3:-0.77427 4:-0.507276 5:-0.592765 6:-0.8297 7:-0.841913 8:0.609091 9:-0.592005 10:0.65498 11:-0.0246427 12:-0.010225 13:-0.667507 14:-0.514957 15:-0.548081 16:-0.424967 17:-0.47847 18:-0.808193 19:-0.782535 20:-0.578889 21:-0.829471 22:0.146866 23:0.359116 24:0.182284 25:-0.834786 26:-0.728432 27:-0.868676 28:-0.513863 29:-0.580062 30:-0.472793 
-0.6959592180531819 -0 17.3683434652735 9.41477204357872 1:-0.374791 2:-0.619255 3:-0.880235 4:-0.332711 5:-0.722358 6:-0.898099 7:0.626699 8:0.420971 9:0.291142 10:0.0772718 11:-0.146389 12:-0.642253 13:-0.376184 14:-0.606727 15:-0.464589 16:-0.828692 17:-0.802429 18:-0.611877 19:-0.850347 20:-0.826035 21:-0.647526 22:-0.508974 23:0.816457 24:0.410147 25:-0.073253 26:0.258422 27:-0.589785 28:-0.824782 29:-0.6419 30:-0.740777 
-0 -0 22.627 22.627 1:-0.308094 2:-0.61833 3:-0.799637 4:-0.378224 5:-0.767309 6:-0.839336 7:0.343534 8:0.297181 9:-0.146595 10:-0.230028 11:-0.496633 12:-0.772154 13:-0.30942 14:-0.718539 15:-0.52197 16:-0.542414 17:-0.340289 18:-0.847482 19:-0.510444 20:-0.568534 21:-0.860759 22:-0.262656 23:0.257008 24:0.170722 25:-0.792934 26:-0.896571 27:-0.850476 28:-0.372374 29:-0.499672 30:-0.366247 
-0 -0 0 0.2404407370206525 1:-0.382231 2:-0.723841 3:-0.362314 4:-0.39895 5:-0.777269 6:-0.55148 7:0.235247 8:0.654343 9:0.108894 10:-0.333578 11:0.232659 12:-0.56094 13:-0.383631 14:-0.561252 15:-0.442051 16:-0.642336 17:-0.932863 18:-0.514749 19:-0.598495 20:-0.963209 21:-0.321771 22:0.197564 23:0.31347 24:-0.984848 25:-0.693036 26:-0.780815 27:0.879764 28:-0.766471 29:-0.54502 30:-0.629354 
-0 -0 7.641186793929069 17.40764231991564 1:-0.313921 2:-0.424278 3:-0.510987 4:-0.344506 5:-0.585055 6:-0.686173 7:0.766816 8:0.491325 9:-0.292128 10:0.38847 11:-0.23798 12:-0.675724 13:-0.315252 14:-0.546648 15:-0.423156 16:-0.15548 17:-0.0360807 18:-0.216669 19:-0.24903 20:-0.367647 21:-0.186661 22:-0.0363954 23:0.156441 24:-0.443002 25:-0.917598 26:-0.933515 27:-0.567413 28:-0.0608832 29:-0.524595 30:-0.156605 
-0 -0 0 0.6103951676027283 1:-0.507377 2:-0.822787 3:-0.727331 4:-0.393386 5:-0.86025 6:-0.700788 7:0.365859 8:0.524897 9:-0.337576 10:0.0873749 11:-0.0480091 12:-0.0157414 13:-0.508904 14:-0.613447 15:-0.507771 16:-0.542873 17:-0.508968 18:-0.333634 19:-0.680593 20:-0.838513 21:-0.816856 22:0.0721221 23:0.00892467 24:0.109164 25:-0.957799 26:-0.953388 27:-0.87692 28:-0.545091 29:-0.639277 30:-0.518313 
-0 -0 22.627 0 1:-0.608737 2:-0.642166 3:-0.640405 4:-0.724143 5:-0.674046 6:-0.74063 7:-0.12299 8:0.819097 9:-0.022372 10:-0.837442 11:0.543498 12:-0.458619 13:-0.610367 14:-0.7518 15:-0.67124 16:-0.817773 17:-0.902436 18:-0.809352 19:-0.770184 20:-0.924232 21:-0.834964 22:0.0582621 23:0.333414 24:0.083024 25:-0.588003 26:-0.672017 27:-0.882214 28:-0.903101 29:-0.861894 30:-0.849579 
-0 -0 15.91089794298877 0 1:-0.1998 2:-0.678191 3:-0.718254 4:0.0632951 5:-0.812133 6:-0.765279 7:0.861751 8:-0.285843 9:-0.433521 10:0.67175 11:-0.721296 12:-0.318092 13:-0.201016 14:-0.323884 15:-0.177239 16:-0.827499 17:-0.76914 18:-0.65181 19:-0.893114 20:-0.88516 21:-0.666217 22:-0.289302 23:0.384855 24:-0.346033 25:-0.473386 26:-0.710586 27:-0.579568 28:-0.811491 29:-0.74665 30:-0.759411 
-2.624872832357926 -2.681172357946335 22.627 20.03738141553149 1:-0.420099 2:-0.598024 3:-0.485063 4:-0.493813 5:-0.699939 6:-0.656655 7:0.390361 8:0.482563 9:-0.227736 10:-0.31417 11:-0.318007 12:-0.751538 13:-0.421538 14:-0.646368 15:-0.53515 16:-0.733908 17:-0.861958 18:-0.622955 19:-0.746723 20:-0.915453 21:-0.747872 22:-0.473738 23:0.177281 24:0.348851 25:-0.322037 26:-0.651951 27:-0.741798 28:-0.830928 29:-0.751148 30:-0.765061 
-0 -0 9.618492121797859 0 1:-0.166641 2:-0.431198 3:-0.368852 4:-0.266551 5:-0.511237 6:-0.619787 7:0.480852 8:0.750174 9:-0.0525763 10:-0.167494 11:0.428827 12:-0.954525 13:-0.167823 14:-0.616739 15:-0.331289 16:-0.720879 17:-0.875567 18:-0.795053 19:-0.59318 20:-0.883985 21:-0.767869 22:-0.622979 23:0.261606 24:0.389999 25:0.100638 26:-0.6578 27:-0.570514 28:-0.82764 29:-0.694369 30:-0.739952 
-0 -0 0 12.93274667582551 1:-0.501543 2:-0.741594 3:-0.680816 4:-0.450617 5:-0.794002 6:-0.773026 7:0.717863 8:0.665719 9:-0.074007 10:0.324145 11:0.228056 12:-0.826038 13:-0.503064 14:-0.691374 15:-0.562395 16:-0.648117 17:-0.935864 18:-0.594744 19:-0.603189 20:-0.950934 21:-0.701513 22:0.553401 23:0.242869 24:0.093419 25:-0.399733 26:-0.803234 27:-0.817704 28:-0.770973 29:-0.758081 30:-0.73896 
-14.00485700676279 -0.433158716136709 0 0 1:-0.416244 2:-0.549063 3:-0.490619 4:-0.353723 5:-0.655926 6:-0.639882 7:0.731299 8:0.485554 9:0.282548 10:0.349162 11:-0.449461 12:-0.498871 13:-0.41768 14:-0.584602 15:-0.417377 16:-0.502133 17:-0.835718 18:-0.430375 19:-0.519865 20:-0.884095 21:-0.54709 22:0.450413 23:-0.0875005 24:0.122216 25:-0.50574 26:-0.78495 27:-0.95459 28:-0.657282 29:-0.712171 30:-0.644041 
-16.65617291162251 -0 22.627 0.1043336348459553 1:-0.179614 2:-0.489196 3:-0.470431 4:-0.333922 5:-0.635901 6:-0.634683 7:0.395559 8:0.441735 9:-0.0503154 10:-0.392386 11:-0.451724 12:-0.705796 13:-0.18081 14:-0.677454 15:-0.412414 16:-0.553884 17:-0.781911 18:-0.514878 19:-0.616029 20:-0.92692 21:-0.546129 22:-0.36342 23:0.34569 24:0.416468 25:-0.619294 26:-0.710314 27:-0.644527 28:-0.697585 29:-0.613417 30:-0.624302 
-20.21254740127605 -9.526156612792416 4.154156917993807 9.161238525775833 1:-0.490304 2:-0.641305 3:-0.388279 4:-0.616433 5:-0.701066 6:-0.6065 7:0.214045 8:0.550456 9:0.142974 10:-0.665802 11:0.112522 12:-0.735029 13:-0.491814 14:-0.789505 15:-0.582392 16:-0.376428 17:-0.802149 18:-0.399459 19:-0.534999 20:-0.874089 21:-0.523006 22:0.511465 23:0.497265 24:0.194496 25:-0.490978 26:-0.0637645 27:-0.848155 28:-0.559383 29:-0.650145 30:-0.599498 
-0 -4.490570528624485 0.2212757225060668 0 1:-0.554629 2:-0.604239 3:-0.575385 4:-0.665275 5:-0.661691 6:-0.667574 7:-0.180234 8:0.483005 9:0.426998 10:-0.808057 11:0.0728159 12:-0.31069 13:-0.556204 14:-0.696215 15:-0.621495 16:-0.61325 17:-0.618745 18:-0.577741 19:-0.757419 20:-0.904992 21:-0.699604 22:0.128105 23:-0.0521346 24:0.386324 25:-0.775687 26:-0.882624 27:-0.704338 28:-0.657496 29:-0.747962 30:-0.659517 
-0 -0.2017252077799837 2.246921056544561 0 1:-0.977734 2:-0.955972 3:-0.972672 4:-0.97866 5:-0.925916 6:-0.943331 7:0.716314 8:0.888595 9:-0.716377 10:0.223696 11:0.684011 12:0.226824 13:-0.977815 14:-0.923639 15:-0.983187 16:-0.978713 17:-1 18:-0.914208 19:-1 20:-0.99578 21:-1 22:-0.00287675 23:0.619599 24:-0.05184 25:-0.929205 26:-0.0536119 27:-0.502563 28:-0.992497 29:-1 30:-1 
-0 -3.203712284614525 14.02940246062031 22.18075462652858 1:-0.941043 2:-0.956545 3:-0.952583 4:-0.990362 5:-1 6:-0.962207 7:0.850593 8:0.406257 9:-0.0703005 10:0.617466 11:-0.154414 12:-0.587598 13:-0.94301 14:-0.964551 15:-0.997986 16:-1 17:-0.953242 18:-0.975911 19:-0.998302 20:-0.955543 21:-0.991215 22:0.008053 23:0.460705 24:-0.399713 25:-0.84747 26:-0.664531 27:-0.593637 28:-1 29:-0.973203 30:-0.984382 
-2.529097983551084 -0 0 0 1:-0.859234 2:-0.920879 3:-0.866185 4:-0.757645 5:-0.916583 6:-0.864176 7:0.965132 8:0.697382 9:-0.497964 10:0.906122 11:0.188897 12:-0.0388206 13:-0.861118 14:-0.783147 15:-0.82197 16:-0.948525 17:-0.935236 18:-0.819786 19:-0.951098 20:-0.924822 21:-0.905633 22:0.304472 23:0.468252 24:0.231123 25:-0.608976 26:-0.432411 27:-0.827071 28:-0.940117 29:-0.919423 30:-0.923912 
-0 -0 9.401908978807299 0 1:-0.692267 2:-0.779544 3:-0.74095 4:-0.601735 5:-0.796489 6:-0.787114 7:0.845092 8:0.803598 9:-0.424501 10:0.528123 11:0.462776 12:-0.385033 13:-0.693982 14:-0.632796 15:-0.660172 16:-0.853833 17:-0.819108 18:-0.676929 19:-0.857946 20:-0.860985 21:-0.752323 22:0.144444 23:-0.0233788 24:0.18916 25:-0.865935 26:-0.699676 27:-0.861238 28:-0.860869 29:-0.879696 30:-0.826518 
-0 -0 22.627 0 1:-0.657519 2:-0.757072 3:-0.738589 4:-0.620316 5:-0.701181 6:-0.746311 7:0.690756 8:0.992135 9:-0.623554 10:0.0282999 11:0.955336 12:0.132482 13:-0.659199 14:-0.596422 15:-0.641843 16:-0.813002 17:-0.786866 18:-0.802911 19:-0.793714 20:-0.800958 21:-0.797036 22:0.696209 23:-0.341955 24:0.444488 25:-0.236892 26:-0.702146 27:-0.446712 28:-0.829641 29:-0.743652 30:-0.771343 
-9.189336927801859 -22.627 22.627 22.627 1:-0.864405 2:-0.915243 3:-0.875593 4:-0.907216 5:-0.965378 6:-0.908921 7:-0.215121 8:0.248181 9:0.161398 10:-0.765564 11:-0.672772 12:-0.732366 13:-0.866294 14:-0.977506 15:-0.94271 16:-0.689407 17:-0.565985 18:-0.759243 19:-0.687986 20:-0.658938 21:-0.76057 22:0.50537 23:-0.24785 24:0.29067 25:-0.608686 26:-0.79808 27:-0.806574 28:-0.603473 29:-0.611731 30:-0.621631 
-0 -0 22.627 22.627 1:-0.821338 2:-0.925382 3:-0.870072 4:-0.83397 5:-0.934247 6:-0.902248 7:0.665001 8:0.546749 9:0.16517 10:0.00705675 11:-0.082457 12:-0.83109 13:-0.823184 14:-0.912916 15:-0.892157 16:-0.835849 17:-0.666481 18:-0.748937 19:-0.850403 20:-0.75084 21:-0.765115 22:0.228876 23:-0.187596 24:0.204486 25:-0.901371 26:-0.692087 27:-0.805318 28:-0.706374 29:-0.70074 30:-0.738475 
-9.388554522737529 -3.315802791760551 14.27675951812586 11.59337981905091 1:-0.806101 2:-0.877992 3:-0.824409 4:-0.812325 5:-0.915965 6:-0.892411 7:0.691129 8:0.0176529 9:-0.0169798 10:0.228062 11:-0.506634 12:-0.938915 13:-0.807931 14:-0.882809 15:-0.865631 16:-0.807863 17:-0.64673 18:-0.638413 19:-0.789635 20:-0.748131 21:-0.692418 22:0.347956 23:-0.142513 24:0.123954 25:-0.759774 26:-0.878205 27:-0.841135 28:-0.686151 29:-0.703551 30:-0.657491 
-0 -0 21.57954454863366 7.947459658244306 1:-0.324092 2:-0.645539 3:-0.700893 4:-0.369149 5:-0.709558 6:-0.80785 7:0.517315 8:-0.243611 9:-0.12411 10:-0.441269 11:-0.102095 12:-0.854173 13:-0.325434 14:-0.679501 15:-0.481998 16:-0.526907 17:-0.0241468 18:-0.654386 19:-0.455548 20:-0.158484 21:-0.696279 22:0.517041 23:-0.303822 24:0.00647971 25:-0.533444 26:-0.698636 27:-0.914906 28:-0.0486637 29:-0.189918 30:-0.103882 
-0 -8.43150016950525 6.822922995579878 22.627 1:-0.831335 2:-0.747796 3:-0.847235 4:-0.886087 5:-0.741595 6:-0.907622 7:0.189854 8:0.836542 9:-0.0620163 10:-0.707478 11:0.560222 12:-0.879192 13:-0.833191 14:-0.866584 15:-0.854112 16:-0.850713 17:-0.856933 18:-0.74752 19:-0.86017 20:-0.910812 21:-0.894099 22:-0.28202 23:0.384881 24:-0.15186 25:-0.741535 26:-0.780988 27:-0.914329 28:-0.900029 29:-0.815984 30:-0.829234 
-0 -0 22.627 0 1:-0.868221 2:-0.875743 3:-0.88664 4:-0.896061 5:-0.827738 6:-0.91774 7:0.452119 8:0.946993 9:-0.368127 10:-0.369967 11:0.812421 12:-0.550056 13:-0.870115 14:-0.902786 15:-0.884388 16:-0.719961 17:-0.526624 18:-0.705655 19:-0.749235 20:-0.626395 21:-0.749874 22:0.275301 23:-0.233808 24:0.155612 25:-0.902878 26:-0.809462 27:-0.915257 28:-0.56317 29:-0.693807 30:-0.608879 
-16.23984694748316 -8.341431801993764 3.587321124142423 19.02845563151302 1:-0.820427 2:-0.959608 3:-0.80764 4:-0.828182 5:-0.975663 6:-0.935246 7:0.72715 8:0.345067 9:0.305295 10:0.320628 11:-0.621568 12:-0.792288 13:-0.822272 14:-0.907024 15:-0.873547 16:-0.403129 17:-0.443227 18:-0.501739 19:-0.538182 20:-0.595596 21:-0.654747 22:0.271853 23:-0.112267 24:0.0959211 25:-0.871037 26:-0.76293 27:-0.999297 28:-0.477776 29:-0.635154 30:-0.4759 
-0 -0 0 17.87670447784738 1:-0.85435 2:-0.888992 3:-0.833956 4:-0.874438 5:-0.855302 6:-0.88538 7:0.486007 8:0.950137 9:-0.19783 10:-0.166962 11:0.841415 12:-0.727164 13:-0.856229 14:-0.850107 15:-0.885821 16:-0.698032 17:-0.744853 18:-0.518743 19:-0.942023 20:-0.961343 21:-0.969914 22:0.086947 23:0.289844 24:0.217484 25:-0.823125 26:-0.663399 27:-0.871755 28:-0.773117 29:-0.851776 30:-0.750153 
-22.627 -22.627 0 22.627 1:-0.839609 2:-0.882444 3:-0.828447 4:-0.838503 5:-0.900007 6:-0.898832 7:0.502059 8:-0.102423 9:-0.215303 10:-0.0746106 11:-0.238222 12:-0.666972 13:-0.841473 14:-0.896853 15:-0.871477 16:-0.67702 17:-0.77556 18:-0.762978 19:-0.705658 20:-0.822641 21:-0.774745 22:0.21618 23:-0.00392784 24:0.0871058 25:-0.820269 26:-0.824639 27:-0.756214 28:-0.793483 29:-0.759393 30:-0.762896 
-0 -0 22.627 0 1:-0.613885 2:-0.802019 3:-0.706407 4:-0.577574 5:-0.854073 6:-0.749014 7:0.492055 8:0.398948 9:-0.577238 10:-0.0483056 11:-0.363354 12:-0.0433537 13:-0.615521 14:-0.708917 15:-0.646853 16:-0.833096 17:-0.804104 18:-0.738632 19:-0.907409 20:-0.86385 21:-0.80403 22:0.0371887 23:0.320306 24:0.277804 25:-0.848352 26:-0.513894 27:-0.732854 28:-0.847292 29:-0.863581 30:-0.816177 
-0 -0 0 20.21829745028046 1:-0.397192 2:-0.804663 3:-0.768766 4:-0.356204 5:-0.865768 6:-0.825444 7:0.0887955 8:-0.123124 9:0.0933547 10:-0.409657 11:-0.499016 12:-0.762044 13:-0.398608 14:-0.717169 15:-0.514254 16:-0.798688 17:-0.652872 18:-0.493752 19:-0.833064 20:-0.721348 21:-0.285769 22:0.260025 23:0.176386 24:-0.648876 25:-0.792833 26:-0.621182 27:-0.12042 28:-0.69244 29:-0.519535 30:-0.572194 
-0 -0 8.436881500442459 0 1:-0.109254 2:-0.697429 3:-0.83843 4:0.234351 5:-0.780535 6:-0.886299 7:0.885359 8:-0.383554 9:-0.416587 10:0.71804 11:0.034031 12:-0.479723 13:-0.110378 14:-0.283666 15:-0.0580039 16:-0.851447 17:-0.533324 18:-0.691356 19:-0.84288 20:-0.589265 21:-0.622891 22:-0.101705 23:0.0948425 24:0.14708 25:-0.686263 26:-0.664518 27:-0.493845 28:-0.57003 29:-0.596177 30:-0.578231 
-14.14065044510287 -0.09893474405437259 18.49345411553201 22.627 1:-0.8185 2:-0.897238 3:-0.88995 4:-0.8093 5:-0.887479 6:-0.893869 7:0.394067 8:-0.235326 9:0.178612 10:-0.511228 11:0.00347407 12:-0.374736 13:-0.820342 14:-0.864663 15:-0.85836 16:-0.799422 17:-0.820364 18:-0.779209 19:-0.813765 20:-0.846472 21:-0.903883 22:-0.177192 23:0.531393 24:-0.425258 25:-0.821548 26:-0.588362 27:-0.702826 28:-0.863942 29:-0.750586 30:-0.776407 
-9.1354696743884 -0 22.627 22.627 1:-0.608081 2:-0.936663 3:-0.890136 4:-0.703258 5:-0.953563 6:-0.923855 7:0.236655 8:0.0993407 9:-0.0751555 10:-0.683244 11:-0.875049 12:-0.875615 13:-0.609711 14:-0.904473 15:-0.803784 16:-0.799422 17:-0.716379 18:-0.528404 19:-0.81497 20:-0.785476 21:-0.556977 22:0.0771644 23:-0.0476596 24:0.000789499 25:-0.835652 26:-0.782652 27:-0.86131 28:-0.757467 29:-0.741966 30:-0.710014 
-0 -0 16.751618648432 13.91929854113414 1:-0.746126 2:-0.883132 3:-0.838914 4:-0.73387 5:-0.911928 6:-0.854914 7:0.591396 8:0.510735 9:-0.388607 10:-0.312006 11:-0.335006 12:-0.509403 13:-0.747895 14:-0.795319 15:-0.775573 16:-0.783732 17:-0.551888 18:-0.627721 19:-0.82183 20:-0.684342 21:-0.684775 22:0.252757 23:-0.130235 24:0.0127212 25:-0.883477 26:-0.845684 27:-0.94511 28:-0.589038 29:-0.695868 30:-0.660942 
-12.03522218496296 -19.68460623314534 22.627 22.627 1:-0.798672 2:-0.714454 3:-0.711406 4:-0.852045 5:-0.811173 6:-0.789981 7:0.117329 8:0.472073 9:-0.293403 10:-0.850623 11:-0.327409 12:-0.484755 13:-0.765717 14:-0.886116 15:-0.814215 16:-0.532046 17:-0.402889 18:-0.451758 19:-0.601988 20:-0.563674 21:-0.575693 22:0.0804651 23:-0.297487 24:0.195646 25:-0.772062 26:-0.486551 27:-0.760406 28:-0.436473 29:-0.569006 30:-0.439219 
-0 -3.617814978893953 17.39806023569875 7.630044125476268 1:-0.804431 2:-0.818714 3:-0.850368 4:-0.872906 5:-0.804031 6:-0.88806 7:-0.249821 8:0.822778 9:-0.271686 10:-0.809504 11:0.512566 12:-0.561645 13:-0.806259 14:-0.908781 15:-0.869126 16:-0.822269 17:-0.443018 18:-0.385804 19:-0.848908 20:-0.648106 21:-0.866136 22:-0.32098 23:0.288628 24:0.151068 25:-0.71653 26:-0.864501 27:-0.854707 28:-0.477562 29:-0.600675 30:-0.474077 
-0 -0 22.627 12.07167431782747 1:-0.605452 2:-0.71042 3:-0.964697 4:-0.710324 5:-0.795742 6:-0.949242 7:-0.231868 8:-0.555556 9:0.0511365 10:-0.64641 11:0.110249 12:-0.341941 13:-0.607079 14:-0.867943 15:-0.77314 16:-0.939716 17:-0.775281 18:-0.669458 19:-0.941933 20:-0.854934 21:-0.636537 22:0.071674 23:-0.169574 24:0.0696088 25:-0.730933 26:-0.560927 27:-0.499669 28:-0.817779 29:-0.818982 30:-0.790823 
-0 -0 2.575769046268963 2.09387520342128 1:-0.339433 2:-0.503657 3:-0.751713 4:-0.253319 5:-0.528065 6:-0.731807 7:-0.896796 8:0.579433 9:0.84433 10:0.708522 11:0.313602 12:0.525879 13:-0.34079 14:-0.33441 15:-0.357871 16:-0.640593 17:-0.277828 18:-0.604921 19:-0.647286 20:-0.468497 21:-0.689446 22:0.155884 23:-0.626554 24:-0.460393 25:-0.806646 26:-0.0929988 27:-0.480842 28:-0.308418 29:-0.39361 30:-0.424836 
-0.9817288190589725 -3.302770421726226 0 2.250602871753701 1:-0.580978 2:-0.636234 3:-0.672963 4:-0.431024 5:-0.640457 6:-0.631401 7:-0.909552 8:0.668891 9:-0.719972 10:0.76726 11:0.370024 12:0.454988 13:-0.58258 14:-0.421079 15:-0.471881 16:-0.859247 17:-0.887571 18:-0.768775 19:-0.830109 20:-0.898965 21:-0.779641 22:0.10489 23:-0.10517 24:0.0736523 25:-0.582414 26:-0.72024 27:-0.648637 28:-0.911819 29:-0.8529 30:-0.858223 
-0 -0 1.659869348928317 0 1:-0.484573 2:-0.531009 3:-0.638668 4:-0.289502 5:-0.50202 6:-0.74953 7:-0.845057 8:0.85609 9:0.425019 10:0.569862 11:0.663602 12:-0.486648 13:-0.486078 14:-0.332966 15:-0.353877 16:-0.831445 17:-0.746598 18:-0.543733 19:-0.858138 20:-0.784086 21:-0.726005 22:-0.0866905 23:0.534377 24:0.119523 25:-0.917071 26:-0.330439 27:-0.332875 28:-0.78698 29:-0.74665 30:-0.70297 
-0.06048060098140016 -0 7.338359237374027 2.639237166816789 1:-0.108869 2:-0.595376 3:-0.500394 4:0.293303 5:-0.810592 6:-0.378328 7:0.886856 8:0.150567 9:-0.82118 10:0.744063 11:-0.567391 12:0.605844 13:-0.109992 14:-0.0291816 15:0.119969 16:-0.905583 17:-0.78882 18:-0.748808 19:-0.903044 20:-0.780024 21:-0.713335 22:0.200696 23:-1 24:-0.66814 25:-0.746709 26:1 27:0.272273 28:-0.831642 29:-0.63759 30:-0.760998 
-0 -0 15.54792692427723 2.738177368311517 1:0.200769 2:-0.534141 3:-0.831923 4:0.170021 5:-0.492818 6:-0.889736 7:0.459546 8:0.124856 9:0.132387 10:0.00162876 11:0.0562181 12:-0.954912 13:0.199959 14:-0.342937 15:-0.0370586 16:-0.902831 17:-0.744085 18:-0.551977 19:-0.932812 20:-0.760968 21:-0.459775 22:0.275919 23:0.385693 24:-0.260012 25:-0.728253 26:-0.483324 27:-0.127861 28:-0.785837 29:-0.640963 30:-0.686962 
-2.807410443030986 -0 11.07804504203485 0 1:-0.492975 2:-0.559329 3:-0.736881 4:-0.296294 5:-0.686059 6:-0.735941 7:0.937254 8:-0.544034 9:0.583687 10:0.851855 11:-0.395944 12:-0.367619 13:-0.494487 14:-0.473594 15:-0.423697 16:-0.85732 17:-0.901249 18:-0.891408 19:-0.87889 20:-0.887119 21:-0.86379 22:0.393288 23:0.467599 24:0.358716 25:-0.681987 26:-0.130714 27:-0.366849 28:-0.9339 29:-0.862831 30:-0.865979 
-5.152454516657891 -0.2955833774682866 1.473369914184215 0 1:-0.521208 2:-0.776279 3:-0.882299 4:-0.610718 5:-0.910308 6:-0.966853 7:-0.38449 8:-0.273868 9:0.732313 10:-0.457283 11:-0.445201 12:0.390627 13:-0.522749 14:-0.76592 15:-0.68567 16:-0.930357 17:-0.611697 18:-0.552106 19:-0.921338 20:-0.713354 21:-0.724065 22:0.320405 23:0.23784 24:-0.0387301 25:-0.638572 26:-0.40554 27:-0.386363 28:-0.650279 29:-0.703926 30:-0.671151 
-3.401475687133588 -5.537490833091962 7.093539630380122 3.170271915550892 1:-0.8898 2:-0.942121 3:-0.926843 4:-0.858244 5:-0.947979 6:-0.943686 7:-0.785626 8:-0.41477 9:0.293871 10:0.413159 11:-0.421549 12:-0.84373 13:-0.891715 14:-0.943401 15:-0.918394 16:-0.813461 17:-0.733617 18:-0.76066 19:-0.829059 20:-0.740672 21:-0.740303 22:0.159477 23:0.552723 24:-0.659369 25:-0.671121 26:-0.468469 27:-0.191997 28:-0.775118 29:-0.690434 30:-0.713414 
-3.384290283180248 -0 0 0 1:-0.357176 2:-0.680349 3:-0.655638 4:-0.407396 5:-0.684417 6:-0.829029 7:0.638513 8:-0.594816 9:0.423058 10:0.207378 11:-0.305026 12:-0.553634 13:-0.358551 14:-0.525573 15:-0.45911 16:-0.828417 17:-0.759439 18:-0.844004 19:-0.854335 20:-0.801467 21:-0.802707 22:-0.131068 23:0.0338474 24:0.488761 25:-0.665527 26:-0.638994 27:-0.389114 28:-0.801558 29:-0.782629 30:-0.791057 
-7.069127500361597 -11.06922121345083 3.135591072048906 8.561335551031261 1:-0.728667 2:-0.74798 3:-0.76252 4:-0.790604 5:-0.770359 6:-0.840128 7:0.10367 8:-0.839273 9:-0.111725 10:-0.320392 11:0.569789 12:-0.727689 13:-0.730418 14:-0.843713 15:-0.782298 16:-0.829518 17:-0.918138 18:-0.963674 19:-0.794708 20:-0.942798 21:-0.951603 22:0.564751 23:-0.538176 24:-0.149208 25:-0.104965 26:-0.0560432 27:-0.844634 28:-0.912248 29:-0.865455 30:-0.8961 
-0 -0 0.60505813525366 0 1:-0.280338 2:-0.690754 3:-0.837731 4:-0.164435 5:-0.833671 6:-0.86633 7:0.153066 8:-0.11508 9:0.43896 10:-0.184625 11:-0.486694 12:-0.375395 13:-0.281635 14:-0.645263 15:-0.375689 16:-0.742166 17:-0.7623 18:-0.76491 19:-0.734801 20:-0.79225 21:-0.670508 22:-0.0783842 23:0.296372 24:0.621901 25:-0.708592 26:-0.394884 27:-0.134881 28:-0.804488 29:-0.708236 30:-0.720087 
-3.051378935998204 -3.413734079227806 10.16964828668835 21.49877857698138 1:-0.788239 2:-0.928234 3:-0.960083 4:-0.826691 5:-0.941914 6:-0.957831 7:-0.429226 8:0.287193 9:-0.36414 10:-0.327324 11:-0.500738 12:-0.385626 13:-0.790051 14:-0.90972 15:-0.886968 16:-0.860715 17:-0.783865 18:-0.648847 19:-0.897688 20:-0.811392 21:-0.779664 22:0.32688 23:-0.571322 24:0.952572 25:-0.443707 26:0.0618207 27:0.881725 28:-0.826569 29:-0.747025 30:-0.784806 
-20.48329216719091 -10.17301808122302 22.627 0 1:-0.783861 2:-0.890879 3:-0.8011 4:-0.830926 5:-0.930832 6:-0.856717 7:-0.521069 8:0.0816857 9:-0.491039 10:-0.383722 11:-0.859857 12:-0.473193 13:-0.785668 14:-0.946072 15:-0.870025 16:-0.872551 17:-0.685393 18:-0.725879 19:-0.919652 20:-0.72898 21:-0.761719 22:-0.0225018 23:0.362377 24:0.135305 25:-0.836783 26:-0.450455 27:-0.822905 28:-0.72574 29:-0.764452 30:-0.726237 
-1.507375968345579 -0 11.90809292285967 0 1:-0.459933 2:-0.841561 3:-0.748962 4:-0.412375 5:-0.913828 6:-0.694599 7:0.738387 8:0.0374497 9:-0.765788 10:0.367649 11:-0.960248 12:0.463945 13:-0.461413 14:-0.569973 15:-0.517753 16:-0.93467 17:-0.645125 18:-0.60505 19:-0.936201 20:-0.733368 21:-0.638049 22:0.108882 23:-0.165356 24:-0.200989 25:-0.816199 26:-0.722414 27:-0.786218 28:-0.684508 29:-0.71292 30:-0.713987 
-0 -0 22.627 11.36493095187519 1:-0.216348 2:-0.584802 3:-0.693398 4:-0.3843 5:-0.736583 6:-0.7799 7:0.310316 8:0.275747 9:0.351737 10:-0.60031 11:-0.62731 12:-0.5669 13:-0.217581 14:-0.754532 15:-0.507914 16:-0.85053 17:-0.692512 18:-0.583408 19:-0.865245 20:-0.717912 21:-0.592784 22:0.246945 23:0.0792725 24:-0.135696 25:-0.867461 26:-0.592511 27:-0.630713 28:-0.733028 29:-0.672819 30:-0.683353 
-0 -0 5.235096410885383 0 1:-0.0390184 2:-0.642913 3:-0.631464 4:0.157245 5:-0.753546 6:-0.7725 7:0.876857 8:-0.446435 9:-0.0370391 10:0.686936 11:-0.240832 12:-0.873275 13:-0.0400712 14:-0.308131 15:-0.111457 16:-0.890444 17:-0.873055 18:-0.45704 19:-0.937878 20:-0.842598 21:-0.631942 22:0.140888 23:-0.729599 24:0.300951 25:-0.839039 26:0.298291 27:-0.74752 28:-0.738888 29:-0.778507 30:-0.769483 
-7.588520417308973 -0 9.060382432501708 1.066157778532621 1:-0.435175 2:-0.71073 3:-0.503259 4:-0.53102 5:-0.796931 6:-0.632407 7:-0.229134 8:-0.0244431 9:-0.135381 10:-0.702521 11:-0.608343 12:-0.634375 13:-0.436629 14:-0.75142 15:-0.567517 16:-0.758591 17:-0.66348 18:-0.635837 19:-0.785457 20:-0.548297 21:-0.687546 22:-0.0631655 23:-0.908154 24:0.449451 25:-0.737416 26:0.752894 27:-0.491983 28:-0.703301 29:-0.419657 30:-0.53072 
-0 -22.627 22.627 22.627 1:-0.852246 2:-0.863117 3:-0.850294 4:-0.863144 5:-0.8913 6:-0.876825 7:-0.211812 8:0.100179 9:-0.249995 10:-0.457242 11:-0.691963 12:-0.507161 13:-0.854123 14:-0.94171 15:-0.891093 16:-0.927054 17:-0.876056 18:-0.793379 19:-0.914892 20:-0.86998 21:-0.753518 22:-0.0888212 23:0.17456 24:-0.279444 25:-0.669728 26:-0.56731 27:-0.552475 28:-0.920966 29:-0.867141 30:-0.855877 
-0 -4.006984731214664 18.3453859892878 0 1:-0.500279 2:-0.750697 3:-0.510574 4:-0.562254 5:-0.856719 6:-0.731836 7:-0.533014 8:-0.140955 9:-0.0228901 10:-0.250779 11:-0.90717 12:-0.937602 13:-0.501799 14:-0.710878 15:-0.586506 16:-0.23384 17:-0.230512 18:-0.698828 19:-0.715826 20:-0.731997 21:-0.862504 22:-0.0282871 23:0.34873 24:-0.169616 25:-0.783912 26:-0.537998 27:-0.771214 28:-0.259969 29:-0.460883 30:-0.328422 
-0 -0 2.377836107077735 1.554360386506998 1:0.23006 2:0.0594667 3:-0.365845 4:0.66773 5:0.141592 6:-0.562152 7:0.875892 8:0.959782 9:0.378452 10:0.706642 11:0.877251 12:-0.636343 13:0.229279 14:0.404597 15:0.493738 16:-0.45442 17:-0.499197 18:-0.865001 19:-0.651941 20:-0.718822 21:-0.892315 22:-0.0516574 23:0.26196 24:-0.352181 25:-0.881631 26:-0.819833 27:-0.651407 28:-0.535086 29:-0.564509 30:-0.494926 
-15.31526648989683 -1.569512462782113 0 12.70557210225169 1:-0.387274 2:-0.370951 3:-0.543608 4:-0.472523 5:-0.667457 6:-0.736713 7:-0.411421 8:0.0469299 9:0.134999 10:-0.532658 11:-0.940361 12:-0.854513 13:-0.38868 14:-0.782094 15:-0.533498 16:-0.514612 17:-0.364436 18:-0.0596419 19:-0.533609 20:-0.506137 21:-0.0147602 22:0.202462 23:-0.0837709 24:0.151928 25:-0.705679 26:-0.619882 27:-0.15061 28:-0.397099 29:-0.235829 30:-0.288543 
-0.6229408405874935 -0 0 1.191882936678533 1:0.058403 2:-0.138748 3:-0.0188207 4:0.163212 5:-0.501904 6:-0.237694 7:0.31625 8:-0.0122433 9:-0.65853 10:-0.0390091 11:-0.813349 12:0.187871 13:0.0574489 14:-0.12505 15:0.115355 16:-0.473964 17:-0.65692 18:-0.391988 19:-0.557249 20:-0.743391 21:-0.334702 22:0.48847 23:0.307528 24:-0.538794 25:-0.576499 26:-0.739612 27:0.134107 28:-0.635344 29:-0.386864 30:-0.511088 
-0 -0.4444640698804961 0 0 1:-0.137744 2:-0.0480878 3:-0.327333 4:-0.152872 5:-0.098999 6:-0.529937 7:0.669158 8:0.904133 9:-0.359511 10:0.311913 11:0.752281 12:-0.422186 13:-0.138896 14:-0.0309876 15:-0.0699246 16:-0.72666 17:-0.832228 18:-0.643823 19:-0.695619 20:-0.894276 21:-0.682646 22:0.760964 23:0.475405 24:0.347993 25:0.0963895 26:-0.586866 27:-0.555062 28:-0.832142 29:-0.791249 30:-0.731699 
-0.09521659150011151 -0 3.757595218124809 0.9807971824312993 1:0.375521 2:0.335438 3:-0.148944 4:0.633728 5:0.412866 6:-0.490589 7:0.790001 8:0.937099 9:-0.121496 10:0.535688 11:0.832008 12:-0.807019 13:0.374888 14:0.476209 15:0.555116 16:-0.18319 17:-0.493126 18:-0.770321 19:-0.319312 20:-0.728759 21:-0.770144 22:0.379936 23:-0.454838 24:0.0769263 25:-0.63933 26:-0.437552 27:-0.705447 28:-0.40889 29:-0.61248 30:-0.453742 
-7.167828840108359 -2.892136912794919 3.962600634955808 0 1:-0.33352 2:-0.522469 3:-0.217124 4:-0.529937 5:-0.721318 6:-0.49249 7:-0.21321 8:-0.27698 9:0.27997 10:-0.931055 11:-0.725464 12:-0.639446 13:-0.334872 14:-0.731462 15:-0.416981 16:-0.27357 17:-0.259613 18:-0.77908 19:-0.321487 20:-0.567304 21:-0.772721 22:0.217767 23:-0.624364 24:0.34952 25:-0.80424 26:-0.15429 27:-0.542596 28:-0.289767 29:-0.482432 30:-0.37715 
-0 -0 4.227963271268713 0 1:-0.0168321 2:-0.129793 3:-0.0712329 4:0.122549 5:-0.106176 6:-0.0806701 7:0.559338 8:0.759488 9:-0.82186 10:0.176339 11:0.524732 12:0.573487 13:-0.0178624 14:0.247513 15:0.217375 16:-0.609671 17:-0.679322 18:-0.409635 19:-0.65756 20:-0.691375 21:-0.183601 22:0.0120954 23:-0.603579 24:-0.665735 25:-0.897437 26:0.052845 27:0.188631 28:-0.712591 29:-0.572191 30:-0.494677 
-8.473749077987039 -9.608371982967965 -0 22.627 1:-0.8681 2:-0.783991 3:-0.837129 4:-0.865151 5:-0.901204 6:-0.920598 7:0.149604 8:-0.27006 9:-0.0616726 10:-0.325735 11:-0.771831 12:-0.935301 13:-0.86778 14:-0.942901 15:-0.899768 16:-0.774189 17:-0.625305 18:-0.680536 19:-0.814799 20:-0.689015 21:-0.735899 22:0.167643 23:-0.544308 24:0.0754574 25:-0.791182 26:-0.196843 27:-0.946977 28:-0.664213 29:-0.681439 30:-0.674988 
-20.11911062636326 -10.34641396996347 -22.627 14.36315831257504 1:-0.782559 2:-0.773569 3:-0.723438 4:-0.816031 5:-0.846159 6:-0.819104 7:0.341446 8:-0.575375 9:-0.0182688 10:-0.574645 11:0.0518009 12:-0.883807 13:-0.775485 14:-0.889565 15:-0.818094 16:-0.777492 17:-0.739549 18:-0.596805 19:-0.827571 20:-0.817215 21:-0.923529 22:0.0622416 23:0.471542 24:0.355019 25:-0.736873 26:-0.607594 27:-0.640344 28:-0.781192 29:-0.718355 30:-0.721475 
-0 -3.898546727255592 -0 0 1:-0.780065 2:-0.766908 3:-0.849931 4:-0.793429 5:-0.848648 6:-0.903647 7:0.00577798 8:0.252447 9:-0.302652 10:-0.563996 11:-0.331539 12:-0.677571 13:-0.781869 14:-0.862716 15:-0.844673 16:-0.753911 17:-0.633122 18:-0.801752 19:-0.827784 20:-0.770185 21:-0.812524 22:0.238884 23:-0.327958 24:0.283592 25:-0.691155 26:-0.370514 27:-0.711238 28:-0.672217 29:-0.816734 30:-0.711035 
-0.8345692692054552 -1.149986548552649 -1.131293754655275 0 1:0.358955 2:0.312923 3:0.0223993 4:0.804154 5:0.23709 6:-0.272607 7:0.740184 8:0.909896 9:-0.320069 10:0.466114 11:0.7543 12:-0.492148 13:0.358305 14:0.626111 15:0.681275 16:0.0539983 17:0.296811 18:-0.320366 19:-0.13481 20:0.000498895 21:-0.299899 22:0.352973 23:-0.209976 24:-0.45419 25:-0.732817 26:-0.587262 27:-0.0709494 28:0.279977 29:-0.195165 30:0.189207 
-0 -0 -22.627 18.70358753661007 1:-0.502155 2:-0.71242 3:-0.496361 4:-0.49915 5:-0.799579 6:-0.682441 7:0.299794 8:0.437255 9:0.14354 10:-0.247672 11:-0.180366 12:-0.705211 13:-0.503677 14:-0.677357 15:-0.567805 16:-0.551039 17:-0.242306 18:-0.66263 19:-0.518744 20:-0.280584 21:-0.630724 22:0.152496 23:-0.0426097 24:-0.471087 25:-0.749149 26:-0.521251 27:-0.388231 28:-0.272045 29:-0.243512 30:-0.234071 
-20.65872544750665 -0 -22.627 12.38343741903261 1:-0.303918 2:-0.424397 3:-0.402716 4:-0.327329 5:-0.575583 6:-0.596094 7:0.553077 8:0.601887 9:0.360921 10:0.01186 11:-0.0735291 12:-0.473422 13:-0.305239 14:-0.544356 15:-0.380418 16:-0.515071 17:-0.629004 18:-0.545923 19:-0.552422 20:-0.696427 21:-0.76932 22:0.38409 23:0.344546 24:0.233751 25:-0.662338 26:-0.782225 27:-0.825968 28:-0.667357 29:-0.703926 30:-0.584306 
-0 -0 -3.88755753851621 0 1:0.16425 2:-0.199501 3:-0.402113 4:0.15284 5:-0.444898 6:-0.611835 7:0.497936 8:0.33207 9:0.0757966 10:-0.465572 11:-0.25868 12:-0.77254 13:0.163403 14:-0.370514 15:-0.0107529 16:-0.633619 17:-0.711285 18:-0.577354 19:-0.63036 20:-0.720835 21:-0.673196 22:0.130888 23:0.596854 24:0.324718 25:-0.75724 26:-0.418051 27:-0.808461 28:-0.752251 29:-0.578937 30:-0.61489 
-1.187956147776077 -0 -2.502392813888516 4.735915248601025 1:0.0343722 2:-0.400786 3:-0.199499 4:0.197166 5:-0.702772 6:-0.495263 7:0.69422 8:-0.0318159 9:-0.336891 10:0.202137 11:-0.921972 12:-0.479277 13:0.0333937 14:-0.164762 15:0.0322261 16:-0.449282 17:0.0344756 18:-0.49298 19:-0.50913 20:-0.0726809 21:-0.485405 22:0.224916 23:-0.120438 24:0.779795 25:-0.855069 26:-0.628961 27:0.382906 28:0.011362 29:-0.0834817 30:-0.0235009 
