svm_type c_svc
kernel_type rbf
gamma 0.008974
nr_class 2
total_sv 94
rho 63.1361
label 1 -1
probA -1.39902
probB 0.277055
nr_sv 45 49
SV
7227.070932692497 1:-0.840009 2:-0.810033 3:-0.496764 4:-0.877289 5:-0.878886 6:-0.646794 7:-0.0161659 8:0.221409 9:0.17032 10:-0.552474 11:-0.862406 12:-0.62445 13:-0.497577 14:-0.818751 15:-0.675685 16:-0.431471 17:-0.817823 18:-0.810931 19:-0.296276 20:-0.839962 21:-0.771146 22:0.0479981 23:0.07082 24:-0.443387 25:-0.533738 26:-0.612859 27:-0.548224 28:-0.52573 29:-0.580791 30:-0.543413 
1819.776436461465 1:-0.871038 2:-0.86699 3:-0.877983 4:-0.906685 5:-0.909918 6:-0.926851 7:0.149659 8:0.12755 9:-0.0418218 10:-0.567785 11:-0.761679 12:-0.603285 13:-0.879002 14:-0.954419 15:-0.907468 16:-0.953627 17:-0.947001 18:-0.909571 19:-0.948231 20:-0.952072 21:-0.91249 22:0.184188 23:0.38382 24:-0.617393 25:-0.594685 26:-0.306315 27:0.114725 28:-0.939703 29:-0.922758 30:-0.9292 
515.9500709687111 1:-0.8976 2:-0.928803 3:-0.865983 4:-0.892542 5:-0.943779 6:-0.935027 7:-0.774667 8:0.427708 9:-0.219656 10:0.42279 11:-0.39985 12:-0.81702 13:-0.866996 14:-0.934477 15:-0.911715 16:-0.769865 17:-0.847713 18:-0.728406 19:-0.72431 20:-0.893407 21:-0.818588 22:-0.195352 23:-0.282532 24:-0.344484 25:-0.579473 26:-0.695384 27:-0.517138 28:-0.809959 29:-0.745599 30:-0.755739 
8581.192992469427 1:-0.952578 2:-0.838181 3:-0.966553 4:-0.964576 5:-0.979588 6:-0.976412 7:-0.17654 8:0.581593 9:0.150269 10:-0.758395 11:0.0202122 12:-0.870909 13:-0.912344 14:-0.970001 15:-0.95623 16:-0.7697 17:-0.966858 18:-0.45086 19:-0.941445 20:-0.972737 21:-0.948922 22:-0.225237 23:0.458422 24:-0.149677 25:-0.609136 26:-0.336032 27:-0.725129 28:-0.629968 29:-0.871509 30:-0.738254 
1840.749091202444 1:-0.889285 2:-0.81317 3:-0.724722 4:-0.91484 5:-0.866649 6:-0.781029 7:-0.203425 8:-0.357329 9:-0.382014 10:-0.852469 11:-0.32027 12:-0.0973367 13:-0.725658 14:-0.850996 15:-0.807164 16:-0.923261 17:-0.917872 18:-0.912753 19:-0.909741 20:-0.928193 21:-0.934842 22:0.348528 23:0.353868 24:-0.370531 25:-0.612697 26:-0.545573 27:-0.629914 28:-0.921128 29:-0.91354 30:-0.907486 
154.9125915993248 1:-0.904193 2:-0.781749 3:-0.745882 4:-0.918509 5:-0.782763 6:-0.814021 7:0.468228 8:0.5677 9:0.489305 10:-0.275126 11:0.158466 12:-0.0754055 13:-0.74683 14:-0.832683 15:-0.80846 16:-0.914597 17:-0.905072 18:-0.949705 19:-0.888771 20:-0.935877 21:-0.919989 22:-0.420764 23:0.317302 24:0.882956 25:-0.0929909 26:-0.604211 27:0.673616 28:-0.908306 29:-0.876118 30:-0.89775 
11585.2 1:-0.784553 2:-0.835335 3:-0.864972 4:-0.849855 5:-0.896612 6:-0.921768 7:0.002177 8:0.0748578 9:0.162687 10:-0.919073 11:-0.746566 12:-0.624352 13:-0.806644 14:-0.919143 15:-0.87674 16:-0.915752 17:-0.959109 18:-0.838645 19:-0.911063 20:-0.964077 21:-0.844588 22:-0.0832102 23:-0.142112 24:-0.0392982 25:-0.765708 26:-0.489805 27:-0.880907 28:-0.891811 29:-0.906351 30:-0.903975 
11585.2 1:-0.875741 2:-0.914215 3:-0.969687 4:-0.900271 5:-0.941284 6:-0.980968 7:0.222631 8:-0.068914 9:-0.078175 10:-0.687834 11:-0.766943 12:-0.88349 13:-0.892137 14:-0.962678 15:-0.937101 16:-0.957505 17:-0.937868 18:-0.884116 19:-0.955813 20:-0.931054 21:-0.885949 22:0.0252101 23:-0.39081 24:0.196986 25:-0.749638 26:-0.432489 27:-0.586915 28:-0.922514 29:-0.888653 30:-0.907132 
11585.2 1:-0.818814 2:-0.864226 3:-0.832435 4:-0.860322 5:-0.916702 6:-0.904011 7:0.220303 8:-0.0854253 9:-0.0954545 10:-0.552414 11:-0.787282 12:-0.850383 13:-0.83343 14:-0.909805 15:-0.87885 16:-0.96163 17:-0.964229 18:-0.911727 19:-0.955284 20:-0.96942 21:-0.91239 22:-0.13583 23:0.271605 24:0.109243 25:-0.744096 26:-0.662127 27:-0.952108 28:-0.941158 29:-0.955941 30:-0.943528 
11585.2 1:-0.819354 2:-0.867414 3:-0.914422 4:-0.855739 5:-0.9174 6:-0.942466 7:0.246233 8:-0.144489 9:-0.0547264 10:-0.617985 11:-0.802164 12:-0.777313 13:-0.839271 14:-0.947162 15:-0.897389 16:-0.92978 17:-0.923614 18:-0.892225 19:-0.923744 20:-0.92408 21:-0.886031 22:-0.0953515 23:-0.392233 24:-0.0531776 25:-0.686604 26:-0.616498 27:-0.758645 28:-0.926881 29:-0.883492 30:-0.896921 
223.735989929834 1:-0.836311 2:-0.848573 3:-0.929274 4:-0.888559 5:-0.90228 6:-0.961853 7:-0.0115316 8:-0.16294 9:0.0668444 10:-0.874058 11:-0.685095 12:-0.777409 13:-0.85517 14:-0.951723 15:-0.914688 16:-0.942239 17:-0.927904 18:-0.901052 19:-0.928357 20:-0.925511 21:-0.900897 22:0.0426025 23:-0.448111 24:-0.00370484 25:-0.434309 26:-0.189298 27:-0.844837 28:-0.931178 29:-0.876486 30:-0.903367 
9704.86855128135 1:-0.801253 2:-0.752142 3:-0.83725 4:-0.858802 5:-0.831219 6:-0.913218 7:0.132594 8:0.341923 9:0.0311305 10:-0.860551 11:-0.408474 12:-0.87116 13:-0.822301 14:-0.933611 15:-0.858996 16:-0.897516 17:-0.955027 18:-0.838645 19:-0.888966 20:-0.963761 21:-0.839832 22:-0.202829 23:-0.185642 24:-0.0908352 25:-0.728347 26:-0.788669 27:-0.913078 28:-0.891811 29:-0.908379 30:-0.892856 
11585.2 1:-0.841579 2:-0.854952 3:-0.920188 4:-0.866137 5:-0.908702 6:-0.946525 7:0.156922 8:0.331189 9:0.0871579 10:-0.517137 11:-0.627676 12:-0.674277 13:-0.860109 14:-0.94399 15:-0.897776 16:-0.835382 17:-0.784474 18:-0.802412 19:-0.819096 20:-0.815055 21:-0.85165 22:0.389444 23:0.241194 24:0.105781 25:-0.662749 26:-0.778846 27:-0.816413 28:-0.787504 29:-0.816389 30:-0.75858 
3796.750875324983 1:-0.82105 2:-0.747367 3:-0.902748 4:-0.863156 5:-0.840233 6:-0.940329 7:0.415519 8:0.310254 9:0.209048 10:-0.567417 11:-0.643481 12:-0.807546 13:-0.840862 14:-0.921462 15:-0.881434 16:-0.569024 17:-0.83602 18:-0.657685 19:-0.383902 20:-0.871666 21:-0.697742 22:0.0120015 23:0.142328 24:0.0535295 25:-0.381147 26:-0.787546 27:-0.922021 28:-0.641266 29:-0.673887 30:-0.582465 
1025.119288376138 1:-0.950764 2:-0.958195 3:-0.959559 4:-0.905345 5:-0.931464 6:-0.980692 7:0.992305 8:-0.9942 9:0.048071 10:0.981129 11:0.979128 12:-0.840496 13:-0.960623 14:-0.922382 15:-0.934234 16:-0.755508 17:-0.594963 18:-0.405594 19:-0.920268 20:-0.8676 21:-0.844726 22:0.417114 23:0.0905323 24:-0.226823 25:-0.591085 26:-0.922647 27:-0.856204 28:-0.597671 29:-0.709835 30:-0.59326 
8921.119790226481 1:-0.880313 2:-0.883832 3:-0.899203 4:-0.909031 5:-0.929739 6:-0.928904 7:-0.479244 8:-0.232195 9:0.294959 10:-0.344526 11:-0.737948 12:-0.714283 13:-0.896423 14:-0.953675 15:-0.915416 16:-0.86253 17:-0.847575 18:-0.778188 19:-0.852553 20:-0.882924 21:-0.780593 22:-0.0598927 23:0.0986753 24:0.318224 25:-0.565809 26:-0.442032 27:-0.674497 28:-0.850712 29:-0.78339 30:-0.811359 
414.8861377637367 1:-0.821232 2:-0.874914 3:-0.860836 4:-0.847336 5:-0.908359 6:-0.921772 7:-0.273799 8:-0.291238 9:-0.139458 10:-0.65111 11:-0.762342 12:-0.660916 13:-0.841033 14:-0.928545 15:-0.873235 16:-0.170724 17:0.0803293 18:0.0548627 19:-0.796347 20:-0.777087 21:-0.833673 22:0.582632 23:-0.0755805 24:0.270491 25:-0.438212 26:-0.839393 27:-0.644937 28:0.0787677 29:-0.311642 30:-0.050271 
5309.83735700666 1:-0.609155 2:-0.575271 3:-0.838539 4:-0.732211 5:-0.778993 6:-0.945615 7:-0.360613 8:0.00370385 9:0.0505015 10:-0.650367 11:-0.948209 12:-0.802214 13:-0.642201 14:-0.893671 15:-0.780242 16:-0.478587 17:-0.251366 18:0.451476 19:-0.823093 20:-0.782265 21:-0.515723 22:0.0543029 23:0.0657949 24:-0.123876 25:-0.985786 26:-0.960716 27:-0.915968 28:-0.0206882 29:-0.434787 30:-0.120059 
11585.2 1:-0.931281 2:-0.947339 3:-0.883616 4:-0.935073 5:-0.971056 6:-0.958429 7:-0.516187 8:-0.342393 9:0.0386117 10:-0.372111 11:-0.451589 12:-0.864283 13:-0.884638 14:-0.96714 15:-0.928801 16:-0.746596 17:-0.374109 18:-0.414319 19:-0.874499 20:-0.876108 21:-0.844073 22:0.141023 23:0.00614351 24:-0.0376656 25:-0.725451 26:-0.889603 27:-0.919757 28:-0.376442 29:-0.65877 30:-0.496518 
8095.835853509764 1:-0.807832 2:-0.77312 3:-0.86283 4:-0.847898 5:-0.856235 6:-0.916863 7:-0.254284 8:-0.213128 9:0.127138 10:-0.440234 11:-0.658937 12:-0.90832 13:-0.828469 14:-0.902656 15:-0.866753 16:-0.789257 17:-0.676953 18:-0.617757 19:-0.794382 20:-0.780415 21:-0.639272 22:-0.134982 23:0.0220904 24:0.431512 25:-0.704392 26:-0.845313 27:-0.477716 28:-0.6798 29:-0.658033 30:-0.663623 
11585.2 1:-0.70938 2:-0.905703 3:-0.897362 4:-0.901686 5:-0.943391 6:-0.927115 7:0.205545 8:-0.0689582 9:-0.129669 10:-0.784392 11:-0.949095 12:-0.774466 13:-0.736167 14:-0.934114 15:-0.863255 16:-0.462002 17:-0.406213 18:-0.16428 19:-0.849363 20:-0.747105 21:-0.675608 22:0.136183 23:-0.316251 24:0.180069 25:-0.883171 26:-0.657534 27:-0.688217 28:-0.408601 29:-0.458015 30:-0.342435 
11585.2 1:-0.744438 2:-0.812084 3:-0.83113 4:-0.806019 5:-0.892831 6:-0.874922 7:-0.360891 8:0.0300507 9:0.385663 10:-0.351016 11:-0.954752 12:-0.624736 13:-0.769035 14:-0.903645 15:-0.833768 16:-0.71293 17:-0.584239 18:-0.644444 19:-0.734707 20:-0.709769 21:-0.768434 22:-0.00051404 23:0.128526 24:-0.0208829 25:-0.995449 26:-0.985826 27:-0.938534 28:-0.586929 29:-0.669278 30:-0.579211 
19.05862670745941 1:1 2:0.0755961 3:-0.111365 4:1 5:-0.155621 6:0.0878967 7:-0.516187 8:-0.368869 9:-0.934687 10:-0.289785 11:-0.462858 12:0.852433 13:0.866454 14:0.554013 15:0.630083 16:-0.457711 17:-0.569847 18:0.428278 19:-0.373892 20:-0.623224 21:0.831266 22:-0.309449 23:-0.301582 24:0.521072 25:-0.690342 26:-0.581835 27:-0.451103 28:-0.0363517 29:-0.0963222 30:0.0556749 
4343.694163165985 1:-0.775057 2:-0.751352 3:-0.558304 4:-0.821092 5:-0.832919 6:-0.734786 7:-0.250983 8:-0.107616 9:-0.014389 10:-0.579914 11:-0.634937 12:-0.896337 13:-0.55915 14:-0.912001 15:-0.747376 16:-0.167753 17:-0.129938 18:-0.779625 19:-0.222353 20:-0.328345 21:-0.722807 22:0.00576097 23:0.312524 24:0.327902 25:-0.88791 26:-0.588805 27:-0.278224 28:-0.131857 29:-0.475159 30:-0.141859 
11585.2 1:-0.893515 2:-0.881123 3:-0.766662 4:-0.946545 5:-0.925961 6:-0.868901 7:-0.265454 8:0.328116 9:0.289181 10:-0.805195 11:-0.763177 12:-0.745348 13:-0.767622 14:-0.951912 15:-0.88473 16:-0.89207 17:-0.932817 18:-0.74914 19:-0.831259 20:-0.969218 21:-0.885209 22:-0.579145 23:0.145273 24:0.137054 25:-0.220556 26:-0.803725 27:-0.881673 28:-0.831375 29:-0.835192 30:-0.834279 
3295.57216463141 1:-0.927711 2:-0.876114 3:-0.899193 4:-0.927531 5:-0.914694 6:-0.927752 7:0.541582 8:0.3772 9:-0.0206756 10:-0.303183 11:-0.544091 12:-0.629793 13:-0.900224 14:-0.927595 15:-0.920642 16:-0.870369 17:-0.857331 18:-0.734462 19:-0.876402 20:-0.900424 21:-0.910477 22:0.306301 23:-0.39495 24:0.438316 25:-0.668793 26:-0.451562 27:-0.364941 28:-0.821464 29:-0.893446 30:-0.8268 
558.4474479591566 1:-0.830836 2:-0.760772 3:-0.895994 4:-0.889849 5:-0.859464 6:-0.850562 7:0.332001 8:0.119377 9:0.969694 10:-0.290509 11:-0.918968 12:0.850552 13:-0.850036 14:-0.858916 15:-0.837437 16:-0.752537 17:-0.579464 18:-0.661586 19:-0.732656 20:-0.76915 21:-0.709052 22:-0.280713 23:0.322337 24:-0.255153 25:-0.722713 26:-0.73012 27:-0.80031 28:-0.582146 29:-0.525118 30:-0.554607 
7209.087384083826 1:-0.823552 2:-0.721255 3:-0.824093 4:-0.904795 5:-0.83292 6:-0.8812 7:-0.388404 8:0.0922376 9:0.375197 10:-0.36983 11:-0.872571 12:-0.457312 13:-0.825084 14:-0.885974 15:-0.846633 16:-0.820282 17:-0.838649 18:-0.65553 19:-0.803824 20:-0.882489 21:-0.803111 22:-0.175 23:0.252984 24:-0.0266545 25:-0.837558 26:-0.872417 27:-0.886077 28:-0.768167 29:-0.7821 30:-0.758565 
2959.41648862027 1:-0.836109 2:-0.801137 3:-0.916679 4:-0.920935 5:-0.867499 6:-0.939234 7:0.314531 8:0.227623 9:0.282871 10:-0.623075 11:-0.697402 12:-0.626465 13:-0.85498 14:-0.913121 15:-0.891882 16:-0.26248 17:0.110565 18:-0.886169 19:-0.291743 20:-0.248352 21:-0.884876 22:-0.118383 23:0.208401 24:-0.156922 25:-0.912282 26:-0.923531 27:-0.845727 28:0.109055 29:-0.497097 30:-0.145451 
5003.139249774355 1:-0.890973 2:-0.767036 3:-0.898771 4:-0.921563 5:-0.850719 6:-0.935336 7:0.268574 8:0.256672 9:0.245928 10:-0.784369 11:-0.749406 12:-0.749119 13:-0.868685 14:-0.921727 15:-0.895603 16:-0.732981 17:-0.891234 18:-0.588299 19:-0.941134 20:-0.971872 21:-0.94624 22:-0.51074 23:0.250947 24:0.116432 25:-0.0032951 26:-0.661078 27:-0.74344 28:-0.722771 29:-0.862845 30:-0.765117 
2990.174924083962 1:-0.925264 2:-0.720384 3:-0.650762 4:-0.936591 5:-0.787658 6:-0.812735 7:0.19428 8:-0.167358 9:0.127062 10:-0.730993 11:-0.430376 12:-0.903065 13:-0.651658 14:-0.883331 15:-0.78519 16:-0.686773 17:-0.747319 18:-0.836079 19:-0.586775 20:-0.794512 21:-0.900681 22:0.185877 23:-0.281507 24:0.438439 25:-0.582771 26:-0.550344 27:-0.475302 28:-0.740167 29:-0.713706 30:-0.674214 
8454.182254683861 1:-0.849413 2:-0.723004 3:-0.807579 4:-0.930604 5:-0.839598 6:-0.853469 7:0.159901 8:0.121232 9:-0.315716 10:-0.675842 11:-0.890265 12:-0.565715 13:-0.80856 14:-0.906412 15:-0.846934 16:-0.789504 17:-0.592195 18:-0.912343 19:-0.916758 20:-0.910778 21:-0.974174 22:-0.289574 23:0.147005 24:-0.0698946 25:-0.580984 26:-0.875889 27:-0.859214 28:-0.594899 29:-0.810858 30:-0.707177 
11585.2 1:-0.931742 2:-0.857479 3:-0.918268 4:-0.934998 5:-0.907249 6:-0.950116 7:0.490527 8:0.362918 9:-0.139873 10:-0.367745 11:-0.648078 12:-0.868205 13:-0.91931 14:-0.958416 15:-0.92859 16:-0.921446 17:-0.622639 18:-0.905466 19:-0.92998 20:-0.916859 21:-0.96692 22:0.11036 23:0.00353916 24:-0.0580319 25:-0.825815 26:-0.851876 27:-0.829989 28:-0.625394 29:-0.840354 30:-0.7474 
551.5124820340956 1:-0.595295 2:-0.283813 3:-0.136867 4:-0.736537 5:-0.74873 6:-0.0383047 7:-0.296894 8:0.116085 9:0.950728 10:-0.58439 11:-0.846046 12:0.789919 13:-0.137484 14:-0.30409 15:-0.13913 16:-0.635283 17:-0.64983 18:-0.630382 19:-0.565068 20:-0.668425 21:-0.616031 22:0.0938109 23:0.347133 24:0.127507 25:-0.588047 26:-0.311139 27:-0.752654 28:-0.652632 29:-0.488432 30:-0.544245 
11585.2 1:-0.84386 2:-0.742316 3:-0.750261 4:-0.874346 5:-0.83733 6:-0.822482 7:-0.0502678 8:-0.11159 9:0.0194421 10:-0.600911 11:-0.618185 12:-0.697513 13:-0.751212 14:-0.900139 15:-0.815637 16:-0.556647 17:-0.7011 18:-0.682217 19:-0.440776 20:-0.761044 21:-0.706492 22:-0.172242 23:-0.261541 24:0.282668 25:-0.566679 26:-0.678529 27:-0.761514 28:-0.630869 29:-0.651765 30:-0.57064 
109.5296206468533 1:-0.893259 2:-0.920646 3:-0.924413 4:-0.941906 5:-0.979898 6:-0.953016 7:0.843473 8:0.406257 9:-0.0703005 10:0.624276 11:-0.129964 12:-0.543731 13:-0.908561 14:-0.936621 15:-0.932646 16:-0.976401 17:-0.936484 18:-0.948063 19:-0.978215 20:-0.943457 21:-0.97085 22:0.008053 23:0.409633 24:-0.340964 25:-0.843267 26:-0.664531 27:-0.621659 28:-0.939772 29:-0.941193 30:-0.934965 
11585.2 1:-0.818507 2:-0.884958 3:-0.867347 4:-0.860784 5:-0.945624 6:-0.913994 7:-0.218141 8:0.248181 9:0.161398 10:-0.677606 11:-0.635573 12:-0.684498 13:-0.838477 14:-0.947774 15:-0.889059 16:-0.697087 17:-0.55255 18:-0.775417 19:-0.671018 20:-0.648686 21:-0.762108 22:0.50537 23:-0.274148 24:0.279471 25:-0.605025 26:-0.79808 27:-0.80843 28:-0.555186 29:-0.585584 30:-0.581247 
715.2426356717299 1:-0.784505 2:-0.852789 3:-0.838937 4:-0.831952 5:-0.916861 6:-0.93365 7:0.400821 8:0.114781 9:0.0958481 10:-0.487456 11:-0.738721 12:-0.431674 13:-0.806599 14:-0.880306 15:-0.852542 16:-0.634623 17:-0.552273 18:-0.769464 19:-0.652192 20:-0.650082 21:-0.798547 22:0.123543 23:-0.318772 24:0.170099 25:-0.928751 26:-0.624412 27:-0.880594 28:-0.554909 29:-0.689741 30:-0.584764 
2482.470521650557 1:-0.795654 2:-0.858365 3:-0.915336 4:-0.814682 5:-0.917918 6:-0.945899 7:0.455857 8:0.0960857 9:-0.114699 10:-0.472846 11:-0.861598 12:-0.85223 13:-0.817052 14:-0.903588 15:-0.865801 16:-0.858074 17:-0.496437 18:-0.788658 19:-0.849208 20:-0.620355 21:-0.767756 22:-0.250692 23:-0.15651 24:0.355842 25:-0.776886 26:-0.926406 27:-0.611605 28:-0.498978 29:-0.692322 30:-0.585254 
4208.417739198508 1:-0.797287 2:-0.856189 3:-0.815947 4:-0.803302 5:-0.874433 6:-0.897048 7:-0.214276 8:0.677805 9:0.22111 10:-0.578528 11:0.186279 12:-0.797003 13:-0.816933 14:-0.894954 15:-0.842001 16:-0.756663 17:-0.554141 18:-0.867385 19:-0.750593 20:-0.707625 21:-0.870443 22:0.0191375 23:0.00664968 24:0.0243496 25:-0.902185 26:-1 27:-0.84946 28:-0.55678 29:-0.822472 30:-0.669448 
11585.2 1:-0.857336 2:-0.892857 3:-0.944674 4:-0.880802 5:-0.914474 6:-0.960597 7:0.281594 8:0.328983 9:-0.0634626 10:-0.792564 11:-0.805089 12:-0.740422 13:-0.874881 14:-0.94069 15:-0.911408 16:-0.791567 17:-0.726147 18:-0.763921 19:-0.776095 20:-0.77116 21:-0.784414 22:0.320235 23:0.112339 24:0.170927 25:-0.67064 26:-0.574696 27:-0.821518 28:-0.729078 29:-0.758134 30:-0.70668 
469.0003183440455 1:-0.783697 2:-0.930665 3:-0.906362 4:-0.829874 5:-0.946102 6:-0.940714 7:-0.348273 8:-0.230821 9:-0.12919 10:-0.606228 11:-0.436 12:-0.702105 13:-0.805841 14:-0.917706 15:-0.87603 16:-0.845284 17:-0.599945 18:0.0156531 19:-0.894729 20:-0.850985 21:-0.878369 22:0.133581 23:0.316476 24:0.201144 25:-0.788385 26:-0.643632 27:-0.834782 28:-0.314967 29:-0.648263 30:-0.475374 
4475.203612526741 1:-0.523298 2:-0.820684 3:-0.760351 4:-0.652569 5:-0.870389 6:-0.853253 7:0.00869789 8:0.344417 9:0.0478288 10:-0.753904 11:-0.512117 12:-0.831666 13:-0.561706 14:-0.863116 15:-0.747716 16:-0.606816 17:-0.724625 18:-0.822017 19:-0.612002 20:-0.834788 21:-0.813542 22:0.406262 23:-0.145043 24:-0.230403 25:-0.659396 26:-0.849445 27:-0.616473 28:-0.673008 29:-0.771961 30:-0.682528 
6034.589748815794 1:-0.678726 2:-0.849875 3:-0.768286 4:-0.771007 5:-0.873172 6:-0.834042 7:0.192631 8:0.521904 9:0.244204 10:-0.806202 11:0.0452483 12:-0.6671 13:-0.707427 14:-0.905905 15:-0.79821 16:-0.635531 17:-0.587145 18:-0.573005 19:-0.704025 20:-0.837478 21:-0.706551 22:-0.111516 23:0.145655 24:0.111381 25:-0.761882 26:-0.902999 27:-0.938017 28:-0.58984 29:-0.674071 30:-0.547678 
1599.456435356359 1:-0.800008 2:-0.853022 3:-0.89685 4:-0.827578 5:-0.902391 6:-0.928975 7:0.360872 8:0.265916 9:-0.173338 10:-0.563507 11:-0.707627 12:-0.788476 13:-0.821134 14:-0.926781 15:-0.87226 16:-0.772258 17:-0.734311 18:-0.857531 19:-0.801281 20:-0.795593 21:-0.940842 22:-0.0984736 23:0.121595 24:-0.0791282 25:-0.815053 26:-0.858289 27:-0.86807 28:-0.737256 29:-0.82579 30:-0.753449 
-7755.212487518086 1:-0.843068 2:-0.664106 3:-0.908904 4:-0.913172 5:-0.949683 6:-0.947672 7:0.268563 8:-0.349335 9:-0.153899 10:-0.738291 11:-0.583054 12:-0.825029 13:-0.80552 14:-0.945444 15:-0.880013 16:-0.949418 17:-0.976614 18:-0.907211 19:-0.961419 20:-0.985916 21:-0.947585 22:-0.00319273 23:-0.476098 24:-0.0486705 25:-0.761195 26:-0.310193 27:-0.861737 28:-0.938109 29:-0.969951 30:-0.943429 
-11585.2 1:-0.942311 2:-0.961689 3:-0.926981 4:-0.959899 5:-0.964351 6:-0.960518 7:0.0949315 8:0.463229 9:-0.0980095 10:-0.884295 11:-0.508471 12:-0.827128 13:-0.928028 14:-0.981697 15:-0.954468 16:-0.876805 17:-0.891372 18:-0.936259 19:-0.853704 20:-0.917954 21:-0.931863 22:-0.148395 23:-0.133695 24:0.116979 25:-0.628897 26:-0.660665 27:-0.823464 28:-0.894584 29:-0.865794 30:-0.873715 
-1918.933061098127 1:-0.853193 2:-0.857426 3:-0.89626 4:-0.892789 5:-0.910923 6:-0.931495 7:-0.00587826 8:0.149026 9:0.304696 10:-0.901786 11:-0.82899 12:-0.577953 13:-0.870998 14:-0.932921 15:-0.901512 16:-0.68438 17:-0.689476 18:-0.808468 19:-0.738215 20:-0.70886 21:-0.816623 22:0.410579 23:-0.375079 24:-0.171485 25:-0.653821 26:-0.652999 27:-0.841238 28:-0.692345 29:-0.67149 30:-0.622692 
-7001.374037822338 1:-0.876501 2:-0.904194 3:-0.899388 4:-0.914011 5:-0.953839 6:-0.93182 7:-0.363327 8:0.196799 9:-0.124295 10:-0.530357 11:-0.739374 12:-0.77951 13:-0.89285 14:-0.956631 15:-0.923057 16:-0.871854 17:-0.252404 18:-0.329433 19:-0.913583 20:-0.766462 21:-0.649625 22:0.276494 23:-0.0171366 24:0.086059 25:-0.819 26:-0.891569 27:-0.948482 28:-0.254531 29:-0.606415 30:-0.381257 
-719.1640037256275 1:-0.917156 2:-0.905188 3:-0.917291 4:-0.938323 5:-0.944384 6:-0.95987 7:-0.400131 8:-0.567731 9:0.273239 10:-0.425964 11:-0.115735 12:-0.471141 13:-0.918332 14:-0.963128 15:-0.935864 16:-0.72539 17:-0.599945 18:-0.692892 19:-0.687231 20:-0.719057 21:-0.687263 22:-0.343604 23:-0.0873384 24:0.160327 25:-0.535999 26:-0.932306 27:-0.761414 28:-0.602661 29:-0.636095 30:-0.63128 
-213.0835040743702 1:-0.961487 2:-0.963224 3:-0.947537 4:-0.965113 5:-0.966226 6:-0.965981 7:-0.410752 8:0.771443 9:-0.520561 10:-0.445371 11:0.368304 12:-0.0990635 13:-0.948595 14:-0.965111 15:-0.966495 16:-0.941002 17:-0.969764 18:-0.932564 19:-0.942208 20:-0.980865 21:-0.966889 22:-0.107519 23:0.0882499 24:0.325615 25:-0.751533 26:-0.717572 27:-0.645458 28:-0.953703 29:-0.962762 30:-0.948182 
-6.288852507933275 1:-0.95182 2:-0.957245 3:-0.908222 4:-0.974626 5:-0.97102 6:-0.987585 7:0.440089 8:-0.321353 9:0.144939 10:-0.475686 11:-0.670126 12:-0.758594 13:-0.909258 14:-0.985207 15:-0.959449 16:-0.992491 17:-0.966305 18:-0.990146 19:-0.989422 20:-0.986978 21:-0.987559 22:0.0741383 23:0.498886 24:0.002581 25:-0.692532 26:-0.400772 27:-0.759669 28:-0.969643 29:-0.985068 30:-0.978574 
-2291.748837390978 1:-0.819185 2:-0.841484 3:-0.9333 4:-0.863583 5:-0.920649 6:-0.962469 7:0.156929 8:-0.239071 9:0.107662 10:-0.714081 11:-0.653242 12:-0.907117 13:-0.839114 14:-0.945596 15:-0.903069 16:-0.825151 17:-0.787795 18:-0.910598 19:-0.907514 20:-0.934841 21:-0.915192 22:-0.0484472 23:-0.247364 24:-0.0997011 25:-0.87124 26:-0.518769 27:-0.867399 28:-0.790831 29:-0.881464 30:-0.821127 
-540.6620833039492 1:-0.843463 2:-0.823613 3:-0.885605 4:-0.919896 5:-0.917788 6:-0.9395 7:0.580093 8:-0.617744 9:-0.103258 10:-0.0390694 11:-0.0543312 12:-0.916786 13:-0.861875 14:-0.951825 15:-0.910213 16:-0.596996 17:-0.716945 18:-0.801796 19:-0.87194 20:-0.904909 21:-0.833726 22:0.357874 23:0.191435 24:0.27353 25:-0.781934 26:-0.948102 27:-0.662769 28:-0.664761 29:-0.793345 30:-0.683387 
-11585.2 1:-0.695842 2:-0.71416 3:-0.766534 4:-0.786479 5:-0.807315 6:-0.862512 7:-0.0358553 8:0.297044 9:0.300232 10:-0.854599 11:-0.653504 12:-0.704012 13:-0.723474 14:-0.901209 15:-0.80583 16:-0.672498 17:-0.757213 18:-0.807647 19:-0.66191 20:-0.836292 21:-0.793306 22:0.0732353 23:0.213786 24:0.061238 25:-0.851688 26:-0.781438 27:-0.864764 28:-0.728177 29:-0.80459 30:-0.702472 
-11585.2 1:-0.79918 2:-0.847885 3:-0.865208 4:-0.839602 5:-0.909812 6:-0.922995 7:0.154462 8:0.289135 9:-0.118726 10:-0.67244 11:-0.760477 12:-0.741944 13:-0.820358 14:-0.953826 15:-0.876655 16:-0.651374 17:-0.670034 18:-0.780036 19:-0.579216 20:-0.735497 21:-0.753434 22:0.407935 23:0.0638085 24:-0.323348 25:-0.779258 26:-0.854893 27:-0.652292 28:-0.67287 29:-0.637017 30:-0.598118 
-194.9519629749436 1:-0.864455 2:-0.877394 3:-0.831443 4:-0.890925 5:-0.91997 6:-0.898152 7:0.207003 8:-0.125249 9:-0.0108607 10:-0.477889 11:-0.510697 12:-0.787453 13:-0.832437 14:-0.923493 15:-0.887168 16:-0.850483 17:-0.626859 18:-0.89438 19:-0.877335 20:-0.738042 21:-0.878704 22:0.283114 23:0.0883635 24:-0.0204831 25:-0.736071 26:-0.931729 27:-0.421037 28:-0.629622 29:-0.833902 30:-0.723721 
-4137.879775204042 1:-0.975494 2:-0.947223 3:-0.960519 4:-0.976571 5:-0.966275 6:-0.981268 7:0.736853 8:0.0520723 9:0.0756588 10:0.347763 11:-0.940335 12:-0.816441 13:-0.961584 14:-0.980536 15:-0.975595 16:-0.830679 17:-0.80613 18:-0.877752 19:-0.791193 20:-0.879742 21:-0.888062 22:-0.329321 23:-0.283196 24:-0.0269244 25:-0.621204 26:-0.694414 27:-0.910798 28:-0.809197 29:-0.770486 30:-0.781054 
-627.2426524647875 1:-0.98473 2:-0.974561 3:-0.914285 4:-0.988346 5:-0.981547 6:-0.965056 7:-0.0799192 8:0.116957 9:-0.263799 10:-0.873993 11:-0.917779 12:-0.705194 13:-0.915324 14:-0.989401 15:-0.966877 16:-0.927222 17:-0.955857 18:-0.953811 19:-0.920994 20:-0.959086 21:-0.941935 22:-0.637001 23:-0.415733 24:0.744497 25:0.151369 26:-0.248774 27:0.350731 28:-0.942128 29:-0.904139 30:-0.93567 
-5893.807125542985 1:-0.879484 2:-0.857784 3:-0.788598 4:-0.888978 5:-0.910974 6:-0.874958 7:-0.60437 8:-0.192949 9:0.0161601 10:0.0422778 11:-0.639754 12:-0.814799 13:-0.789569 14:-0.903077 15:-0.87371 16:-0.750639 17:-0.85657 18:-0.820477 19:-0.740358 20:-0.903423 21:-0.828083 22:0.0826509 23:-0.126646 24:0.0263194 25:-0.87288 26:-0.892983 27:-0.826372 28:-0.793811 29:-0.863213 30:-0.800903 
-3198.47908845176 1:-0.904768 2:-0.875016 3:-0.951963 4:-0.900278 5:-0.893935 6:-0.967008 7:0.295037 8:-0.412573 9:0.234591 10:-0.435791 11:-0.179091 12:-0.521544 13:-0.919351 14:-0.942867 15:-0.919825 16:-0.878868 17:-0.815194 18:-0.885348 19:-0.889064 20:-0.874545 21:-0.850911 22:0.134962 23:0.154221 24:-0.423653 25:-0.842989 26:-0.836355 27:-0.471513 28:-0.818276 29:-0.874458 30:-0.837557 
-4771.6238576821 1:-0.858507 2:-0.811462 3:-0.887344 4:-0.894698 5:-0.890542 6:-0.942119 7:0.0198447 8:-0.00177232 9:0.0456312 10:-0.72637 11:-0.914739 12:-0.912764 13:-0.87598 14:-0.955452 15:-0.899566 16:-0.842561 17:-0.783228 18:-0.923941 19:-0.810088 20:-0.837516 21:-0.922789 22:-0.258617 23:0.197823 24:0.0282451 25:-0.613798 26:-0.773939 27:-0.814796 28:-0.786256 29:-0.84275 30:-0.800318 
-1597.431385343499 1:-0.980841 2:-0.922111 3:-0.934343 4:-0.992108 5:-0.957213 6:-0.961426 7:0.361987 8:-0.0306581 9:-0.0358248 10:-0.566777 11:-0.737841 12:-0.883808 13:-0.935393 14:-0.98364 15:-0.965589 16:-0.701626 17:-0.751332 18:-0.726456 19:-0.922987 20:-0.812841 21:-0.940476 22:0.189189 23:0.32696 24:-0.206772 25:-0.394241 26:-0.683703 27:-0.690489 28:-0.752642 29:-0.735828 30:-0.701193 
-2059.565231900587 1:-0.939037 2:-0.901123 3:-0.967245 4:-0.977992 5:-0.973868 6:-0.982752 7:0.375356 8:-0.103335 9:0.0204039 10:-0.375915 11:-0.668757 12:-0.814926 13:-0.950969 14:-0.98338 15:-0.965398 16:-0.915835 17:-0.945548 18:-0.917064 19:-0.949951 20:-0.97927 21:-0.911522 22:-0.742031 23:-0.102409 24:0.25122 25:0.431554 26:-0.875637 27:-0.793173 28:-0.932564 29:-0.911328 30:-0.919353 
-11585.2 1:-0.806563 2:-0.68218 3:-0.348305 4:-0.851366 5:-0.757522 6:-0.565446 7:-0.240185 8:0.539063 9:0.44444 10:-0.533316 11:-0.219703 12:-0.427614 13:-0.349038 14:-0.681893 15:-0.611467 16:-0.387903 17:-0.773127 18:-0.791327 19:-0.59713 20:-0.82854 21:-0.801475 22:-0.234796 23:0.170285 24:-0.011202 25:-0.714037 26:-0.840528 27:-0.888626 28:-0.489136 29:-0.710388 30:-0.602107 
-6309.277058299156 1:-0.900389 2:-0.906966 3:-0.875041 4:-0.98145 5:-0.979344 6:-0.906985 7:-0.161494 8:-0.178909 9:0.425528 10:-0.71166 11:-0.822336 12:-0.528695 13:-0.876059 14:-0.946391 15:-0.909313 16:-0.837445 17:-0.867848 18:-0.706236 19:-0.743432 20:-0.883601 21:-0.904214 22:-0.564512 23:-0.147558 24:0.0901498 25:0.130921 26:-0.331973 27:-0.899611 28:-0.802405 29:-0.731588 30:-0.768265 
-1898.192047518091 1:-0.98733 2:-0.962703 3:-0.962399 4:-0.989883 5:-0.992841 6:-0.983584 7:-0.0411355 8:0.440755 9:-0.0114965 10:-0.876821 11:-0.357901 12:-0.870182 13:-0.963464 14:-0.992944 15:-0.982394 16:-0.977721 17:-0.970594 18:-0.940775 19:-0.972726 20:-0.979585 21:-0.954104 22:-0.313939 23:-0.223043 24:0.145657 25:-0.402529 26:-0.65885 27:-0.810372 28:-0.960772 29:-0.962577 30:-0.961318 
-715.307353788101 1:-0.719988 2:-0.779404 3:-0.858139 4:-0.84842 5:-0.897143 6:-0.928516 7:0.119206 8:-0.0368642 9:-0.0479963 10:-0.852071 11:-0.910618 12:-0.852561 13:-0.746112 14:-0.93833 15:-0.849974 16:-0.961383 17:-0.954681 18:-0.981011 19:-0.98049 20:-0.979969 21:-0.983789 22:-0.173789 23:-0.0771004 24:-0.00101016 25:-0.712385 26:-0.904772 27:-0.831971 28:-0.958 29:-0.977878 30:-0.96236 
-4056.765759070688 1:-0.996537 2:-0.960182 3:-0.969324 4:-0.995199 5:-0.981235 6:-0.988789 7:-0.26411 8:0.218504 9:0.0269006 10:-0.386365 11:-0.625645 12:-0.857892 13:-0.970393 14:-0.989672 15:-0.985135 16:-0.991914 17:-0.992735 18:-0.991686 19:-0.990198 20:-0.994187 21:-0.989104 22:0.334718 23:-0.306795 24:-0.033 25:-0.674857 26:-0.343858 27:-0.947608 28:-0.995148 29:-0.997603 30:-0.994722 
-5343.602770609283 1:-0.818233 2:-0.895604 3:-0.939932 4:-0.872594 5:-0.913656 6:-0.957094 7:-0.224203 8:-0.399675 9:-0.0495711 10:-0.704979 11:-0.416375 12:-0.754575 13:-0.838221 14:-0.959271 15:-0.908531 16:-0.258025 17:0.217394 18:-0.139749 19:-0.85162 20:-0.832153 21:-0.805318 22:0.217517 23:-0.128409 24:0.120301 25:-0.88364 26:-0.787995 27:-0.833796 28:0.216065 29:-0.48198 30:-0.0540836 
-6959.550872577108 1:-0.884191 2:-0.850107 3:-0.914325 4:-0.905807 5:-0.894069 6:-0.945802 7:-0.542115 8:-0.224296 9:0.197773 10:-0.0896709 11:-0.54543 12:-0.832647 13:-0.90006 14:-0.936478 15:-0.912332 16:-0.695189 17:-0.628935 18:-0.807852 19:-0.737775 20:-0.773454 21:-0.793547 22:0.220372 23:-0.0775952 24:0.2117 25:-0.939995 26:-0.949067 27:-0.674716 28:-0.631701 29:-0.768642 30:-0.684116 
-3856.292689263845 1:-0.847506 2:-0.879302 3:-0.871417 4:-0.876187 5:-0.912743 6:-0.920538 7:-0.265589 8:-0.348964 9:-0.19021 10:-0.655695 11:-0.653476 12:-0.654162 13:-0.865666 14:-0.929453 15:-0.895 16:-0.646423 17:-0.579603 18:-0.515114 19:-0.808853 20:-0.814764 21:-0.849787 22:0.539316 23:-0.307059 24:0.474371 25:-0.249351 26:-0.632235 27:-0.36912 28:-0.582285 29:-0.739515 30:-0.59467 
-3525.314793469735 1:-0.790365 2:-0.831073 3:-0.81603 4:-0.847515 5:-0.87808 6:-0.877134 7:-0.340248 8:-0.0682749 9:0.238165 10:-0.593025 11:-0.785987 12:-0.67885 13:-0.812093 14:-0.896761 15:-0.849919 16:-0.884726 17:-0.990936 18:-0.937593 19:-0.954726 20:-0.990552 21:-0.932472 22:0.0721135 23:0.357272 24:0.219973 25:-0.952943 26:-0.73344 27:-0.776377 28:-0.906435 29:-0.955756 30:-0.928697 
-11585.2 1:-0.66548 2:-0.616349 3:-0.715822 4:-0.768468 5:-0.761405 6:-0.763233 7:0.11527 8:0.296623 9:0.187587 10:-0.751822 11:-0.638233 12:-0.269387 13:-0.695008 14:-0.765651 15:-0.711673 16:-0.717468 17:-0.723241 18:-0.7165 19:-0.695606 20:-0.788725 21:-0.927774 22:0.119847 23:0.323009 24:0.162538 25:-0.830227 26:-0.774824 27:-0.748378 28:-0.726167 29:-0.759794 30:-0.699197 
-2174.108954435534 1:-0.888063 2:-0.956962 3:-0.938555 4:-0.869951 5:-0.977538 6:-0.95867 7:-0.450552 8:-0.499393 9:-0.0896851 10:-0.307329 11:-0.146674 12:-0.727534 13:-0.90369 14:-0.946157 15:-0.914931 16:-0.894793 17:-0.932056 18:-0.714755 19:-0.938488 20:-0.95145 21:-0.820874 22:0.0509755 23:-0.245685 24:-0.141799 25:-0.856128 26:-0.730069 27:-0.781446 28:-0.808157 29:-0.881279 30:-0.829583 
-3550.133704397074 1:-0.758681 2:-0.919422 3:-0.917655 4:-0.808258 5:-0.944411 6:-0.940706 7:0.191308 8:-0.143994 9:0.274415 10:-0.527924 11:-0.849802 12:-0.777292 13:-0.782388 14:-0.929526 15:-0.870574 16:-0.921116 17:-0.821698 18:-0.686323 19:-0.911807 20:-0.879012 21:-0.728752 22:-0.188507 23:0.12651 24:-0.287607 25:-0.790621 26:-0.895413 27:-0.753356 28:-0.788959 29:-0.862845 30:-0.770367 
-2365.9100271654 1:-0.926587 2:-0.939318 3:-0.930486 4:-0.933856 5:-0.960341 6:-0.954607 7:-0.428404 8:0.158915 9:-0.158615 10:-0.341698 11:-0.801257 12:-0.794722 13:-0.931534 14:-0.955993 15:-0.947671 16:-0.195231 17:-0.62596 18:-0.273595 19:-0.0279135 20:-0.759455 21:-0.260652 22:0.0768111 23:0.249917 24:0.384679 25:-0.533522 26:-0.58163 27:-0.695718 28:-0.327304 29:-0.3616 30:-0.245722 
-11585.2 1:-0.837465 2:-0.818307 3:-0.749124 4:-0.876244 5:-0.877751 6:-0.830219 7:-0.232171 8:-0.231864 9:0.329006 10:-0.480724 11:-0.750653 12:-0.64354 13:-0.750074 14:-0.913847 15:-0.8256 16:-0.541216 17:-0.468069 18:-0.717937 19:-0.561865 20:-0.645434 21:-0.709416 22:-0.17856 23:0.149002 24:0.337578 25:-0.762294 26:-0.885987 27:-0.67529 28:-0.470562 29:-0.468707 30:-0.440873 
-11585.2 1:-0.810117 2:-0.855237 3:-0.812435 4:-0.859069 5:-0.913637 6:-0.895015 7:0.221561 8:0.0604209 9:0.0286153 10:-0.759993 11:-0.803644 12:-0.732371 13:-0.813419 14:-0.93827 15:-0.867437 16:-0.651869 17:-0.743859 18:-0.764639 19:-0.765441 20:-0.794723 21:-0.757717 22:0.163162 23:-0.338834 24:0.15228 25:-0.756797 26:-0.651089 27:-0.819764 28:-0.71085 29:-0.676837 30:-0.651394 
-7643.053540693135 1:-0.968212 2:-0.970953 3:-0.984646 4:-0.978255 5:-0.976157 6:-0.987681 7:-0.00605091 8:0.0862666 9:0.19935 10:-0.669394 11:-0.712907 12:-0.674326 13:-0.978833 14:-0.993219 15:-0.984985 16:-0.917485 17:-0.812703 18:-0.595689 19:-0.945224 20:-0.872351 21:-0.960688 22:-0.187426 23:0.488532 24:0.0364079 25:-0.566782 26:-0.534893 27:-0.843187 28:-0.727761 29:-0.806802 30:-0.754829 
-1579.490850601625 1:-0.894103 2:-0.984305 3:-0.958395 4:-0.924595 5:-0.985886 6:-0.968806 7:-0.18536 8:-0.185359 9:0.389128 10:-0.839593 11:-0.704352 12:-0.482705 13:-0.909352 14:-0.96863 15:-0.952872 16:-0.956019 17:-0.945132 18:-0.978548 19:-0.952496 20:-0.945345 21:-0.97746 22:-0.29692 23:0.634374 24:0.17732 25:-0.564046 26:-0.0917795 27:-0.769116 28:-0.948435 29:-0.920177 30:-0.933356 
-11585.2 1:-0.701015 2:-0.700575 3:-0.73867 4:-0.795591 5:-0.838753 6:-0.852211 7:-0.0529622 8:0.0647076 9:0.157407 10:-0.812489 11:-0.926145 12:-0.853239 13:-0.728324 14:-0.920138 15:-0.793287 16:-0.765575 17:-0.694596 18:-0.680883 19:-0.831456 20:-0.777691 21:-0.882605 22:0.314639 23:-0.445378 24:0.0933264 25:-0.639829 26:-0.589418 27:-0.80392 28:-0.697474 29:-0.815836 30:-0.705132 
-370.9228322553527 1:-0.952777 2:-0.918339 3:-0.953488 4:-0.964208 5:-0.973853 6:-0.992149 7:0.183698 8:0.0584839 9:0.0963212 10:-0.773389 11:-0.738936 12:-0.890605 13:-0.954548 14:-0.975828 15:-0.965015 16:-0.938774 17:-0.928942 18:-0.777367 19:-0.926944 20:-0.940658 21:-0.922895 22:-0.539454 23:0.672858 24:-0.455895 25:-0.148207 26:-0.0874695 27:-0.425745 28:-0.850435 29:-0.863213 30:-0.878792 
-6547.297488924503 1:-0.98427 2:-0.902331 3:-0.83843 4:-0.980209 5:-0.938403 6:-0.924965 7:0.646766 8:0.434859 9:0.0232787 10:0.0679849 11:-0.256332 12:-0.849552 13:-0.839428 14:-0.954589 15:-0.916459 16:-0.8924 17:-0.917872 18:-0.877649 19:-0.893789 20:-0.966011 21:-0.873591 22:0.217409 23:-0.021367 24:0.36826 25:-0.856879 26:-0.886603 27:-0.687059 28:-0.912881 29:-0.893815 30:-0.88874 
-11585.2 1:-0.69471 2:-0.668946 3:-0.908695 4:-0.800475 5:-0.817068 6:-0.953569 7:0.0174516 8:0.0980757 9:-0.151605 10:-0.939781 11:-0.975446 12:-0.831979 13:-0.722413 14:-0.937974 15:-0.847247 16:-0.868801 17:-0.538435 18:-0.665178 19:-0.888457 20:-0.737867 21:-0.672082 22:0.0184592 23:0.11202 24:0.0565894 25:-0.802679 26:-0.822809 27:-0.848278 28:-0.541047 29:-0.647341 30:-0.595545 
-34.64382621812931 1:-0.75848 2:-0.687071 3:-0.569857 4:-0.838196 5:-0.823177 6:-0.783998 7:0.0199794 8:-0.244403 9:0.12392 10:-0.648838 11:-0.663699 12:-0.855109 13:-0.570709 14:-0.902795 15:-0.730562 16:-0.786121 17:-0.693489 18:-0.67688 19:-0.853676 20:-0.955368 21:-0.791624 22:-0.0209721 23:-0.0885961 24:-0.122603 25:-0.947593 26:-0.615501 27:-0.704279 28:-0.696365 29:-0.809199 30:-0.715914 
-5856.091916039962 1:-0.93843 2:-0.953287 3:-0.95609 4:-0.952575 5:-0.97206 6:-0.984524 7:0.179584 8:0.257988 9:-0.0403898 10:-0.786333 11:-0.70748 12:-0.834514 13:-0.950911 14:-0.976002 15:-0.964985 16:-0.980361 17:-0.93766 18:-0.765358 19:-0.985531 20:-0.964057 21:-0.911395 22:-0.012366 23:0.275257 24:0.08634 25:-0.435986 26:-0.801742 27:-0.823451 28:-0.842326 29:-0.913909 30:-0.882864 
-11585.2 1:-0.91905 2:-0.93922 3:-0.908072 4:-0.928948 5:-0.954417 6:-0.932686 7:0.18619 8:0.20967 9:0.0154089 10:-0.448925 11:-0.622242 12:-0.669352 13:-0.909108 14:-0.946757 15:-0.931659 16:-0.830679 17:-0.557393 18:-0.454965 19:-0.825749 20:-0.905863 21:-0.951809 22:-0.256824 23:-0.0112076 24:-0.234617 25:-0.787583 26:-0.682121 27:-0.704503 28:-0.560037 29:-0.71979 30:-0.608553 
-7196.902587757019 1:-0.88832 2:-0.886527 3:-0.932013 4:-0.917387 5:-0.929453 6:-0.962958 7:-0.162101 8:0.458543 9:0.0742331 10:-0.793678 11:-0.192629 12:-0.809092 13:-0.903931 14:-0.967445 15:-0.932036 16:-0.89141 17:-0.768906 18:-0.756325 19:-0.902916 20:-0.839019 21:-0.779624 22:-0.112524 23:-0.0796863 24:-0.0281389 25:-0.836323 26:-0.814067 27:-0.961968 28:-0.77191 29:-0.86561 30:-0.790483 
-2204.757295841659 1:-0.858355 2:-0.96107 3:-0.955806 4:-0.993114 5:-0.993918 6:-0.972506 7:-0.485167 8:0.0682414 9:0.0606114 10:-0.120536 11:-0.864833 12:-0.963854 13:-0.875837 14:-0.984476 15:-0.947749 16:-0.964436 17:-0.947139 18:-0.945702 19:-0.953864 20:-0.979656 21:-0.941044 22:-0.511346 23:0.328328 24:-0.157047 25:-0.197294 26:-0.782436 27:-0.859202 28:-0.950445 29:-0.95465 30:-0.947204 
-11585.2 1:-0.903862 2:-0.824728 3:-0.927708 4:-0.977713 5:-0.899687 6:-0.954821 7:0.340308 8:0.13369 9:-0.0868744 10:-0.53308 11:-0.91933 12:-0.92346 13:-0.904089 14:-0.969293 15:-0.934389 16:-0.58858 17:-0.541618 18:-0.571671 19:-0.521466 20:-0.727073 21:-0.796638 22:-0.285305 23:0.0946708 24:-0.113252 25:-0.467319 26:-0.403908 27:-0.700379 28:-0.544235 29:-0.562172 30:-0.507853 
-6437.867000218362 1:-0.409763 2:-0.611122 3:-0.892164 4:-0.554097 5:-0.780914 6:-0.932924 7:0.291456 8:0.137505 9:-0.0156392 10:-0.618559 11:-0.84175 12:-0.900315 13:-0.455262 14:-0.853843 15:-0.696774 16:-0.841736 17:-0.688369 18:0.258917 19:-0.951835 20:-0.792832 21:-0.346406 22:0.0549204 23:-0.206706 24:0.356604 25:-0.741584 26:-0.840471 27:-0.547015 28:-0.150709 29:-0.602728 30:-0.341789 
-5370.843788213388 1:-0.878015 2:-0.946761 3:-0.954498 4:-0.899536 5:-0.956902 6:-0.964867 7:0.322294 8:0.506125 9:0.106696 10:-0.537381 11:-0.121018 12:-0.618563 13:-0.89427 14:-0.949455 15:-0.931825 16:-0.920951 17:-0.780115 18:-0.540467 19:-0.910695 20:-0.877122 21:-0.779998 22:0.446446 23:-0.2383 24:0.555619 25:-0.54708 26:-0.740324 27:-0.342568 28:-0.690474 29:-0.818232 30:-0.728203 
-9356.62667240452 1:-0.651465 2:-0.884452 3:-0.763631 4:-0.755998 5:-0.939887 6:-0.869781 7:-0.159133 8:0.16264 9:-0.0310071 10:-0.851542 11:-0.765075 12:-0.94799 13:-0.681868 14:-0.93101 15:-0.814049 16:-0.810133 17:-0.942642 18:-0.827046 19:-0.785773 20:-0.949121 21:-0.842929 22:-0.255927 23:0.27879 24:0.150538 25:-0.656878 26:-0.722206 27:-0.835161 28:-0.843781 29:-0.857498 30:-0.836322 
